{"learner":{"attributes":{"best_iteration":"99","best_ntree_limit":"100","scikit_learn":"{\"use_label_encoder\": null, \"n_estimators\": 100, \"objective\": \"binary:logistic\", \"max_depth\": null, \"max_leaves\": null, \"max_bin\": null, \"grow_policy\": null, \"learning_rate\": null, \"verbosity\": null, \"booster\": null, \"tree_method\": null, \"gamma\": null, \"min_child_weight\": null, \"max_delta_step\": null, \"subsample\": null, \"sampling_method\": null, \"colsample_bytree\": null, \"colsample_bylevel\": null, \"colsample_bynode\": null, \"reg_alpha\": null, \"reg_lambda\": null, \"scale_pos_weight\": null, \"base_score\": null, \"missing\": NaN, \"num_parallel_tree\": null, \"random_state\": null, \"n_jobs\": null, \"monotone_constraints\": null, \"interaction_constraints\": null, \"importance_type\": null, \"gpu_id\": null, \"validate_parameters\": null, \"predictor\": null, \"enable_categorical\": false, \"feature_types\": null, \"max_cat_to_onehot\": null, \"max_cat_threshold\": null, \"eval_metric\": null, \"early_stopping_rounds\": null, \"callbacks\": null, \"classes_\": [0, 1], \"n_classes_\": 2, \"_estimator_type\": \"classifier\"}"},"feature_names":[],"feature_types":[],"gradient_booster":{"model":{"gbtree_model_param":{"num_parallel_tree":"1","num_trees":"100","size_leaf_vector":"0"},"tree_info":[0,0,0,0,0,0,0,0,0,0,0,0,0,0,0,0,0,0,0,0,0,0,0,0,0,0,0,0,0,0,0,0,0,0,0,0,0,0,0,0,0,0,0,0,0,0,0,0,0,0,0,0,0,0,0,0,0,0,0,0,0,0,0,0,0,0,0,0,0,0,0,0,0,0,0,0,0,0,0,0,0,0,0,0,0,0,0,0,0,0,0,0,0,0,0,0,0,0,0,0],"trees":[{"base_weights":[-2.819862E-1,-1.99898E0,5.798598E-1,-1.9996599E0,-3.1578946E-1,1.9975536E0,-1.8114159E0,1.2E0,-1.3846154E0,1.9998186E0,1.3793103E-1,-1.0879152E0,-1.9258243E0,-1.7241379E0,1.7575758E0,-1.9261888E0,1.9895968E0,-1.9968069E0,-1.7837981E0,-1.9942133E0,1.5087719E0,-2.9467085E-1,-1.8483177E0,1.8461539E0,-1.1111112E0,-1.9537572E0,1.6266667E0,-1.4807973E0,-1.9923062E0],"categories":[],"categories_nodes":[],"categories_segments":[],"categories_sizes":[],"default_left":[1,1,1,0,1,1,1,0,0,0,1,1,1,0,0,1,0,0,1,0,1,1,1,0,0,0,0,0,0],"id":0,"left_children":[1,3,5,-1,7,9,11,-1,-1,-1,13,15,17,-1,-1,19,-1,-1,21,-1,23,25,27,-1,-1,-1,-1,-1,-1],"loss_changes":[3.907042E4,9.464844E0,5.959898E4,0E0,9.357084E0,4.6210938E1,5.39541E2,0E0,0E0,0E0,4.6760708E1,2.3146855E3,5.3384766E1,0E0,0E0,1.6762354E2,0E0,0E0,1.8121094E2,0E0,1.4646877E1,2.5739438E2,9.299121E1,0E0,0E0,0E0,0E0,0E0,0E0],"parents":[2147483647,0,0,1,1,2,2,4,4,5,5,6,6,10,10,11,11,12,12,15,15,18,18,20,20,21,21,22,22],"right_children":[2,4,6,-1,8,10,12,-1,-1,-1,14,16,18,-1,-1,20,-1,-1,22,-1,24,26,28,-1,-1,-1,-1,-1,-1],"split_conditions":[5.35478E1,3.8207495E0,2.0281236E0,-5.99898E-1,1.3430384E1,1.1568409E0,4.0004683E0,3.6E-1,-4.1538465E-1,5.999456E-1,1.0635213E2,1.9191672E3,1.9999492E0,-5.172414E-1,5.2727276E-1,5.2736473E0,5.9687907E-1,-5.9904206E-1,2.000495E0,-5.9826404E-1,1.822155E1,8.393E3,6.00219E0,5.538462E-1,-3.3333337E-1,-5.8612716E-1,4.88E-1,-4.442392E-1,-5.976919E-1],"split_indices":[1,2,0,0,2,0,0,0,0,0,1,1,2,0,0,2,0,0,2,0,2,1,2,0,0,0,0,0,0],"split_type":[0,0,0,0,0,0,0,0,0,0,0,0,0,0,0,0,0,0,0,0,0,0,0,0,0,0,0,0,0],"sum_hessian":[2.6401E4,8.82275E3,1.757825E4,8.819E3,3.75E0,1.103575E4,6.5425E3,1.5E0,2.25E0,1.102225E4,1.35E1,8.9475E2,5.64775E3,6.25E0,7.25E0,7.035E2,1.9125E2,3.757E3,1.89075E3,6.9025E2,1.325E1,7.875E1,1.812E3,1.2E1,1.25E0,4.225E1,3.65E1,5.1325E2,1.29875E3],"tree_param":{"num_deleted":"0","num_feature":"3","num_nodes":"29","size_leaf_vector":"0"}},{"base_weights":[-2.1808997E-1,-1.5479977E0,4.4854063E-1,-1.5485518E0,-2.4149612E-1,1.5468943E0,-1.3971823E0,1.005434E0,-1.1340214E0,1.5486879E0,1.0471093E-1,-8.414124E-1,-1.4847533E0,-1.3631439E0,1.3855138E0,-1.4907157E0,1.5417262E0,-1.5459803E0,-1.3637047E0,-1.5441573E0,1.1567211E0,-1.5462698E0,-4.750676E-1,-9.8417675E-1,-1.5420567E0,1.4448583E0,-9.418921E-1,-1.4174016E0,1.1574283E0,-1.5437309E0,1.0520888E-1],"categories":[],"categories_nodes":[],"categories_segments":[],"categories_sizes":[],"default_left":[1,1,1,0,1,1,1,0,0,0,1,1,1,0,0,1,0,1,1,0,1,0,0,1,1,0,0,0,0,0,0],"id":1,"left_children":[1,3,5,-1,7,9,11,-1,-1,-1,13,15,17,-1,-1,19,-1,21,23,-1,25,-1,-1,27,29,-1,-1,-1,-1,-1,-1],"loss_changes":[2.1442104E4,5.4726562E0,3.2662455E4,0E0,6.2686143E0,2.5964844E1,2.9129688E2,0E0,0E0,0E0,2.7491848E1,1.2719418E3,3.6368164E1,0E0,0E0,9.308984E1,0E0,3.3203125E-1,1.1709473E2,0E0,9.427904E0,0E0,0E0,5.2395996E2,3.4450684E0,0E0,0E0,0E0,0E0,0E0,0E0],"parents":[2147483647,0,0,1,1,2,2,4,4,5,5,6,6,10,10,11,11,12,12,15,15,17,17,18,18,20,20,23,23,24,24],"right_children":[2,4,6,-1,8,10,12,-1,-1,-1,14,16,18,-1,-1,20,-1,22,24,-1,26,-1,-1,28,30,-1,-1,-1,-1,-1,-1],"split_conditions":[5.35478E1,3.8207495E0,2.0281236E0,-4.6456555E-1,1.3430384E1,1.1568409E0,4.0004683E0,3.0163023E-1,-3.4020644E-1,4.646064E-1,1.0635213E2,1.9191672E3,1.9999492E0,-4.089432E-1,4.1565415E-1,5.2736473E0,4.625179E-1,2.650475E5,6.00219E0,-4.632472E-1,1.822155E1,-4.6388096E-1,-1.4252028E-1,5.996402E0,1.5074707E4,4.3345752E-1,-2.8256765E-1,-4.252205E-1,3.472285E-1,-4.6311927E-1,3.1562667E-2],"split_indices":[1,2,0,0,2,0,0,0,0,0,1,1,2,0,0,2,0,1,2,0,2,0,0,2,0,0,0,0,0,0,0],"split_type":[0,0,0,0,0,0,0,0,0,0,0,0,0,0,0,0,0,0,0,0,0,0,0,0,0,0,0,0,0,0,0],"sum_hessian":[2.4184027E4,8.0744414E3,1.6109587E4,8.0708335E3,3.608099E0,1.0099646E4,6.0099404E3,1.4524307E0,2.1556683E0,1.0087027E4,1.26184845E1,8.195119E2,5.1904287E3,5.8499284E0,6.7685566E0,6.443332E2,1.7517874E2,3.439129E3,1.7512998E3,6.3199243E2,1.23407545E1,3.4377556E3,1.3730884E0,5.6196765E2,1.1893322E3,1.1124844E1,1.2159108E0,4.6769577E2,9.4271904E1,1.1881874E3,1.1446892E0],"tree_param":{"num_deleted":"0","num_feature":"3","num_nodes":"31","size_leaf_vector":"0"}},{"base_weights":[-1.8881515E-1,-1.3440281E0,3.8817933E-1,-1.3445642E0,-1.9380865E-1,1.3430995E0,-1.2010592E0,8.7010634E-1,-9.727173E-1,1.3447223E0,8.687588E-2,-7.2897583E-1,-1.2747166E0,-1.1664598E0,1.1866517E0,-1.2922456E0,1.3375185E0,-1.3415499E0,-1.1466132E0,-1.3395985E0,9.6944535E-1,-1.341837E0,-4.0495482E-1,1.9334753E-1,-1.2115607E0,1.2417659E0,-8.199743E-1,-1.3236811E0,1.5670832E0,-9.2846924E-1,-1.3370259E0],"categories":[],"categories_nodes":[],"categories_segments":[],"categories_sizes":[],"default_left":[1,1,1,0,1,1,1,0,0,0,1,1,1,0,0,1,0,1,1,0,1,0,0,1,1,0,0,0,0,0,0],"id":2,"left_children":[1,3,5,-1,7,9,11,-1,-1,-1,13,15,17,-1,-1,19,-1,21,23,-1,25,-1,-1,27,29,-1,-1,-1,-1,-1,-1],"loss_changes":[1.3469223E4,3.890625E0,2.0453592E4,0E0,4.4132533E0,1.7046875E1,1.7497705E2,0E0,0E0,0E0,1.7829315E1,7.9919226E2,3.5916016E1,0E0,0E0,5.9010925E1,0E0,2.2802734E-1,1.3136023E2,0E0,6.686037E0,0E0,0E0,1.4903117E2,4.9805664E1,0E0,0E0,0E0,0E0,0E0,0E0],"parents":[2147483647,0,0,1,1,2,2,4,4,5,5,6,6,10,10,11,11,12,12,15,15,17,17,18,18,20,20,23,23,24,24],"right_children":[2,4,6,-1,8,10,12,-1,-1,-1,14,16,18,-1,-1,20,-1,22,24,-1,26,-1,-1,28,30,-1,-1,-1,-1,-1,-1],"split_conditions":[5.35478E1,3.8207495E0,2.0281236E0,-4.0336928E-1,1.3430384E1,1.1568409E0,4.0004683E0,2.6103193E-1,-2.918152E-1,4.034167E-1,1.0635213E2,1.9191672E3,1.9999492E0,-3.4993795E-1,3.5599554E-1,5.2736473E0,4.0125555E-1,2.650475E5,2.000495E0,-4.0187958E-1,1.822155E1,-4.0255114E-1,-1.2148645E-1,8.393E3,6.00219E0,3.7252977E-1,-2.459923E-1,-3.9710435E-1,4.70125E-1,-2.785408E-1,-4.011078E-1],"split_indices":[1,2,0,0,2,0,0,0,0,0,1,1,2,0,0,2,0,1,2,0,2,0,0,1,2,0,0,0,0,0,0],"split_type":[0,0,0,0,0,0,0,0,0,0,0,0,0,0,0,0,0,0,0,0,0,0,0,0,0,0,0,0,0,0,0],"sum_hessian":[2.0205543E4,6.729979E3,1.3475564E4,6.726675E3,3.3042326E0,8.417766E3,5.0577983E3,1.3471162E0,1.9571164E0,8.406835E3,1.0930697E1,6.8411005E2,4.3736885E3,5.080352E0,5.850346E0,5.3787476E2,1.4623529E2,2.8679604E3,1.5057279E3,5.272436E2,1.0631174E1,2.866649E3,1.3113086E0,6.951685E1,1.436211E3,9.492605E0,1.1385689E0,3.3052795E1,3.6464058E1,4.4363092E2,9.9258014E2],"tree_param":{"num_deleted":"0","num_feature":"3","num_nodes":"31","size_leaf_vector":"0"}},{"base_weights":[-1.7183112E-1,-1.2294508E0,3.538016E-1,-1.230009E0,-1.5968858E-1,1.2286481E0,-1.0828713E0,7.6829654E-1,-8.561043E-1,1.2302097E0,7.496368E-2,-1.2253947E0,-8.692371E-1,-1.0361644E0,1.0564933E0,-1.2257024E0,-3.464516E-1,-5.3769857E-1,-1.2206277E0,-1.1332963E0,5.5062175E-1,-1.2229418E0,2.0211391E-1,-1.2687035E0,1.7692509E0,1.3091785E0,-9.458379E-1],"categories":[],"categories_nodes":[],"categories_segments":[],"categories_sizes":[],"default_left":[1,1,1,0,1,1,1,0,0,0,1,1,1,0,0,0,0,1,1,1,1,0,0,0,0,0,0],"id":3,"left_children":[1,3,5,-1,7,9,11,-1,-1,-1,13,15,17,-1,-1,-1,-1,19,21,23,25,-1,-1,-1,-1,-1,-1],"loss_changes":[8.997046E3,3.0117188E0,1.35897E4,0E0,3.2114813E0,1.2013672E1,1.2353662E2,0E0,0E0,0E0,1.2162741E1,2.3876953E-1,1.9052625E2,0E0,0E0,0E0,0E0,5.491109E2,2.8675537E0,2.1731116E2,3.417383E2,0E0,0E0,0E0,0E0,0E0,0E0],"parents":[2147483647,0,0,1,1,2,2,4,4,5,5,6,6,10,10,11,11,12,12,17,17,18,18,19,19,20,20],"right_children":[2,4,6,-1,8,10,12,-1,-1,-1,14,16,18,-1,-1,-1,-1,20,22,24,26,-1,-1,-1,-1,-1,-1],"split_conditions":[5.35478E1,3.8207495E0,2.0281236E0,-3.690027E-1,1.3430384E1,1.1568409E0,1.9999492E0,2.3048897E-1,-2.5683132E-1,3.6906293E-1,1.0635213E2,2.650475E5,6.00219E0,-3.1084934E-1,3.16948E-1,-3.6771074E-1,-1.0393549E-1,8.85642E2,1.38203E4,5.9937477E0,3.3197227E1,-3.6688253E-1,6.0634177E-2,-3.8061106E-1,5.307753E-1,3.9275357E-1,-2.837514E-1],"split_indices":[1,2,0,0,2,0,2,0,0,0,1,1,2,0,0,0,0,1,0,2,0,0,0,0,0,0,0],"split_type":[0,0,0,0,0,0,0,0,0,0,0,0,0,0,0,0,0,0,0,0,0,0,0,0,0,0,0],"sum_hessian":[1.6182298E4,5.372006E3,1.0810292E4,5.3690547E3,2.9515455E0,6.718984E3,4.0913079E3,1.2211406E0,1.7304047E0,6.7098354E3,9.148533E0,2.4512505E3,1.6400575E3,4.2648735E0,4.883659E0,2.4499983E3,1.2520213E0,8.4516785E2,7.9488965E2,5.4620734E2,2.989605E2,7.937391E2,1.1506096E0,5.223997E2,2.3807642E1,1.9847734E2,1.0048318E2],"tree_param":{"num_deleted":"0","num_feature":"3","num_nodes":"27","size_leaf_vector":"0"}},{"base_weights":[-1.6150565E-1,-1.1581984E0,3.3161283E-1,-1.1588045E0,-1.3358411E-1,1.1590679E0,-1.0057883E0,6.8738943E-1,-7.6505864E-1,-1.1521093E0,-7.9224414E-1,-1.1524887E0,-2.9709995E-1,-4.8295185E-1,-1.1345447E0,-1.0846561E0,4.0279874E-1,9.11995E-1,-1.1464812E0,-1.1821145E0,1.2429291E0,9.8230547E-1,-7.0600367E-1,-1.1492783E0,2.7734512E-1],"categories":[],"categories_nodes":[],"categories_segments":[],"categories_sizes":[],"default_left":[1,1,1,0,1,0,1,0,0,1,1,0,0,1,1,1,1,0,1,0,0,0,0,0,0],"id":4,"left_children":[1,3,5,-1,7,-1,9,-1,-1,11,13,-1,-1,15,17,19,21,-1,23,-1,-1,-1,-1,-1,-1],"loss_changes":[6.2146265E3,2.4448242E0,9.362802E3,0E0,2.3948882E0,0E0,1.00135254E2,0E0,0E0,2.7954102E-1,1.3900287E2,0E0,0E0,3.704117E2,1.6311829E1,9.530209E1,1.8160074E2,0E0,2.7948608E0,0E0,0E0,0E0,0E0,0E0,0E0],"parents":[2147483647,0,0,1,1,2,2,4,4,6,6,9,9,10,10,13,13,14,14,15,15,16,16,18,18],"right_children":[2,4,6,-1,8,-1,10,-1,-1,12,14,-1,-1,16,18,20,22,-1,24,-1,-1,-1,-1,-1,-1],"split_conditions":[5.35478E1,3.8207495E0,1.1568409E0,-3.4764138E-1,1.3430384E1,3.4772038E-1,1.9999492E0,2.0621684E-1,-2.295176E-1,2.650475E5,6.00219E0,-3.4574664E-1,-8.9129984E-2,7.9093066E2,2.2385712E0,5.9937477E0,1.95E1,2.7359852E-1,1.5074707E4,-3.5463434E-1,3.7287873E-1,2.9469165E-1,-2.1180111E-1,-3.4478348E-1,8.320354E-2],"split_indices":[1,2,0,0,2,0,2,0,0,1,2,0,0,1,0,2,0,0,0,0,0,0,0,0,0],"split_type":[0,0,0,0,0,0,0,0,0,0,0,0,0,0,0,0,0,0,0,0,0,0,0,0,0],"sum_hessian":[1.2642744E4,4.184225E3,8.458519E3,4.18162E3,2.6051476E0,5.2255713E3,3.232947E3,1.0941316E0,1.5110159E0,1.9158248E3,1.3171222E3,1.9146272E3,1.19755E0,6.9318884E2,6.2393335E2,4.1264682E2,2.8054202E2,3.1807568E0,6.2075256E2,3.965356E2,1.6111225E1,1.843218E2,9.622023E1,6.1972797E2,1.024634E0],"tree_param":{"num_deleted":"0","num_feature":"3","num_nodes":"25","size_leaf_vector":"0"}},{"base_weights":[-1.5439877E-1,-1.1112008E0,3.157307E-1,-1.111878E0,-1.1277876E-1,1.1107312E0,-9.507747E-1,4.9428394E-1,-6.548793E-1,1.1122282E0,1.3410604E-1,-1.103675E0,-7.3600924E-1,-8.404205E-1,9.154389E-1,-1.1041648E0,-2.5517696E-1,-4.3445802E-1,-1.0956092E0,-1.1068169E0,-8.184047E-1,-9.867678E-1,4.3489736E-1,-1.0990338E0,2.3048392E-1,-9.0396214E-1,-2.1489692E-1,-1.1405945E0,1.2080855E0,1.0359278E0,-6.270539E-1],"categories":[],"categories_nodes":[],"categories_segments":[],"categories_sizes":[],"default_left":[1,1,1,0,1,1,1,0,0,0,1,1,1,0,0,1,0,1,1,0,1,1,1,0,0,0,0,0,0,0,0],"id":5,"left_children":[1,3,5,-1,7,9,11,-1,-1,-1,13,15,17,-1,-1,19,-1,21,23,-1,25,27,29,-1,-1,-1,-1,-1,-1,-1,-1],"loss_changes":[4.383487E3,2.0454102E0,6.580522E3,0E0,1.406118E0,5.720215E0,8.1956055E1,0E0,0E0,0E0,6.313672E0,3.2922363E-1,1.1351471E2,0E0,0E0,2.076416E-1,0E0,2.7575354E2,2.4277344E0,0E0,7.0144653E-1,1.19867584E2,1.432767E2,0E0,0E0,0E0,0E0,0E0,0E0,0E0,0E0],"parents":[2147483647,0,0,1,1,2,2,4,4,5,5,6,6,10,10,11,11,12,12,15,15,17,17,18,18,20,20,21,21,22,22],"right_children":[2,4,6,-1,8,10,12,-1,-1,-1,14,16,18,-1,-1,20,-1,22,24,-1,26,28,30,-1,-1,-1,-1,-1,-1,-1,-1],"split_conditions":[5.35478E1,3.8207495E0,2.0281236E0,-3.3356342E-1,2.0930384E1,1.1568409E0,1.9999492E0,1.482852E-1,-1.964638E-1,3.3366847E-1,1.0635213E2,2.650475E5,6.00219E0,-2.5212616E-1,2.7463168E-1,2.3377203E2,-7.655309E-2,1.052E3,1.5074707E4,-3.3204508E-1,7.33215E4,5.9937477E0,3.3197227E1,-3.2971016E-1,6.914518E-2,-2.7118865E-1,-6.446908E-2,-3.4217834E-1,3.6242568E-1,3.1077835E-1,-1.8811618E-1],"split_indices":[1,2,0,0,2,0,2,0,0,0,1,1,2,0,0,0,0,1,0,0,1,2,0,0,0,0,0,0,0,0,0],"split_type":[0,0,0,0,0,0,0,0,0,0,0,0,0,0,0,0,0,0,0,0,0,0,0,0,0,0,0,0,0,0,0],"sum_hessian":[9.743182E3,3.2096255E3,6.5335566E3,3.2073362E3,2.289146E0,4.0140269E3,2.5195295E3,1.1214801E0,1.1676657E0,4.0077454E3,6.281459E0,1.469321E3,1.0502086E3,2.7615097E0,3.5199492E0,1.4681722E3,1.1487691E0,5.724092E2,4.7779947E2,1.4518252E3,1.6347E1,3.499485E2,2.224607E2,4.767395E2,1.059958E0,1.3881251E1,2.4657485E0,3.274775E2,2.2470978E1,1.420752E2,8.03855E1],"tree_param":{"num_deleted":"0","num_feature":"3","num_nodes":"31","size_leaf_vector":"0"}},{"base_weights":[-1.4942E-1,-1.0789752E0,3.043858E-1,-1.0797635E0,-1.0309505E-1,1.0786483E0,-9.081459E-1,4.328413E-1,-5.953527E-1,1.0802318E0,1.1926794E-1,-1.0686866E0,-6.900026E-1,-7.7252823E-1,8.4145916E-1,-1.0726796E0,-7.69218E-1,-3.9832422E-1,-1.0582397E0,-8.7714356E-1,-2.365225E-1,-9.1205645E-1,4.1716683E-1,-1.0624977E0,1.9183947E-1,5.9061986E-1,-7.5694907E-1,-1.1099361E0,1.0412974E0,9.7475964E-1,-5.166517E-1],"categories":[],"categories_nodes":[],"categories_segments":[],"categories_sizes":[],"default_left":[1,1,1,0,1,1,1,0,0,0,1,1,1,0,0,0,1,1,1,0,1,1,1,0,0,0,0,0,0,0,0],"id":6,"left_children":[1,3,5,-1,7,9,11,-1,-1,-1,13,15,17,-1,-1,-1,19,21,23,-1,25,27,29,-1,-1,-1,-1,-1,-1,-1,-1],"loss_changes":[3.1356616E3,1.7646484E0,4.6904873E3,0E0,1.068604E0,4.5026855E0,6.745398E1,0E0,0E0,0E0,4.6097093E0,5.140381E-1,8.854462E1,0E0,0E0,0E0,8.4291744E-1,1.9468915E2,2.149292E0,0E0,2.3614392E0,1.11263596E2,9.419806E1,0E0,0E0,0E0,0E0,0E0,0E0,0E0,0E0],"parents":[2147483647,0,0,1,1,2,2,4,4,5,5,6,6,10,10,11,11,12,12,16,16,17,17,18,18,20,20,21,21,22,22],"right_children":[2,4,6,-1,8,10,12,-1,-1,-1,14,16,18,-1,-1,-1,20,22,24,-1,26,28,30,-1,-1,-1,-1,-1,-1,-1,-1],"split_conditions":[5.35478E1,3.8207495E0,2.0281236E0,-3.2392907E-1,2.0930384E1,1.1568409E0,1.9999492E0,1.298524E-1,-1.7860582E-1,3.2406956E-1,1.0635213E2,1.75E2,6.00219E0,-2.3175848E-1,2.5243777E-1,-3.218039E-1,7.33215E4,1.6970449E3,1.5074707E4,-2.631431E-1,1.4858622E3,5.9937477E0,4.477896E1,-3.1874934E-1,5.7551842E-2,1.7718597E-1,-2.2708473E-1,-3.3298084E-1,3.1238925E-1,2.924279E-1,-1.5499552E-1],"split_indices":[1,2,0,0,2,0,2,0,0,0,1,0,2,0,0,0,1,1,0,0,0,2,0,0,0,0,0,0,0,0,0],"split_type":[0,0,0,0,0,0,0,0,0,0,0,0,0,0,0,0,0,0,0,0,0,0,0,0,0,0,0,0,0,0,0],"sum_hessian":[7.431561E3,2.4374407E3,4.99412E3,2.435367E3,2.0737414E0,3.0479568E3,1.9461633E3,1.0506105E0,1.023131E0,3.0428088E3,5.1480865E0,1.1188538E3,8.2730963E2,2.2723632E0,2.8757231E0,1.1015835E3,1.7270222E1,4.6280576E2,3.6450388E2,1.3823026E1,3.447195E0,2.8386304E2,1.7894269E2,3.6341608E2,1.0878111E0,1.2792063E0,2.1679888E0,2.5814417E2,2.5718872E1,1.1201408E2,6.692862E1],"tree_param":{"num_deleted":"0","num_feature":"3","num_nodes":"31","size_leaf_vector":"0"}},{"base_weights":[-1.4568727E-1,-1.0562555E0,2.9557526E-1,-1.0571907E0,-9.612917E-2,1.0561118E0,-8.724467E-1,1.0578194E0,1.0591051E-1,-1.042328E0,-6.49736E-1,-7.1103853E-1,7.754512E-1,-1.0474131E0,-6.953595E-1,-3.667693E-1,-1.0286901E0,-9.33863E-1,-3.709206E-1,-6.9466597E-1,8.797341E-1,-1.0340389E0,1.5986459E-1,8.662582E-1,-7.6315534E-1,-1.0990949E0,1.6915904E-1,5.4280645E-1,2.24143E0],"categories":[],"categories_nodes":[],"categories_segments":[],"categories_sizes":[],"default_left":[1,1,1,0,0,1,1,0,1,1,1,0,0,0,1,1,1,0,1,1,1,0,0,0,0,0,0,0,0],"id":7,"left_children":[1,3,5,-1,-1,7,9,-1,11,13,15,-1,-1,-1,17,19,21,-1,23,25,27,-1,-1,-1,-1,-1,-1,-1,-1],"loss_changes":[2.264265E3,1.5498047E0,3.373084E3,0E0,0E0,3.6191406E0,5.598181E1,0E0,3.415463E0,7.677002E-1,6.9395355E1,0E0,0E0,0E0,8.314986E-1,1.5350227E2,1.9301453E0,0E0,4.5956697E0,1.0384729E2,3.472874E1,0E0,0E0,0E0,0E0,0E0,0E0,0E0,0E0],"parents":[2147483647,0,0,1,1,2,2,5,5,6,6,8,8,9,9,10,10,14,14,15,15,16,16,18,18,19,19,20,20],"right_children":[2,4,6,-1,-1,8,10,-1,12,14,16,-1,-1,-1,18,20,22,-1,24,26,28,-1,-1,-1,-1,-1,-1,-1,-1],"split_conditions":[5.35478E1,3.8207495E0,2.0281236E0,-3.171572E-1,-2.8838752E-2,1.1568409E0,1.9999492E0,3.1734583E-1,1.0635213E2,1.75E2,6.00219E0,-2.1331157E-1,2.3263536E-1,-3.1422395E-1,3.16315E4,5.996402E0,1.5074707E4,-2.801589E-1,5.9016327E2,2.180664E3,1.19365E4,-3.102117E-1,4.795938E-2,2.5987747E-1,-2.2894661E-1,-3.2972848E-1,5.0747715E-2,1.6284195E-1,6.72429E-1],"split_indices":[1,2,0,0,0,0,2,0,1,0,2,0,0,0,1,2,0,0,0,1,1,0,0,0,0,0,0,0,0],"split_type":[0,0,0,0,0,0,0,0,0,0,0,0,0,0,0,0,0,0,0,0,0,0,0,0,0,0,0,0,0],"sum_hessian":[5.633532E3,1.8384341E3,3.7950981E3,1.8365442E3,1.889904E0,2.2985405E3,1.4965575E3,2.2943044E3,4.2361774E0,8.4688385E2,6.496737E2,1.8801309E0,2.3560467E0,8.326617E2,1.4222164E1,3.7306918E2,2.766045E2,7.1140494E0,7.1081142E0,2.9572144E2,7.7347755E1,2.754947E2,1.1097921E0,1.4201589E0,5.6879554E0,2.0123439E2,9.4487045E1,6.312677E1,1.4220981E1],"tree_param":{"num_deleted":"0","num_feature":"3","num_nodes":"29","size_leaf_vector":"0"}},{"base_weights":[-1.4249554E-1,-1.039724E0,2.8547582E-1,-1.0409821E0,-7.74583E-2,1.039954E0,-8.269337E-1,1.0418276E0,9.373264E-2,-1.0212035E0,-5.919046E-1,-6.5459347E-1,7.150021E-1,-1.026885E0,-5.609695E-1,-3.2214E-1,-1.0032566E0,-1.0276413E0,-3.146328E-1,-8.341731E-1,-2.533182E-1,-9.5381254E-1,1.3211364E-1,-1.0100174E0,1.3333854E-1,9.0260184E-1,-6.574913E-1,-1.0395106E0,5.47754E-1,1.0637965E0,-1.7451301E-1],"categories":[],"categories_nodes":[],"categories_segments":[],"categories_sizes":[],"default_left":[1,1,1,0,0,1,1,0,1,1,1,0,0,1,1,1,1,0,0,0,1,1,1,0,0,0,0,0,0,0,0],"id":8,"left_children":[1,3,5,-1,-1,7,9,-1,11,13,15,-1,-1,17,19,21,23,-1,-1,-1,25,27,29,-1,-1,-1,-1,-1,-1,-1,-1],"loss_changes":[1.6423656E3,1.5915527E0,2.4315205E3,0E0,0E0,2.9625244E0,5.2861206E1,0E0,2.5648546E0,1.0966797E0,5.8742767E1,0E0,0E0,1.6357422E-2,6.2960386E-1,9.27891E1,1.7510376E0,0E0,0E0,0E0,3.4628656E0,1.7968254E1,5.4100937E1,0E0,0E0,0E0,0E0,0E0,0E0,0E0,0E0],"parents":[2147483647,0,0,1,1,2,2,5,5,6,6,8,8,9,9,10,10,13,13,14,14,15,15,16,16,20,20,21,21,22,22],"right_children":[2,4,6,-1,-1,8,10,-1,12,14,16,-1,-1,18,20,22,24,-1,-1,-1,26,28,30,-1,-1,-1,-1,-1,-1,-1,-1],"split_conditions":[5.35478E1,3.8207495E0,2.0281236E0,-3.1229466E-1,-2.3237491E-2,1.1568409E0,1.9999492E0,3.1254828E-1,1.0635213E2,2.3377203E2,6.00219E0,-1.9637805E-1,2.1450065E-1,2.2518023E5,3.16315E4,5.709284E2,1.5074707E4,-3.082924E-1,-9.438985E-2,-2.5025195E-1,8.108023E2,5.9937477E0,5.211524E0,-3.0300522E-1,4.0001564E-2,2.7078056E-1,-1.972474E-1,-3.118532E-1,1.643262E-1,3.1913897E-1,-5.2353907E-2],"split_indices":[1,2,0,0,0,0,2,0,1,0,2,0,0,1,1,1,0,0,0,0,0,2,0,0,0,0,0,0,0,0,0],"split_type":[0,0,0,0,0,0,0,0,0,0,0,0,0,0,0,0,0,0,0,0,0,0,0,0,0,0,0,0,0,0,0],"sum_hessian":[4.2753535E3,1.3802576E3,2.895096E3,1.3783737E3,1.8839774E0,1.7251198E3,1.1699762E3,1.7216096E3,3.51014E0,6.3869775E2,5.312784E2,1.5679218E0,1.9422182E0,6.29693E2,9.004769E0,3.219359E2,2.0934245E2,6.285828E2,1.1102002E0,3.8629396E0,5.14183E0,1.3420894E2,1.8772697E2,2.0821527E2,1.127183E0,1.0126066E0,4.1292233E0,1.2725397E2,6.954976E0,4.587296E1,1.41854E2],"tree_param":{"num_deleted":"0","num_feature":"3","num_nodes":"31","size_leaf_vector":"0"}},{"base_weights":[-1.387934E-1,-1.0274079E0,2.7742913E-1,-1.0291048E0,-6.2394146E-2,1.0302427E0,-7.769099E-1,-1.0011445E0,-5.2726334E-1,-1.0084301E0,-4.9121872E-1,-2.7302167E-1,-9.643492E-1,-6.565664E-1,-1.0152918E0,6.669307E-2,-6.385687E-1,-6.210222E-1,6.548585E-1,5.7094204E-1,-9.7924817E-1,-8.48804E-1,7.0608854E-1,-1.0164325E0,-2.7047178E-1,-8.4964174E-1,1.5998196E-2,-1.0676631E0,3.2118563E-2,1.0964673E0,8.037286E-2,-9.878165E-1,1.1128859E-1],"categories":[],"categories_nodes":[],"categories_segments":[],"categories_sizes":[],"default_left":[1,1,1,0,0,0,1,1,1,1,1,1,1,1,1,0,1,1,1,0,1,0,0,0,0,0,0,0,0,0,0,0,0],"id":9,"left_children":[1,3,5,-1,-1,-1,7,9,11,13,15,17,19,21,23,-1,25,27,29,-1,31,-1,-1,-1,-1,-1,-1,-1,-1,-1,-1,-1,-1],"loss_changes":[1.1988818E3,1.6290283E0,1.7531224E3,0E0,0E0,0E0,5.0987427E1,1.3016357E0,4.8361366E1,4.824524E-1,7.629962E-1,9.018721E1,4.230942E0,3.7254248E0,1.20147705E-1,0E0,9.844365E-1,5.917115E1,1.9274994E1,0E0,1.5989075E0,0E0,0E0,0E0,0E0,0E0,0E0,0E0,0E0,0E0,0E0,0E0,0E0],"parents":[2147483647,0,0,1,1,2,2,6,6,7,7,8,8,9,9,10,10,11,11,12,12,13,13,14,14,16,16,17,17,18,18,20,20],"right_children":[2,4,6,-1,-1,-1,8,10,12,14,16,18,20,22,24,-1,26,28,30,-1,32,-1,-1,-1,-1,-1,-1,-1,-1,-1,-1,-1,-1],"split_conditions":[5.35478E1,3.8207495E0,1.1568409E0,-3.0873147E-1,-1.8718245E-2,3.0907282E-1,1.9999492E0,2.3377203E2,6.00219E0,3.0016303E0,3.095E2,5.996402E0,2.2385712E0,1.386579E2,2.2518023E5,2.0007921E-2,7.33215E4,2.180664E3,9.9E1,1.7128262E-1,1.5074707E4,-2.546412E-1,2.1182658E-1,-3.0492976E-1,-8.114154E-2,-2.5489253E-1,4.799459E-3,-3.2029894E-1,9.6355695E-3,3.2894018E-1,2.411186E-2,-2.9634497E-1,3.338658E-2],"split_indices":[1,2,0,0,0,0,2,0,2,0,0,2,0,1,1,0,1,1,0,0,0,0,0,0,0,0,0,0,0,0,0,0,0],"split_type":[0,0,0,0,0,0,0,0,0,0,0,0,0,0,0,0,0,0,0,0,0,0,0,0,0,0,0,0,0,0,0,0,0],"sum_hessian":[3.2396648E3,1.0329338E3,2.206731E3,1.0310543E3,1.8794651E0,1.2874766E3,9.192544E2,4.8268896E2,4.3656543E2,4.7492575E2,7.7632065E0,2.770419E2,1.5952353E2,1.0933775E1,4.6399197E2,1.7363272E0,6.0268793E0,2.0171835E2,7.5323555E1,1.1744958E0,1.5834904E2,9.912462E0,1.0213127E0,4.6291837E2,1.0735996E0,4.3319635E0,1.6949158E0,1.1942004E2,8.229831E1,4.2073185E1,3.3250374E1,1.5720805E2,1.1409919E0],"tree_param":{"num_deleted":"0","num_feature":"3","num_nodes":"33","size_leaf_vector":"0"}},{"base_weights":[-1.3571583E-1,-1.0179027E0,2.6831716E-1,-1.0201937E0,-5.024827E-2,1.0217258E0,-7.2957855E-1,-9.834136E-1,-4.7235155E-1,-9.929637E-1,-4.2609328E-1,-2.3544383E-1,-9.3797296E-1,-5.9043777E-1,-1.0014659E0,-7.880577E-1,-1.0699612E-1,-5.39963E-1,5.232123E-1,5.257738E-1,-9.5450413E-1,-7.971007E-1,5.9534854E-1,-1.0030942E0,-2.3289761E-1,3.6614183E-1,-6.6917205E-1,-1.0489576E0,2.2656953E-2,1.9900048E-1,1.4963664E0,-9.6535337E-1,9.2931606E-2],"categories":[],"categories_nodes":[],"categories_segments":[],"categories_sizes":[],"default_left":[1,1,1,0,0,0,1,1,1,1,1,1,1,1,1,0,1,1,1,0,1,0,0,0,0,0,0,0,0,0,0,0,0],"id":10,"left_children":[1,3,5,-1,-1,-1,7,9,11,13,15,17,19,21,23,-1,25,27,29,-1,31,-1,-1,-1,-1,-1,-1,-1,-1,-1,-1,-1,-1],"loss_changes":[8.763876E2,1.6608887E0,1.2688302E3,0E0,0E0,0E0,4.6950745E1,1.517395E0,3.9778374E1,6.328125E-1,8.274268E-1,5.6113266E1,3.4525986E0,2.8847706E0,2.0300293E-1,0E0,1.6686838E0,4.954825E1,2.1701529E1,0E0,1.4640274E0,0E0,0E0,0E0,0E0,0E0,0E0,0E0,0E0,0E0,0E0,0E0,0E0],"parents":[2147483647,0,0,1,1,2,2,6,6,7,7,8,8,9,9,10,10,11,11,12,12,13,13,14,14,16,16,17,17,18,18,20,20],"right_children":[2,4,6,-1,-1,-1,8,10,12,14,16,18,20,22,24,-1,26,28,30,-1,32,-1,-1,-1,-1,-1,-1,-1,-1,-1,-1,-1,-1],"split_conditions":[5.35478E1,3.8207495E0,1.1568409E0,-3.060581E-1,-1.5074481E-2,3.0651775E-1,1.9999492E0,2.3377203E2,6.00219E0,3.0016303E0,-1.6646618E-2,5.996402E0,2.2385712E0,1.386579E2,2.2518023E5,-2.3641731E-1,4.1400953E-3,2.180664E3,1.0875E4,1.5773216E-1,1.5074707E4,-2.3913023E-1,1.7860457E-1,-3.0092826E-1,-6.986929E-2,1.09842554E-1,-2.0075162E-1,-3.1468728E-1,6.797086E-3,5.9700146E-2,4.4890994E-1,-2.8960603E-1,2.7879482E-2],"split_indices":[1,2,0,0,0,0,2,0,2,0,2,2,0,1,1,0,2,1,1,0,0,0,0,0,0,0,0,0,0,0,0,0,0],"split_type":[0,0,0,0,0,0,0,0,0,0,0,0,0,0,0,0,0,0,0,0,0,0,0,0,0,0,0,0,0,0,0,0,0],"sum_hessian":[2.4570085E3,7.71329E2,1.6856796E3,7.6945294E2,1.8759999E0,9.604891E2,7.251905E2,3.6358093E2,3.616096E2,3.5668716E2,6.8937807E0,2.4066507E2,1.2094451E2,8.835291E0,3.4785187E2,2.5413642E0,4.3524165E0,1.7193846E2,6.872661E1,1.0066454E0,1.1993787E2,7.803123E0,1.032168E0,3.4681195E2,1.0399122E0,2.552712E0,1.7997048E0,8.981744E1,8.212103E1,5.2455315E1,1.6271296E1,1.18785866E2,1.152003E0],"tree_param":{"num_deleted":"0","num_feature":"3","num_nodes":"33","size_leaf_vector":"0"}},{"base_weights":[-1.3238865E-1,-1.0101984E0,2.566277E-1,-1.013291E0,-4.0460095E-2,1.0130023E0,-6.7556506E-1,1.0153538E0,1.22293696E-1,-9.6655595E-1,-4.1575518E-1,-2.6415154E-1,4.5160377E-1,-9.8127145E-1,-4.298636E-1,-1.9840464E-1,-9.271435E-1,-5.188288E-1,-9.902455E-1,-7.8885925E-1,-9.3533434E-2,-8.99033E-1,5.3368244E-2,-9.4081753E-1,7.7631526E-2,-6.918981E-1,2.7397293E-1,7.0693177E-1,-5.609489E-1,-9.993917E-1,2.0980476E-1,5.950731E-1,-5.8475137E-1,-9.680343E-1,-6.6843367E-1],"categories":[],"categories_nodes":[],"categories_segments":[],"categories_sizes":[],"default_left":[1,1,1,0,0,1,1,0,1,1,1,0,0,1,1,1,1,1,0,0,1,1,1,1,0,0,0,0,0,0,0,0,0,0,0],"id":11,"left_children":[1,3,5,-1,-1,7,9,-1,11,13,15,-1,-1,17,19,21,23,25,-1,-1,27,29,31,33,-1,-1,-1,-1,-1,-1,-1,-1,-1,-1,-1],"loss_changes":[6.407649E2,1.6870117E0,9.176376E2,0E0,0E0,1.3803711E0,4.36846E1,0E0,5.0468594E-1,1.7445679E0,3.425368E1,0E0,0E0,5.909729E-1,1.0249631E0,3.862522E1,1.3389206E0,1.1731118E0,0E0,0E0,2.5789127E0,6.649399E0,5.6286087E1,2.7366638E-2,0E0,0E0,0E0,0E0,0E0,0E0,0E0,0E0,0E0,0E0,0E0],"parents":[2147483647,0,0,1,1,2,2,5,5,6,6,8,8,9,9,10,10,13,13,14,14,15,15,16,16,17,17,20,20,21,21,22,22,23,23],"right_children":[2,4,6,-1,-1,8,10,-1,12,14,16,-1,-1,18,20,22,24,26,-1,-1,28,30,32,34,-1,-1,-1,-1,-1,-1,-1,-1,-1,-1,-1],"split_conditions":[5.35478E1,3.8207495E0,2.0281236E0,-3.0398732E-1,-1.2138029E-2,1.1568409E0,1.9999492E0,3.0460614E-1,3.3295602E-1,1.75E2,6.00219E0,-7.924546E-2,1.3548113E-1,3.0016303E0,3.16315E4,5.709284E2,1.5074707E4,1.3847119E2,-2.9707366E-1,-2.3665778E-1,5.9016327E2,5.9937477E0,2.0197319E1,4.5995E4,2.3289459E-2,-2.0756944E-1,8.2191885E-2,2.1207954E-1,-1.6828468E-1,-2.998175E-1,6.294143E-2,1.7852193E-1,-1.7542541E-1,-2.904103E-1,-2.0053011E-1],"split_indices":[1,2,0,0,0,0,2,0,2,0,2,0,0,0,1,1,0,1,0,0,0,2,0,1,0,0,0,0,0,0,0,0,0,0,0],"split_type":[0,0,0,0,0,0,0,0,0,0,0,0,0,0,0,0,0,0,0,0,0,0,0,0,0,0,0,0,0,0,0,0,0,0,0],"sum_hessian":[1.8746625E3,5.751802E2,1.2994823E3,5.733069E2,1.8733191E0,7.1734607E2,5.821362E2,7.153177E2,2.0283926E0,2.733075E2,3.0882874E2,1.0242727E0,1.0041199E0,2.6520746E2,8.100035E0,2.176928E2,9.113593E1,6.16823E0,2.5903925E2,3.2671833E0,4.832851E0,5.6868767E1,1.6082404E2,8.997511E1,1.1608224E0,5.1674466E0,1.0007836E0,1.5927626E0,3.2400882E0,5.2239388E1,4.629377E0,8.701974E1,7.38043E1,7.9479515E1,1.0495597E1],"tree_param":{"num_deleted":"0","num_feature":"3","num_nodes":"35","size_leaf_vector":"0"}},{"base_weights":[-1.2903255E-1,-1.0035216E0,2.460807E-1,-1.0076933E0,-3.257454E-2,1.0104698E0,-6.219133E-1,-9.446445E-1,-3.6268377E-1,-9.6088797E-1,-2.8869712E-1,-1.693862E-1,-8.750602E-1,-4.588616E-1,-9.747147E-1,-6.894584E-1,5.2435715E-2,-4.748532E-1,4.435728E-1,2.7854404E-1,-8.954004E-1,-6.980959E-1,5.025313E-1,-8.031583E-1,-1.0036987E0,8.362537E-1,-4.3433216E-1,-1.0416446E0,-2.5854552E-2,1.8999727E-1,1.3314133E0,-9.1249794E-1,6.486869E-2],"categories":[],"categories_nodes":[],"categories_segments":[],"categories_sizes":[],"default_left":[1,1,1,0,0,0,1,1,1,1,1,1,1,1,1,0,1,1,1,0,1,0,0,0,0,0,0,0,0,0,0,0,0],"id":12,"left_children":[1,3,5,-1,-1,-1,7,9,11,13,15,17,19,21,23,-1,25,27,29,-1,31,-1,-1,-1,-1,-1,-1,-1,-1,-1,-1,-1,-1],"loss_changes":[4.6946768E2,1.7072449E0,6.6532355E2,0E0,0E0,0E0,3.8956406E1,1.945404E0,2.5812511E1,9.628601E-1,9.2078257E-1,3.607826E1,1.9285278E0,2.0377593E0,1.7250061E-1,0E0,2.051407E0,3.2631847E1,1.4207403E1,0E0,1.2176094E0,0E0,0E0,0E0,0E0,0E0,0E0,0E0,0E0,0E0,0E0,0E0,0E0],"parents":[2147483647,0,0,1,1,2,2,6,6,7,7,8,8,9,9,10,10,11,11,12,12,13,13,14,14,16,16,17,17,18,18,20,20],"right_children":[2,4,6,-1,-1,-1,8,10,12,14,16,18,20,22,24,-1,26,28,30,-1,32,-1,-1,-1,-1,-1,-1,-1,-1,-1,-1,-1,-1],"split_conditions":[5.35478E1,3.8207495E0,1.1568409E0,-3.02308E-1,-9.772362E-3,3.0314094E-1,1.9999492E0,2.3377203E2,6.00219E0,3.0016303E0,3.16315E4,5.996402E0,5.2749243E0,1.3866727E2,4.6026483E2,-2.0683752E-1,8.085E2,2.180664E3,1.19365E4,8.3563216E-2,1.5074707E4,-2.0942879E-1,1.507594E-1,-2.409475E-1,-3.011096E-1,2.5087613E-1,-1.3029966E-1,-3.1249338E-1,-7.756366E-3,5.6999184E-2,3.99424E-1,-2.7374938E-1,1.9460607E-2],"split_indices":[1,2,0,0,0,0,2,0,2,0,1,2,0,1,1,0,0,1,1,0,0,0,0,0,0,0,0,0,0,0,0,0,0],"split_type":[0,0,0,0,0,0,0,0,0,0,0,0,0,0,0,0,0,0,0,0,0,0,0,0,0,0,0,0,0,0,0,0,0],"sum_hessian":[1.4294097E3,4.2858603E2,1.0008236E3,4.2671478E2,1.8712312E0,5.320849E2,4.687387E2,2.0761795E2,2.6112076E2,2.0214722E2,5.4707193E0,1.9056091E2,7.055984E1,6.334598E0,1.9581262E2,2.0460017E0,3.424718E0,1.2733104E2,6.3229877E1,1.0025998E0,6.9557236E1,5.29168E0,1.0429186E0,3.245019E1,1.6336243E2,1.0369679E0,2.38775E0,5.569932E1,7.1631714E1,5.0127106E1,1.310277E1,6.838932E1,1.1679187E0],"tree_param":{"num_deleted":"0","num_feature":"3","num_nodes":"33","size_leaf_vector":"0"}},{"base_weights":[-1.24585114E-1,-9.972347E-1,2.3173743E-1,-1.0028538E0,-2.6223589E-2,1.003336E0,-5.6135523E-1,1.006589E0,1.3923138E-1,-9.2296886E-1,-3.1125906E-1,-9.47315E-1,-2.9933608E-1,8.837227E-3,-6.5520746E-1,-3.8274696E-1,-9.619214E-1,-6.906778E-1,-1.3676431E-2,-6.4205915E-1,7.908506E-1,-1.1543521E0,-4.594398E-1,-7.161191E-1,9.81157E-2,-7.469316E-1,-1.001161E0,5.9904456E-1,-4.6955582E-1,-1.0217031E0,-2.9191693E-2,8.9652103E-1,-1.223188E0,-2.9213576E-2,-8.4095794E-1],"categories":[],"categories_nodes":[],"categories_segments":[],"categories_sizes":[],"default_left":[1,1,1,0,0,1,1,0,0,1,1,1,1,1,1,1,1,0,1,1,1,0,1,0,0,0,0,0,0,0,0,0,0,0,0],"id":13,"left_children":[1,3,5,-1,-1,7,9,-1,-1,11,13,15,17,19,21,23,25,-1,27,29,31,-1,33,-1,-1,-1,-1,-1,-1,-1,-1,-1,-1,-1,-1],"loss_changes":[3.4352124E2,1.7211914E0,4.807836E2,0E0,0E0,9.790039E-1,3.4768448E1,0E0,0E0,2.1148834E0,2.5399761E1,8.817444E-1,8.1749463E-1,6.1820534E1,1.0335388E1,9.4928306E-1,4.93042E-1,0E0,1.7606511E0,1.5394079E1,1.2836967E1,0E0,1.3358023E1,0E0,0E0,0E0,0E0,0E0,0E0,0E0,0E0,0E0,0E0,0E0,0E0],"parents":[2147483647,0,0,1,1,2,2,5,5,6,6,9,9,10,10,11,11,12,12,13,13,14,14,15,15,16,16,18,18,19,19,20,20,22,22],"right_children":[2,4,6,-1,-1,8,10,-1,-1,12,14,16,18,20,22,24,26,-1,28,30,32,-1,34,-1,-1,-1,-1,-1,-1,-1,-1,-1,-1,-1,-1],"split_conditions":[5.35478E1,3.8207495E0,2.0281236E0,-3.0085614E-1,-7.867077E-3,1.1568409E0,1.9999492E0,3.0197674E-1,4.1769415E-2,1.75E2,1.80223E1,3.0016303E0,3.16315E4,1.9842686E3,5.996402E0,2.9994583E0,4.6026483E2,-2.0720336E-1,5.9016327E2,5.9937477E0,1.3182E4,-3.4630564E-1,6.00219E0,-2.1483575E-1,2.943471E-2,-2.2407949E-1,-3.003483E-1,1.7971337E-1,-1.4086676E-1,-3.0651096E-1,-8.757508E-3,2.6895633E-1,-3.669564E-1,-8.764073E-3,-2.522874E-1],"split_indices":[1,2,0,0,0,0,2,0,0,0,0,0,1,1,2,0,1,0,0,2,1,0,2,0,0,0,0,0,0,0,0,0,0,0,0],"split_type":[0,0,0,0,0,0,0,0,0,0,0,0,0,0,0,0,0,0,0,0,0,0,0,0,0,0,0,0,0,0,0,0,0,0,0],"sum_hessian":[1.1030231E3,3.1928394E2,7.837391E2,3.1741434E2,1.8695958E0,3.9711832E2,3.866208E2,3.954646E2,1.6536973E0,1.5696907E2,2.2965172E2,1.5057184E2,6.397232E0,1.19455E2,1.10196724E2,4.483384E0,1.4608846E2,2.1010485E0,4.2961836E0,6.529048E1,5.416452E1,2.9664707E1,8.053201E1,2.3588228E0,2.1245613E0,2.5640709E1,1.2044775E2,1.6988355E0,2.597348E0,3.9904396E1,2.538608E1,5.1991547E1,2.1729736E0,3.835586E1,4.2176155E1],"tree_param":{"num_deleted":"0","num_feature":"3","num_nodes":"35","size_leaf_vector":"0"}},{"base_weights":[-1.2136446E-1,-9.9076444E-1,2.1913035E-1,-9.983175E-1,-2.110913E-2,1.0033381E0,-5.1159763E-1,-8.9290345E-1,-2.7111095E-1,-9.184866E-1,-1.7490445E-1,-1.08028725E-1,-7.9475343E-1,-3.6082664E-1,-9.4001496E-1,-6.982156E-1,1.830523E-1,-3.945468E-1,3.0736315E-1,-9.2456967E-1,-4.2813656E-1,-6.100574E-1,4.3368006E-1,-6.8323135E-1,-9.900029E-1,6.1322314E-1,-2.6779932E-1,3.1562462E-1,-7.7356046E-1,8.664228E-1,-8.021405E-2,-1.13968E-1,-9.4627976E-1,3.697743E-1,-8.0934757E-1],"categories":[],"categories_nodes":[],"categories_segments":[],"categories_sizes":[],"default_left":[1,1,1,0,0,0,1,1,1,1,1,1,1,1,1,0,1,1,1,1,1,0,0,0,0,0,0,0,0,0,0,0,0,0,0],"id":14,"left_children":[1,3,5,-1,-1,-1,7,9,11,13,15,17,19,21,23,-1,25,27,29,31,33,-1,-1,-1,-1,-1,-1,-1,-1,-1,-1,-1,-1,-1,-1],"loss_changes":[2.5134857E2,1.728775E0,3.5030774E2,0E0,0E0,0E0,2.879393E1,2.0808945E0,1.6618958E1,1.0726242E0,1.1456685E0,1.8011627E1,1.8075504E0,1.4514861E0,7.6898956E-1,0E0,9.436617E-1,2.43064E1,1.3486528E1,4.786682E-1,4.5482416E0,0E0,0E0,0E0,0E0,0E0,0E0,0E0,0E0,0E0,0E0,0E0,0E0,0E0,0E0],"parents":[2147483647,0,0,1,1,2,2,6,6,7,7,8,8,9,9,10,10,11,11,12,12,13,13,14,14,16,16,17,17,18,18,19,19,20,20],"right_children":[2,4,6,-1,-1,-1,8,10,12,14,16,18,20,22,24,-1,26,28,30,32,34,-1,-1,-1,-1,-1,-1,-1,-1,-1,-1,-1,-1,-1,-1],"split_conditions":[5.35478E1,3.8207495E0,1.1568409E0,-2.9949525E-1,-6.3327393E-3,3.0100143E-1,1.9999492E0,2.3377203E2,6.00219E0,3.0016303E0,-1.6646618E-2,5.996402E0,3.5984528E1,1.386579E2,4.6026483E2,-2.0946468E-1,5.54E2,4.0004683E0,3.35E1,5.622657E0,4.3072117E1,-1.8301722E-1,1.3010402E-1,-2.0496942E-1,-2.9700089E-1,1.8396695E-1,-8.03398E-2,9.4687395E-2,-2.3206815E-1,2.5992686E-1,-2.4064217E-2,-3.41904E-2,-2.8388393E-1,1.109323E-1,-2.4280427E-1],"split_indices":[1,2,0,0,0,0,2,0,2,0,2,2,2,1,1,0,0,0,0,0,2,0,0,0,0,0,0,0,0,0,0,0,0,0,0],"split_type":[0,0,0,0,0,0,0,0,0,0,0,0,0,0,0,0,0,0,0,0,0,0,0,0,0,0,0,0,0,0,0,0,0,0,0],"sum_hessian":[8.473421E2,2.3792592E2,6.094162E2,2.360576E2,1.8683093E0,2.9377145E2,3.1564474E2,1.2103064E2,1.946141E2,1.16596924E2,4.433715E0,1.493173E2,4.5296795E1,4.994057E0,1.1160287E2,1.4148017E0,3.0189133E0,8.839601E1,6.0921295E1,3.2327854E1,1.2968941E1,3.978262E0,1.0157952E0,2.0575611E1,9.102726E1,1.3605901E0,1.6583232E0,3.0818163E1,5.757785E1,2.443689E1,3.64844E1,1.0062577E0,3.1321596E1,4.2025676E0,8.766374E0],"tree_param":{"num_deleted":"0","num_feature":"3","num_nodes":"35","size_leaf_vector":"0"}},{"base_weights":[-1.1443051E-1,-9.835472E-1,2.0377696E-1,-9.936723E-1,-1.6991569E-2,1.0004127E0,-4.4469726E-1,-8.5754114E-1,-2.2065064E-1,-8.966093E-1,-1.4548399E-1,-9.46098E-1,-9.7533114E-2,-6.194743E-1,-9.709741E-1,1.8597E-1,-6.65754E-1,4.501844E-1,-1.0535787E0,3.9009607E-1,-4.9705082E-1,-8.420542E-1,1.8905969E0,1.1299633E-1,-9.9065375E-1,-6.4227533E-1,6.8149227E-1,-1.4720874E0,-8.9753485E-1,-1.9915876E-1,7.196191E-1,-1.0786036E0,-3.1046128E-1],"categories":[],"categories_nodes":[],"categories_segments":[],"categories_sizes":[],"default_left":[1,1,1,0,0,0,1,1,1,1,1,1,1,1,1,1,0,0,1,1,1,0,0,0,0,0,0,0,0,0,0,0,0],"id":15,"left_children":[1,3,5,-1,-1,-1,7,9,11,13,15,17,19,21,23,25,-1,-1,27,29,31,-1,-1,-1,-1,-1,-1,-1,-1,-1,-1,-1,-1],"loss_changes":[1.8416292E2,1.7294464E0,2.5240996E2,0E0,0E0,0E0,2.4744553E1,2.4979095E0,1.5634661E1,1.2404175E0,1.1770985E0,4.2910957E0,2.9737917E1,1.3699193E1,1.5775223E0,2.2897618E0,0E0,0E0,2.4049568E-1,1.3513016E1,8.757971E0,0E0,0E0,0E0,0E0,0E0,0E0,0E0,0E0,0E0,0E0,0E0,0E0],"parents":[2147483647,0,0,1,1,2,2,6,6,7,7,8,8,9,9,10,10,11,11,12,12,13,13,14,14,15,15,18,18,19,19,20,20],"right_children":[2,4,6,-1,-1,-1,8,10,12,14,16,18,20,22,24,26,-1,-1,28,30,32,-1,-1,-1,-1,-1,-1,-1,-1,-1,-1,-1,-1],"split_conditions":[5.35478E1,3.8207495E0,1.1568409E0,-2.981017E-1,-5.0974707E-3,3.001238E-1,1.9999492E0,3.16315E4,2.904995E2,4.6026483E2,4.8806914E-4,2.7921075E2,1.80223E1,6.973609E0,4.0075436E0,-5.6596943E-3,-1.9972621E-1,1.3505533E-1,2.8200055E2,1.9842686E3,5.996402E0,-2.5261626E-1,5.671791E-1,3.38989E-2,-2.9719615E-1,-1.9268261E-1,2.0444769E-1,-4.4162622E-1,-2.6926047E-1,-5.974763E-2,2.1588574E-1,-3.235811E-1,-9.313839E-2],"split_indices":[1,2,0,0,0,0,2,1,1,1,2,1,0,0,0,2,0,0,1,1,2,0,0,0,0,0,0,0,0,0,0,0,0],"split_type":[0,0,0,0,0,0,0,0,0,0,0,0,0,0,0,0,0,0,0,0,0,0,0,0,0,0,0,0,0,0,0,0,0],"sum_hessian":[6.641825E2,1.774431E2,4.8673938E2,1.755758E2,1.8672922E0,2.181744E2,2.68565E2,9.348165E1,1.7508334E2,8.837371E1,5.1079454E0,2.4432837E1,1.506505E2,2.0670652E1,6.770306E1,3.512653E0,1.5952923E0,1.5184274E0,2.291441E1,6.785456E1,8.279594E1,1.959739E1,1.0732636E0,1.1226877E0,6.658037E1,1.2040217E0,2.3086314E0,3.9328163E0,1.8981594E1,2.4478174E1,4.337639E1,1.8950708E1,6.384523E1],"tree_param":{"num_deleted":"0","num_feature":"3","num_nodes":"33","size_leaf_vector":"0"}},{"base_weights":[-1.08770594E-1,-9.7498685E-1,1.8740344E-1,-9.8851174E-1,-1.3676218E-2,9.922984E-1,-3.9524403E-1,9.9754536E-1,2.2050484E-1,-8.203059E-1,-1.9176733E-1,-8.677977E-1,-1.4724784E-1,-9.6751857E-1,-7.975544E-2,-5.5041045E-1,-9.5865357E-1,1.1630873E-1,-6.136491E-1,1.3182527E-1,-1.0342753E0,8.4033096E-1,-2.3606679E-1,-8.1430006E-1,1.0802901E0,9.405995E-2,-9.842692E-1,-5.905437E-1,4.766038E-1,-1.5442681E0,-8.5048103E-1,-1.6142406E-1,9.7047645E-1,-8.132849E-2,-7.0807064E-1],"categories":[],"categories_nodes":[],"categories_segments":[],"categories_sizes":[],"default_left":[1,1,1,0,0,1,1,0,0,1,1,1,1,1,1,1,1,1,0,0,1,1,1,0,0,0,0,0,0,0,0,0,0,0,0],"id":16,"left_children":[1,3,5,-1,-1,7,9,-1,-1,11,13,15,17,19,21,23,25,27,-1,-1,29,31,33,-1,-1,-1,-1,-1,-1,-1,-1,-1,-1,-1,-1],"loss_changes":[1.3445927E2,1.7224426E0,1.8369933E2,0E0,0E0,4.4586182E-1,1.9515285E1,0E0,0E0,2.2161522E0,1.34022455E1,1.4416275E0,8.1351966E-1,1.566164E0,1.985036E1,8.430461E0,1.4879227E0,1.4779903E0,0E0,0E0,4.1888428E-1,2.7722473E0,8.5301695E0,0E0,0E0,0E0,0E0,0E0,0E0,0E0,0E0,0E0,0E0,0E0,0E0],"parents":[2147483647,0,0,1,1,2,2,5,5,6,6,9,9,10,10,11,11,12,12,13,13,14,14,15,15,16,16,17,17,20,20,21,21,22,22],"right_children":[2,4,6,-1,-1,8,10,-1,-1,12,14,16,18,20,22,24,26,28,-1,-1,30,32,34,-1,-1,-1,-1,-1,-1,-1,-1,-1,-1,-1,-1],"split_conditions":[5.35478E1,3.8207495E0,2.0281236E0,-2.9655352E-1,-4.1028657E-3,1.1568409E0,1.9999492E0,2.9926363E-1,6.6151455E-2,3.16315E4,3.049995E2,4.6026483E2,4.8806914E-4,2.8139746E2,5.002329E0,6.973609E0,4.0075436E0,-5.6596943E-3,-1.8409473E-1,3.954758E-2,2.8200055E2,5.03689E2,6.00219E0,-2.4429002E-1,3.2408702E-1,2.8217986E-2,-2.9528078E-1,-1.7716311E-1,1.4298114E-1,-4.6328047E-1,-2.5514433E-1,-4.842722E-2,2.9114294E-1,-2.4398549E-2,-2.124212E-1],"split_indices":[1,2,0,0,0,0,2,0,0,1,1,1,2,1,0,0,0,2,0,0,1,1,2,0,0,0,0,0,0,0,0,0,0,0,0],"split_type":[0,0,0,0,0,0,0,0,0,0,0,0,0,0,0,0,0,0,0,0,0,0,0,0,0,0,0,0,0,0,0,0,0,0,0],"sum_hessian":[5.223918E2,1.325201E2,3.898717E2,1.3065361E2,1.8664863E0,1.6341705E2,2.2645464E2,1.6202306E2,1.3939953E0,7.232876E1,1.5412589E2,6.729127E1,5.037489E0,1.8482887E1,1.3564299E2,1.6546696E1,5.074457E1,3.6982734E0,1.3392155E0,1.0023044E0,1.7480583E1,1.906221E1,1.1658078E2,1.4672887E1,1.8738093E0,1.14196E0,4.960261E1,1.0328666E0,2.6654067E0,2.6699193E0,1.4810663E1,2.1641319E0,1.6898077E1,8.8680664E1,2.7900118E1],"tree_param":{"num_deleted":"0","num_feature":"3","num_nodes":"35","size_leaf_vector":"0"}},{"base_weights":[-1.0123454E-1,-9.6441895E-1,1.6856062E-1,-9.8240185E-1,-1.1007733E-2,9.944813E-1,-3.3207443E-1,-5.646381E-1,1.4284537E-2,7.325278E-2,-7.308289E-1,3.2886705E-1,-6.3493824E-1,-7.536538E-1,9.6328014E-1,-1.0232584E0,-1.7872553E-1,2.8623745E-2,1.0795615E0,-8.3937114E-1,-7.0689894E-2,-3.0716825E-1,-9.034479E-1,-6.072866E-1,-1.1323076E0,9.5393634E-1,-8.4183544E-1,6.610192E-1,-6.9628847E-1,1.2956579E0,4.742231E-1,1.23596765E-1,-8.9758486E-1,1.8178451E0,-6.2404734E-1],"categories":[],"categories_nodes":[],"categories_segments":[],"categories_sizes":[],"default_left":[1,1,1,0,0,0,1,1,1,1,1,1,1,1,0,1,1,1,1,1,1,0,0,0,0,0,0,0,0,0,0,0,0,0,0],"id":17,"left_children":[1,3,5,-1,-1,-1,7,9,11,13,15,17,19,21,-1,23,25,27,29,31,33,-1,-1,-1,-1,-1,-1,-1,-1,-1,-1,-1,-1,-1,-1],"loss_changes":[9.7986374E1,1.7067261E0,1.3300905E2,0E0,0E0,0E0,1.6160933E1,1.2774796E1,1.6860474E1,1.964828E1,1.5201492E1,1.2496147E1,3.0497236E0,6.513996E-1,0E0,2.128479E0,2.6494652E1,1.9131224E1,1.4590912E0,1.2148781E0,9.766616E0,0E0,0E0,0E0,0E0,0E0,0E0,0E0,0E0,0E0,0E0,0E0,0E0,0E0,0E0],"parents":[2147483647,0,0,1,1,2,2,6,6,7,7,8,8,9,9,10,10,11,11,12,12,13,13,15,15,16,16,17,17,18,18,19,19,20,20],"right_children":[2,4,6,-1,-1,-1,8,10,12,14,16,18,20,22,-1,24,26,28,30,32,34,-1,-1,-1,-1,-1,-1,-1,-1,-1,-1,-1,-1,-1,-1],"split_conditions":[5.35478E1,3.8207495E0,1.1568409E0,-2.9472056E-1,-3.30232E-3,2.983444E-1,5.996402E0,4.0004683E0,6.00219E0,1.9191672E3,1.6991806E1,1.0875E4,1.9971E4,1.4423394E-3,2.8898406E-1,4.6026483E2,1.8108126E1,1.5E2,6.045E2,5.504328E0,5.351133E2,-9.215048E-2,-2.710344E-1,-1.8218598E-1,-3.396923E-1,2.861809E-1,-2.5255063E-1,1.9830577E-1,-2.0888655E-1,3.886974E-1,1.4226694E-1,3.7079033E-2,-2.6927546E-1,5.4535353E-1,-1.8721421E-1],"split_indices":[1,2,0,0,0,0,2,0,2,1,0,1,1,2,0,1,0,0,0,0,0,0,0,0,0,0,0,0,0,0,0,0,0,0,0],"split_type":[0,0,0,0,0,0,0,0,0,0,0,0,0,0,0,0,0,0,0,0,0,0,0,0,0,0,0,0,0,0,0,0,0,0,0],"sum_hessian":[4.1905563E2,9.917616E1,3.198795E2,9.731031E1,1.8658452E0,1.20348526E2,1.9953094E2,1.18998726E2,8.053222E1,2.471071E1,9.428801E1,5.4579185E1,2.5953035E1,1.2889011E1,1.1821699E1,6.1081776E1,3.3206238E1,3.9727955E1,1.4851229E1,1.8692839E1,7.2601976E0,4.0042624E0,8.884749E0,1.4051346E1,4.703043E1,1.2099844E1,2.1106394E1,2.1265018E1,1.8462936E1,1.0103906E1,4.7473235E0,1.0015812E0,1.7691257E1,1.1274029E0,6.1327944E0],"tree_param":{"num_deleted":"0","num_feature":"3","num_nodes":"35","size_leaf_vector":"0"}},{"base_weights":[-9.684287E-2,-9.5108575E-1,1.564457E-1,-9.74854E-1,-8.859639E-3,9.823666E-1,-3.062414E-1,1.510857E-1,9.913532E-1,-5.377742E-1,2.788693E-4,7.577535E-2,-6.93539E-1,2.642486E-1,-6.055457E-1,-7.263303E-1,9.3483764E-1,-9.902284E-1,-1.5904295E-1,4.8992135E-2,9.2140007E-1,-7.8930783E-1,3.0552322E-1,-2.4924427E-1,-8.75506E-1,-5.3375715E-1,-1.12393E0,8.7081605E-1,-7.641942E-1,6.6976887E-1,-3.814883E-1,1.2229726E0,3.5720515E-1,-8.71397E-1,-3.4183428E-1,-5.8208E-1,8.9976764E-1],"categories":[],"categories_nodes":[],"categories_segments":[],"categories_sizes":[],"default_left":[1,1,1,0,0,1,1,0,0,1,1,1,1,1,1,1,0,1,1,1,1,1,1,0,0,0,0,0,0,0,0,0,0,0,0,0,0],"id":18,"left_children":[1,3,5,-1,-1,7,9,-1,-1,11,13,15,17,19,21,23,-1,25,27,29,31,33,35,-1,-1,-1,-1,-1,-1,-1,-1,-1,-1,-1,-1,-1,-1],"loss_changes":[7.13877E1,1.680809E0,9.767362E1,0E0,0E0,5.3546906E-1,1.1644724E1,0E0,0E0,8.985756E0,1.1611055E1,1.4341161E1,1.1679852E1,7.108322E0,3.930235E0,5.5157804E-1,0E0,2.3179893E0,1.80135E1,1.0717319E1,1.6766033E0,3.859253E-1,2.8547597E0,0E0,0E0,0E0,0E0,0E0,0E0,0E0,0E0,0E0,0E0,0E0,0E0,0E0,0E0],"parents":[2147483647,0,0,1,1,2,2,5,5,6,6,9,9,10,10,11,11,12,12,13,13,14,14,15,15,17,17,18,18,19,19,20,20,21,21,22,22],"right_children":[2,4,6,-1,-1,8,10,-1,-1,12,14,16,18,20,22,24,-1,26,28,30,32,34,36,-1,-1,-1,-1,-1,-1,-1,-1,-1,-1,-1,-1,-1,-1],"split_conditions":[5.35478E1,3.8207495E0,2.0281236E0,-2.924562E-1,-2.6578917E-3,9.785213E1,5.996402E0,4.532571E-2,2.97406E-1,4.0004683E0,6.00219E0,1.9191672E3,1.6991806E1,1.19365E4,4.5995E4,1.8400073E2,2.804513E-1,4.6026483E2,1.8108126E1,2.9E1,6.045E2,4.099238E1,3.5895668E1,-7.477328E-2,-2.626518E-1,-1.6012715E-1,-3.37179E-1,2.6124483E-1,-2.2925827E-1,2.0093067E-1,-1.1444649E-1,3.668918E-1,1.0716155E-1,-2.6141912E-1,-1.0255029E-1,-1.7462401E-1,2.699303E-1],"split_indices":[1,2,0,0,0,1,2,0,0,0,2,1,0,1,1,1,0,1,0,0,0,2,2,0,0,0,0,0,0,0,0,0,0,0,0,0,0],"split_type":[0,0,0,0,0,0,0,0,0,0,0,0,0,0,0,0,0,0,0,0,0,0,0,0,0,0,0,0,0,0,0,0,0,0,0,0,0],"sum_hessian":[3.2824582E2,7.443862E1,2.538072E2,7.257329E1,1.8653342E0,9.072863E1,1.6307857E2,1.1608393E0,8.956779E1,9.2473465E1,7.06051E1,1.8827282E1,7.364619E1,4.9570206E1,2.1034899E1,9.81631E0,9.010971E0,4.6810085E1,2.68361E1,3.8148758E1,1.1421451E1,1.7615507E1,3.4193926E0,2.9744356E0,6.8418746E0,1.173561E1,3.5074474E1,9.770112E0,1.7065987E1,1.5393954E1,2.2754803E1,6.682102E0,4.739348E0,1.4084354E1,3.5311518E0,1.3794396E0,2.039953E0],"tree_param":{"num_deleted":"0","num_feature":"3","num_nodes":"37","size_leaf_vector":"0"}},{"base_weights":[-9.0787016E-2,-9.341263E-1,1.4480633E-1,-9.6530014E-1,-7.1305316E-3,9.86714E-1,-2.686849E-1,-5.022925E-1,8.885635E-3,5.1094282E-2,-6.4817595E-1,2.2361088E-1,-5.046315E-1,-6.510853E-1,9.0228623E-1,-9.4592017E-1,-1.3843718E-1,-1.4191105E0,2.92603E-1,-7.983586E-1,2.1244E-2,-2.0512973E-1,-8.465608E-1,-4.5937783E-1,-1.1073923E0,7.7823985E-1,-6.8275994E-1,8.585067E-1,3.6684006E-2,-4.0243742E-1,-8.933576E-1,9.2140484E-1,-6.138971E-1],"categories":[],"categories_nodes":[],"categories_segments":[],"categories_sizes":[],"default_left":[1,1,1,0,0,0,1,1,1,1,1,1,1,1,0,1,1,0,1,1,1,0,0,0,0,0,0,0,0,0,0,0,0],"id":19,"left_children":[1,3,5,-1,-1,-1,7,9,11,13,15,17,19,21,-1,23,25,-1,27,29,31,-1,-1,-1,-1,-1,-1,-1,-1,-1,-1,-1,-1],"loss_changes":[5.196183E1,1.6429634E0,7.1544846E1,0E0,0E0,0E0,8.959289E0,6.0883846E0,7.1802335E0,1.0494145E1,8.889069E0,5.616052E0,2.983531E0,6.687312E-1,0E0,2.4252853E0,1.2050372E1,0E0,6.4665985E0,1.0493946E-1,5.057685E0,0E0,0E0,0E0,0E0,0E0,0E0,0E0,0E0,0E0,0E0,0E0,0E0],"parents":[2147483647,0,0,1,1,2,2,6,6,7,7,8,8,9,9,10,10,11,11,12,12,13,13,15,15,16,16,18,18,19,19,20,20],"right_children":[2,4,6,-1,-1,-1,8,10,12,14,16,18,20,22,-1,24,26,-1,28,30,32,-1,-1,-1,-1,-1,-1,-1,-1,-1,-1,-1,-1],"split_conditions":[5.35478E1,3.8207495E0,1.1568409E0,-2.8959006E-1,-2.1391595E-3,2.9601422E-1,5.996402E0,4.0004683E0,6.00219E0,1.9191672E3,1.6991806E1,2.87E2,3.5984528E1,1.4423394E-3,2.7068588E-1,4.6026483E2,1.8108126E1,-4.2573318E-1,3.35E1,1.4602533E2,4.3072117E1,-6.153892E-2,-2.5396824E-1,-1.3781336E-1,-3.322177E-1,2.3347196E-1,-2.04828E-1,2.5755203E-1,1.1005202E-2,-1.2073123E-1,-2.6800728E-1,2.7642146E-1,-1.8416913E-1],"split_indices":[1,2,0,0,0,0,2,0,2,1,0,1,2,2,0,1,0,0,0,0,2,0,0,0,0,0,0,0,0,0,0,0,0],"split_type":[0,0,0,0,0,0,0,0,0,0,0,0,0,0,0,0,0,0,0,0,0,0,0,0,0,0,0,0,0,0,0,0,0],"sum_hessian":[2.5984772E2,5.6092342E1,2.0375537E2,5.4227417E1,1.8649266E0,6.665438E1,1.3710098E2,7.400643E1,6.3094555E1,1.5574959E1,5.8431477E1,4.4888958E1,1.8205597E1,8.663341E0,6.9116187E0,3.634579E1,2.2085684E1,1.0205362E0,4.3868423E1,1.1348664E1,6.8569326E0,3.2646935E0,5.398647E0,1.0014719E1,2.6331074E1,8.068326E0,1.4017357E1,1.2927575E1,3.0940847E1,3.209377E0,8.139287E0,2.6501992E0,4.206733E0],"tree_param":{"num_deleted":"0","num_feature":"3","num_nodes":"33","size_leaf_vector":"0"}},{"base_weights":[-8.589676E-2,-9.1259253E-1,1.2694283E-1,-9.5307785E-1,-5.7387245E-3,9.813479E-1,-2.3535049E-1,-4.6185505E-1,-1.1006353E-3,4.4367563E-2,-5.9535074E-1,1.7012417E-1,-4.4081965E-1,-5.8925426E-1,8.6557215E-1,-8.9117855E-1,-1.17613085E-1,-7.590481E-2,6.867197E-1,-7.3412496E-1,8.239618E-2,-1.6586648E-1,-8.0958945E-1,-3.8723046E-1,-1.083313E0,6.7556244E-1,-5.9923804E-1,3.7019554E-1,-6.211921E-1,1.157878E0,4.4596034E-1,-4.833086E-2,-8.904638E-1,1.567624E0,-5.410233E-1],"categories":[],"categories_nodes":[],"categories_segments":[],"categories_sizes":[],"default_left":[1,1,1,0,0,0,1,1,1,1,1,1,1,1,0,1,1,1,1,1,1,0,0,0,0,0,0,0,0,0,0,0,0,0,0],"id":20,"left_children":[1,3,5,-1,-1,-1,7,9,11,13,15,17,19,21,-1,23,25,27,29,31,33,-1,-1,-1,-1,-1,-1,-1,-1,-1,-1,-1,-1,-1,-1],"loss_changes":[3.7384537E1,1.5912018E0,5.264338E1,0E0,0E0,0E0,6.3510933E0,4.1391277E0,4.5812054E0,7.602434E0,6.71113E0,5.618785E0,2.677384E0,6.389694E-1,0E0,2.4496899E0,7.890514E0,7.6659865E0,1.0977378E0,1.1393299E0,7.352281E0,0E0,0E0,0E0,0E0,0E0,0E0,0E0,0E0,0E0,0E0,0E0,0E0,0E0,0E0],"parents":[2147483647,0,0,1,1,2,2,6,6,7,7,8,8,9,9,10,10,11,11,12,12,13,13,15,15,16,16,17,17,18,18,19,19,20,20],"right_children":[2,4,6,-1,-1,-1,8,10,12,14,16,18,20,22,-1,24,26,28,30,32,34,-1,-1,-1,-1,-1,-1,-1,-1,-1,-1,-1,-1,-1,-1],"split_conditions":[5.35478E1,3.8207495E0,1.1568409E0,-2.8592336E-1,-1.7216174E-3,2.944044E-1,5.996402E0,4.0004683E0,6.00219E0,1.9191672E3,1.6991806E1,1.0875E4,1.9971E4,1.4423394E-3,2.5967166E-1,4.6026483E2,1.8108126E1,1.705E2,2.305E2,4.63E2,5.351133E2,-4.9759947E-2,-2.4287684E-1,-1.1616914E-1,-3.249939E-1,2.0266874E-1,-1.7977142E-1,1.1105867E-1,-1.8635763E-1,3.473634E-1,1.3378811E-1,-1.4499258E-2,-2.6713917E-1,4.702872E-1,-1.62307E-1],"split_indices":[1,2,0,0,0,0,2,0,2,1,0,1,1,2,0,1,0,0,0,1,0,0,0,0,0,0,0,0,0,0,0,0,0,0,0],"split_type":[0,0,0,0,0,0,0,0,0,0,0,0,0,0,0,0,0,0,0,0,0,0,0,0,0,0,0,0,0,0,0,0,0,0,0],"sum_hessian":[2.1080978E2,4.2489094E1,1.683207E2,4.0624493E1,1.8646008E0,4.961164E1,1.18709045E2,5.985829E1,5.8850758E1,1.2630482E1,4.7227806E1,4.279836E1,1.60524E1,7.288952E0,5.3415303E0,2.8632431E1,1.8595377E1,2.9569113E1,1.3229244E1,1.0027862E1,6.0245385E0,3.0948312E0,4.194121E0,8.735518E0,1.9896914E1,6.873279E0,1.1722097E1,1.6440344E1,1.312877E1,3.1856847E0,1.0043559E1,2.104673E0,7.9231887E0,1.3333715E0,4.691167E0],"tree_param":{"num_deleted":"0","num_feature":"3","num_nodes":"35","size_leaf_vector":"0"}},{"base_weights":[-7.885361E-2,-8.855034E-1,1.1187397E-1,-9.3742716E-1,-4.618604E-3,9.7448844E-1,-2.0207301E-1,-7.724199E-1,-1.0665473E-1,-2.4783225E-1,-1.0340261E0,1.4476719E0,-1.4033507E-1,-4.326555E-1,3.617578E-1,-7.0744544E-1,-1.4806446E0,-3.93053E-1,5.6523446E-2,-2.1129778E-1,-5.966208E-1,-8.429071E-1,1.7648548E-2,6.412052E-1,-5.52759E-1,8.0101043E-1,-5.9324097E-2],"categories":[],"categories_nodes":[],"categories_segments":[],"categories_sizes":[],"default_left":[1,1,1,0,0,0,1,1,1,1,1,0,1,1,0,1,0,1,1,0,0,0,0,0,0,0,0],"id":21,"left_children":[1,3,5,-1,-1,-1,7,9,11,13,15,-1,17,19,-1,21,-1,23,25,-1,-1,-1,-1,-1,-1,-1,-1],"loss_changes":[2.6883362E1,1.5235233E0,3.8568542E1,0E0,0E0,0E0,5.616095E0,1.7812634E0,4.9598618E0,8.613081E-1,3.514986E-1,0E0,4.4921026E0,6.468582E-2,0E0,7.471421E-1,0E0,6.8736057E0,4.47887E0,0E0,0E0,0E0,0E0,0E0,0E0,0E0,0E0],"parents":[2147483647,0,0,1,1,2,2,6,6,7,7,8,8,9,9,10,10,12,12,13,13,15,15,17,17,18,18],"right_children":[2,4,6,-1,-1,-1,8,10,12,14,16,-1,18,20,-1,22,-1,24,26,-1,-1,-1,-1,-1,-1,-1,-1],"split_conditions":[5.35478E1,3.8207495E0,1.1568409E0,-2.8122815E-1,-1.3855813E-3,2.9234654E-1,3.002823E2,2.7600293E2,3.35018E2,1.4867045E0,5.999024E0,4.3430158E-1,5.996402E0,1.8400073E2,1.0852735E-1,5.9937477E0,-4.441934E-1,4.0075436E0,1.1000968E1,-6.338934E-2,-1.7898625E-1,-2.5287214E-1,5.2945646E-3,1.9236156E-1,-1.658277E-1,2.4030314E-1,-1.779723E-2],"split_indices":[1,2,0,0,0,0,1,1,1,2,0,0,2,1,0,2,0,0,0,0,0,0,0,0,0,0,0],"split_type":[0,0,0,0,0,0,0,0,0,0,0,0,0,0,0,0,0,0,0,0,0,0,0,0,0,0,0],"sum_hessian":[1.7309317E2,3.2403847E1,1.4068932E2,3.0539507E1,1.8643397E0,3.697932E1,1.0371E2,1.3846965E1,8.986303E1,5.255561E0,8.591404E0,1.015503E0,8.884753E1,4.2555585E0,1.0000025E0,6.455185E0,2.1362188E0,3.846776E1,5.0379772E1,2.7847466E0,1.4708118E0,5.302159E0,1.1530261E0,4.742213E0,3.3725548E1,5.9874496E0,4.4392323E1],"tree_param":{"num_deleted":"0","num_feature":"3","num_nodes":"27","size_leaf_vector":"0"}},{"base_weights":[-6.507165E-2,-8.519533E-1,9.7716145E-2,-9.1751134E-1,-3.717093E-3,9.6566266E-1,-1.5646234E-1,-7.081451E-1,-7.231911E-2,-2.4494135E-1,-1.0057664E0,1.1310428E0,-1.0211639E-1,-4.4083655E-1,3.9366326E-1,-6.503432E-1,-1.4791334E0,-1.7935939E-1,3.6294955E-1,-1.732582E-1,-6.33936E-1,-7.9931504E-1,4.1053235E-3,-6.645984E-1,-6.810946E-2,1.1759858E0,-5.9740793E-2],"categories":[],"categories_nodes":[],"categories_segments":[],"categories_sizes":[],"default_left":[1,1,1,0,0,0,1,1,1,1,1,0,1,1,0,1,0,1,1,0,0,0,0,0,0,0,0],"id":22,"left_children":[1,3,5,-1,-1,-1,7,9,11,13,15,-1,17,19,-1,21,-1,23,25,-1,-1,-1,-1,-1,-1,-1,-1],"loss_changes":[1.9380917E1,1.4383488E0,2.7887629E1,0E0,0E0,0E0,4.5029354E0,1.527811E0,3.2077E0,9.687017E-1,3.02114E-1,0E0,3.1211E0,1.658653E-1,0E0,5.9564495E-1,0E0,3.9291127E0,4.3480473E0,0E0,0E0,0E0,0E0,0E0,0E0,0E0,0E0],"parents":[2147483647,0,0,1,1,2,2,6,6,7,7,8,8,9,9,10,10,12,12,13,13,15,15,17,17,18,18],"right_children":[2,4,6,-1,-1,-1,8,10,12,14,16,-1,18,20,-1,22,-1,24,26,-1,-1,-1,-1,-1,-1,-1,-1],"split_conditions":[5.35478E1,3.8207495E0,1.1568409E0,-2.7525342E-1,-1.1151279E-3,2.896988E-1,3.002823E2,2.7906183E2,3.35018E2,5.423211E0,5.999024E0,3.3931285E-1,3.9892805E4,4.006552E0,1.1809898E-1,5.9937477E0,-4.4374004E-1,1.9999492E0,7.6328284E2,-5.1977463E-2,-1.9018081E-1,-2.3979452E-1,1.231597E-3,-1.9937953E-1,-2.043284E-2,3.5279575E-1,-1.792224E-2],"split_indices":[1,2,0,0,0,0,1,1,1,2,0,0,1,0,0,2,0,2,0,0,0,0,0,0,0,0,0],"split_type":[0,0,0,0,0,0,0,0,0,0,0,0,0,0,0,0,0,0,0,0,0,0,0,0,0,0,0],"sum_hessian":[1.4965154E2,2.4926859E1,1.2472467E2,2.3062729E1,1.8641304E0,2.7617996E1,9.7106674E1,1.1869391E1,8.523728E1,5.3562207E0,6.5131707E0,1.1665916E0,8.4070694E1,4.335861E0,1.0203596E0,5.075868E0,1.4373026E0,7.262304E1,1.1447655E1,2.6126938E0,1.7231674E0,3.954378E0,1.1214904E0,1.2617097E1,6.000594E1,3.306166E0,8.141489E0],"tree_param":{"num_deleted":"0","num_feature":"3","num_nodes":"27","size_leaf_vector":"0"}},{"base_weights":[-5.5306263E-2,-8.112783E-1,7.8224346E-2,-8.924724E-1,-2.991551E-3,9.54321E-1,-1.2225073E-1,-6.37885E-1,-4.916904E-2,-2.0765181E-1,-9.4601643E-1,7.6893973E-1,-9.4088525E-2,-4.0048143E-1,3.9074063E-1,-3.6584473E-1,-1.0834169E0,-4.3276647E-1,2.150031E0,-5.280084E-1,-3.7422127E-3,-3.1553165E-3,-6.737707E-1,-8.50431E-1,-2.1070439E-1,8.0082935E-1,-6.0690798E-2],"categories":[],"categories_nodes":[],"categories_segments":[],"categories_sizes":[],"default_left":[1,1,1,0,0,0,1,1,1,1,1,1,1,1,0,0,0,0,0,1,1,0,0,0,0,0,0],"id":23,"left_children":[1,3,5,-1,-1,-1,7,9,11,13,15,17,19,21,-1,-1,-1,-1,-1,23,25,-1,-1,-1,-1,-1,-1],"loss_changes":[1.3710549E1,1.3350201E0,2.0457006E1,0E0,0E0,0E0,3.5534854E0,1.3580227E0,3.174147E0,8.689556E-1,1.258707E-1,8.40259E0,3.1696594E0,5.585647E-1,0E0,0E0,0E0,0E0,0E0,1.2464197E0,3.1628428E0,0E0,0E0,0E0,0E0,0E0,0E0],"parents":[2147483647,0,0,1,1,2,2,6,6,7,7,8,8,9,9,10,10,11,11,12,12,13,13,19,19,20,20],"right_children":[2,4,6,-1,-1,-1,8,10,12,14,16,18,20,22,-1,-1,-1,-1,-1,24,26,-1,-1,-1,-1,-1,-1],"split_conditions":[5.35478E1,3.8207495E0,1.1568409E0,-2.6774174E-1,-8.9746533E-4,2.862963E-1,3.1983038E2,4.0004683E0,4.6026483E2,5.2736473E0,2.780036E2,6.973609E0,1.714813E3,1.4423394E-3,1.172222E-1,-1.0975342E-1,-3.2502508E-1,-1.2982994E-1,6.4500934E-1,5.9359946E0,4.029259E0,-9.46595E-4,-2.0213123E-1,-2.551293E-1,-6.321132E-2,2.4024881E-1,-1.820724E-2],"split_indices":[1,2,0,0,0,0,1,0,1,2,1,0,1,2,0,0,0,0,0,2,0,0,0,0,0,0,0],"split_type":[0,0,0,0,0,0,0,0,0,0,0,0,0,0,0,0,0,0,0,0,0,0,0,0,0,0,0],"sum_hessian":[1.3419278E2,1.938285E1,1.1480993E2,1.7518887E1,1.8639628E0,2.0679235E1,9.413069E1,1.0725761E1,8.340493E1,5.1745815E0,5.55118E0,3.502187E0,7.990274E1,4.163612E0,1.0109696E0,1.7642549E0,3.7869248E0,2.2398834E0,1.2623036E0,1.2934757E1,6.696799E1,2.108981E0,2.0546308E0,5.582265E0,7.352492E0,3.5632958E0,6.340469E1],"tree_param":{"num_deleted":"0","num_feature":"3","num_nodes":"27","size_leaf_vector":"0"}},{"base_weights":[-4.5873497E-2,-7.6326644E-1,6.2655166E-2,-8.615318E-1,-2.4077073E-3,9.398584E-1,-9.494446E-2,-8.1846935E-1,-5.153811E-2,7.597377E-1,-1.2397466E-1,-1.3421084E-1,1.3120953E0,-4.2499268E-1,4.750673E-2,3.6708242E-1,-5.143634E-1,1.9878758E0,5.8154833E-1,-9.07924E-1,-1.623637E-1,1.8015239E-1,-3.3341885E-1],"categories":[],"categories_nodes":[],"categories_segments":[],"categories_sizes":[],"default_left":[1,1,1,0,0,0,1,0,1,1,1,1,1,1,1,0,0,0,0,0,0,0,0],"id":24,"left_children":[1,3,5,-1,-1,-1,7,-1,9,11,13,15,17,19,21,-1,-1,-1,-1,-1,-1,-1,-1],"loss_changes":[9.643462E0,1.214427E0,1.5016459E1,0E0,0E0,0E0,2.8609128E0,0E0,5.2817144E0,3.8182092E0,4.247695E0,8.9852E-1,1.1405134E0,3.635139E0,2.7418396E0,0E0,0E0,0E0,0E0,0E0,0E0,0E0,0E0],"parents":[2147483647,0,0,1,1,2,2,6,6,8,8,9,9,10,10,11,11,12,12,13,13,14,14],"right_children":[2,4,6,-1,-1,-1,8,-1,10,12,14,16,18,20,22,-1,-1,-1,-1,-1,-1,-1,-1],"split_conditions":[5.35478E1,3.8207495E0,1.1568409E0,-2.5845954E-1,-7.223122E-4,2.8195754E-1,-1.7377854E-5,-2.4554081E-1,2.2326983E-4,6.5E0,5.996402E0,1.93E2,7.935E2,2.2038464E3,6.00219E0,1.1012473E-1,-1.5430903E-1,5.9636277E-1,1.7446451E-1,-2.7237722E-1,-4.870911E-2,5.404572E-2,-1.0002566E-1],"split_indices":[1,2,0,0,0,0,2,0,2,0,2,1,1,1,2,0,0,0,0,0,0,0,0],"split_type":[0,0,0,0,0,0,0,0,0,0,0,0,0,0,0,0,0,0,0,0,0,0,0],"sum_hessian":[1.2224587E2,1.5270751E1,1.0697512E2,1.3406923E1,1.863828E0,1.5536273E1,9.143885E1,4.1646023E0,8.727425E1,6.3759933E0,8.0898254E1,2.724164E0,3.6518295E0,2.8823387E1,5.2074863E1,1.1897136E0,1.5344504E0,1.0029695E0,2.6488597E0,9.287728E0,1.9535658E1,3.9015854E1,1.305901E1],"tree_param":{"num_deleted":"0","num_feature":"3","num_nodes":"23","size_leaf_vector":"0"}},{"base_weights":[-3.900264E-2,-6.9983786E-1,5.108589E-2,-8.2507837E-1,3.1311657E-2,9.2498624E-1,-7.90506E-2,-5.84703E-1,-2.4173245E-2,-1.19935475E-1,-8.826308E-1,1.0409565E0,-5.0533306E-2,1.3974279E-2,-2.4663845E-1,-4.1946766E-1,-1.1201518E0,6.098702E-1,-8.8065684E-2,4.5375504E-2,-2.2741547E-2,-3.280531E-1,8.481644E-2],"categories":[],"categories_nodes":[],"categories_segments":[],"categories_sizes":[],"default_left":[1,1,1,0,0,0,1,1,1,1,1,0,1,1,0,0,0,0,1,0,0,0,0],"id":25,"left_children":[1,3,5,-1,-1,-1,7,9,11,13,15,-1,17,19,-1,-1,-1,-1,21,-1,-1,-1,-1],"loss_changes":[6.7835445E0,1.2772202E0,1.15228815E1,0E0,0E0,0E0,2.4430346E0,1.0885832E0,2.324698E0,8.0252595E-2,9.111476E-2,0E0,2.0347311E0,4.6604E-3,0E0,0E0,0E0,0E0,3.2017412E0,0E0,0E0,0E0,0E0],"parents":[2147483647,0,0,1,1,2,2,6,6,7,7,8,8,9,9,10,10,12,12,13,13,18,18],"right_children":[2,4,6,-1,-1,-1,8,10,12,14,16,-1,18,20,-1,-1,-1,-1,22,-1,-1,-1,-1],"split_conditions":[9.785213E1,3.8207495E0,2.0848413E0,-2.4752352E-1,9.393497E-3,2.774959E-1,3.1983038E2,2.780036E2,3.3498688E2,4.006552E0,5.002822E0,3.1228697E-1,4.0075436E0,1.380008E2,-7.399154E-2,-1.258403E-1,-3.3604553E-1,1.8296106E-1,8.964994E3,1.3612651E-2,-6.8224645E-3,-9.841593E-2,2.5444934E-2],"split_indices":[1,2,0,0,0,0,1,1,1,0,0,0,0,1,0,0,0,0,1,0,0,0,0],"split_type":[0,0,0,0,0,0,0,0,0,0,0,0,0,0,0,0,0,0,0,0,0,0,0],"sum_hessian":[1.1234414E2,1.2665958E1,9.9678185E1,1.07039795E1,1.9619795E0,1.212796E1,8.7550224E1,7.6261764E0,7.992405E1,3.5268512E0,4.099325E0,1.0006564E0,7.892339E1,2.1472135E0,1.3796375E0,2.3272457E0,1.7720793E0,3.4241612E0,7.549923E1,1.030242E0,1.1169716E0,3.1238188E1,4.426104E1],"tree_param":{"num_deleted":"0","num_feature":"3","num_nodes":"23","size_leaf_vector":"0"}},{"base_weights":[-2.9569432E-2,-8.601916E-1,2.7012888E-2,5.705936E-1,-1.0439286E-1,-4.7660708E-1,7.818834E-1,-8.251912E-1,-1.8522488E-2,9.7379327E-1,1.3440377E-1,1.6672674E-1,-2.2166169E-1,7.785093E-1,1.5099759E0,-7.0107883E-1,1.1222612E0,-3.4296833E-2,7.1978164E-1,-6.378453E-1,7.1170986E-2,8.769472E-1,-6.358866E-2,-7.4041086E-1,9.1309614E-2,-5.5228394E-1,1.0046078E0,2.189377E-2,-7.250677E-1,1.0969529E0,-8.2843944E-2],"categories":[],"categories_nodes":[],"categories_segments":[],"categories_sizes":[],"default_left":[1,0,1,1,1,0,1,0,1,1,1,1,1,1,0,0,0,1,1,1,1,0,0,0,0,0,0,0,0,0,0],"id":26,"left_children":[1,-1,3,5,7,-1,9,-1,11,13,15,17,19,21,-1,-1,-1,23,25,27,29,-1,-1,-1,-1,-1,-1,-1,-1,-1,-1],"loss_changes":[5.0388045E0,0E0,7.265464E0,4.7523503E0,5.065508E0,0E0,1.9628048E0,0E0,2.835668E0,1.686163E-1,4.9237475E0,4.4127836E0,4.420885E0,1.0069122E0,0E0,0E0,0E0,2.7197006E0,4.383553E0,8.749194E-1,3.5624247E0,0E0,0E0,0E0,0E0,0E0,0E0,0E0,0E0,0E0,0E0],"parents":[2147483647,0,0,2,2,3,3,4,4,6,6,8,8,9,9,10,10,11,11,12,12,13,13,17,17,18,18,19,19,20,20],"right_children":[2,-1,4,6,8,-1,10,-1,12,14,16,18,20,22,-1,-1,-1,24,26,28,30,-1,-1,-1,-1,-1,-1,-1,-1,-1,-1],"split_conditions":[-4.547421E-6,-2.5805748E-1,2.9544151E-5,9.75E1,1.9999492E0,-1.4298213E-1,4.695E2,-2.4755737E-1,1.7308495E2,6.5E0,1.75E2,8.9615E3,2.1797615E2,3.5E0,4.529928E-1,-2.1032366E-1,3.3667836E-1,2.9996655E0,1.65E1,8.570404E3,1.1055747E4,2.6308417E-1,-1.9076597E-2,-2.2212327E-1,2.7392885E-2,-1.6568519E-1,3.0138236E-1,6.568131E-3,-2.1752031E-1,3.290859E-1,-2.4853185E-2],"split_indices":[2,0,2,1,2,0,1,0,0,0,0,1,0,0,0,0,0,2,0,1,1,0,0,0,0,0,0,0,0,0,0],"split_type":[0,0,0,0,0,0,0,0,0,0,0,0,0,0,0,0,0,0,0,0,0,0,0,0,0,0,0,0,0,0,0],"sum_hessian":[1.0571755E2,5.836462E0,9.988109E1,1.8794098E1,8.108699E1,2.944547E0,1.584955E1,7.7152476E0,7.337174E1,1.1837112E1,4.012438E0,3.846945E1,3.490229E1,1.0474226E1,1.3628864E0,2.3311589E0,1.6812791E0,2.8902134E1,9.567318E0,1.392848E1,2.0973812E1,9.340925E0,1.1333008E0,3.625605E0,2.527653E1,1.5785066E0,7.988811E0,1.7138824E0,1.2214598E1,1.9387593E0,1.9035053E1],"tree_param":{"num_deleted":"0","num_feature":"3","num_nodes":"31","size_leaf_vector":"0"}},{"base_weights":[-2.526737E-2,-8.2403487E-1,2.1835774E-2,4.686712E-1,-8.436355E-2,-4.1738862E-1,6.4011556E-1,-4.3424058E-1,8.437464E-2,9.350522E-1,1.0548484E-1,-2.0672514E-1,-9.8840135E-1,2.1472397E-1,-2.9933265E-1,-3.7268165E-1,7.9818416E-1,-5.955569E-1,7.735936E-1,5.6642365E-1,5.929463E-2,-5.563902E-1,5.450838E-1,8.5231476E-2,-6.630649E-1,-9.511445E-2,-9.360734E-1,-1.15546905E-1,7.4535805E-1,-3.081704E-1,4.4639537E-1,-1.4080313E-1,-8.451777E-1,9.950305E-1,1.4244297E-2],"categories":[],"categories_nodes":[],"categories_segments":[],"categories_sizes":[],"default_left":[1,0,1,1,1,0,1,1,1,0,1,1,0,1,1,1,0,1,0,1,1,1,1,0,0,0,0,0,0,0,0,0,0,0,0],"id":27,"left_children":[1,-1,3,5,7,-1,9,11,13,-1,15,17,-1,19,21,23,-1,25,-1,27,29,31,33,-1,-1,-1,-1,-1,-1,-1,-1,-1,-1,-1,-1],"loss_changes":[3.732181E0,0E0,4.5094028E0,3.0381222E0,4.5798006E0,0E0,2.3735375E0,2.9729633E0,2.7027726E0,0E0,2.5170882E0,7.7527246E0,0E0,2.1507397E0,3.2975228E0,6.7432576E-1,0E0,2.3413873E0,0E0,1.566324E0,4.2383466E0,1.2095675E0,8.753958E-1,0E0,0E0,0E0,0E0,0E0,0E0,0E0,0E0,0E0,0E0,0E0,0E0],"parents":[2147483647,0,0,2,2,3,3,4,4,6,6,7,7,8,8,10,10,11,11,13,13,14,14,15,15,17,17,19,19,20,20,21,21,22,22],"right_children":[2,-1,4,6,8,-1,10,12,14,-1,16,18,-1,20,22,24,-1,26,-1,28,30,32,34,-1,-1,-1,-1,-1,-1,-1,-1,-1,-1,-1,-1],"split_conditions":[-4.547421E-6,-2.4721047E-1,2.9544151E-5,9.75E1,5.996402E0,-1.2521659E-1,3.23E2,9.512832E3,6.00219E0,2.8051567E-1,3.16315E4,8.975924E3,-2.965204E-1,3.35E1,4.5995E4,4.695E2,2.3945525E-1,4.0004683E0,2.3207809E-1,2.835E2,1.02065E4,1.7308495E2,1.3964099E3,2.5569445E-2,-1.9891948E-1,-2.8534336E-2,-2.8082204E-1,-3.4664072E-2,2.2360742E-1,-9.2451125E-2,1.3391861E-1,-4.224094E-2,-2.5355333E-1,2.9850918E-1,4.2732893E-3],"split_indices":[2,0,2,1,2,0,1,1,2,0,1,1,0,0,1,1,0,0,0,1,1,0,0,0,0,0,0,0,0,0,0,0,0,0,0],"split_type":[0,0,0,0,0,0,0,0,0,0,0,0,0,0,0,0,0,0,0,0,0,0,0,0,0,0,0,0,0,0,0,0,0,0,0],"sum_hessian":[9.771737E1,4.5229893E0,9.319438E1,1.7240705E1,7.5953674E1,2.562522E0,1.4678183E1,2.420057E1,5.175311E1,8.976951E0,5.701232E0,1.813013E1,6.0704384E0,3.8958797E1,1.2794311E1,3.6462393E0,2.0549924E0,1.3262289E1,4.8678427E0,1.113E1,2.7828798E1,1.0069918E1,2.7243927E0,1.6891149E0,1.9571245E0,5.8881106E0,7.374178E0,2.386939E0,8.743061E0,1.4381089E1,1.3447708E1,4.7384686E0,5.331449E0,1.0012624E0,1.7231302E0],"tree_param":{"num_deleted":"0","num_feature":"3","num_nodes":"35","size_leaf_vector":"0"}},{"base_weights":[-2.6606213E-2,-7.83771E-1,1.3897103E-2,3.6786088E-1,-7.292144E-2,-3.6218172E-1,5.048717E-1,-3.9157197E-1,6.722103E-2,7.7167577E-1,7.204222E-2,-8.666299E-1,-1.2158067E-1,-6.323791E-2,3.4034613E-1,-6.526382E-1,4.4167662E-1,3.5789323E-1,-9.333436E-1,1.6658905E-1,-3.5787627E-1,1.1893429E0,-1.1290854E-1,8.762067E-2,7.212747E-1,5.023438E-1,-4.2809418E-1,3.6574063E-1,-4.4100645E-1,-5.426418E-1,4.8837967E-2,4.3678153E-1,1.7899389E0,-6.021728E-1,3.7307692E-1],"categories":[],"categories_nodes":[],"categories_segments":[],"categories_sizes":[],"default_left":[1,0,1,1,1,0,1,1,1,0,1,0,1,1,1,0,1,1,0,1,1,1,1,0,0,0,0,0,0,0,0,0,0,0,0],"id":28,"left_children":[1,-1,3,5,7,-1,9,11,13,-1,15,-1,17,19,21,-1,23,25,-1,27,29,31,33,-1,-1,-1,-1,-1,-1,-1,-1,-1,-1,-1,-1],"loss_changes":[2.7431052E0,0E0,2.6558216E0,1.8848312E0,3.1314662E0,0E0,1.6471257E0,2.6376758E0,1.7727351E0,0E0,2.089876E0,0E0,6.094292E0,2.3689976E0,6.308106E0,0E0,4.3675488E-1,1.3534626E0,0E0,2.5621953E0,1.1734225E0,1.7813072E0,2.928861E0,0E0,0E0,0E0,0E0,0E0,0E0,0E0,0E0,0E0,0E0,0E0,0E0],"parents":[2147483647,0,0,2,2,3,3,4,4,6,6,7,7,8,8,10,10,12,12,13,13,14,14,16,16,17,17,19,19,20,20,21,21,22,22],"right_children":[2,-1,4,6,8,-1,10,12,14,-1,16,-1,18,20,22,-1,24,26,-1,28,30,32,34,-1,-1,-1,-1,-1,-1,-1,-1,-1,-1,-1,-1],"split_conditions":[-4.547421E-6,-2.3513131E-1,2.9544151E-5,9.75E1,5.996402E0,-1.0865452E-1,3.23E2,2.2038464E3,1.2250304E4,2.3150274E-1,8.5E0,-2.59989E-1,9.512832E3,1.7002574E2,4.0109448E2,-1.9579147E-1,2.335E2,3.1226702E0,-2.800031E-1,6.0083475E0,2.1797615E2,1.9806736E4,5.5351992E4,2.6286202E-2,2.1638241E-1,1.5070313E-1,-1.2842827E-1,1.0972219E-1,-1.3230194E-1,-1.6279255E-1,1.4651391E-2,1.3103446E-1,5.369817E-1,-1.8065184E-1,1.11923076E-1],"split_indices":[2,0,2,1,2,0,1,1,1,0,0,0,1,0,0,0,0,2,0,2,0,1,1,0,0,0,0,0,0,0,0,0,0,0,0],"split_type":[0,0,0,0,0,0,0,0,0,0,0,0,0,0,0,0,0,0,0,0,0,0,0,0,0,0,0,0,0,0,0,0,0,0,0],"sum_hessian":[8.809095E1,3.5412073E0,8.454974E1,1.6015713E1,6.8534035E1,2.271089E0,1.3744624E1,2.0386316E1,4.8147717E1,8.018816E0,5.725808E0,6.5867987E0,1.3799517E1,3.3103977E1,1.5043738E1,1.6754336E0,4.0503745E0,9.026854E0,4.772663E0,1.8841572E1,1.4262405E1,4.6708007E0,1.0372938E1,2.3667424E0,1.6836324E0,7.9302835E0,1.0965703E0,1.4490178E1,4.351393E0,9.577328E0,4.6850777E0,2.8397596E0,1.831041E0,5.049896E0,5.323042E0],"tree_param":{"num_deleted":"0","num_feature":"3","num_nodes":"35","size_leaf_vector":"0"}},{"base_weights":[-2.8336313E-2,-7.402587E-1,6.0102763E-3,2.7465245E-1,-6.3105E-2,-3.1188732E-1,3.793563E-1,-3.6749607E-1,5.598657E-2,8.007617E-1,1.4044519E-1,-8.3174586E-1,-1.2352632E-1,1.0641107E-1,-5.051538E-1,-3.131796E-1,3.9799446E-1,2.767832E-1,-8.7681323E-1,2.8724158E-2,1.023155E0,-6.421715E-1,-4.3926906E-2,-5.6589782E-2,-5.4168504E-1,8.278588E-1,4.4176087E-2,-7.547817E-2,6.6874176E-1,1.5442884E-1,-5.8992404E-1,1.5332718E0,1.6807325E-1],"categories":[],"categories_nodes":[],"categories_segments":[],"categories_sizes":[],"default_left":[1,0,1,1,1,0,1,1,1,0,1,0,1,1,1,1,1,1,0,1,1,0,0,0,0,0,0,0,0,0,0,0,0],"id":29,"left_children":[1,-1,3,5,7,-1,9,11,13,-1,15,-1,17,19,21,23,25,27,-1,29,31,-1,-1,-1,-1,-1,-1,-1,-1,-1,-1,-1,-1],"loss_changes":[2.0216036E0,0E0,1.4969456E0,1.1312406E0,2.347694E0,0E0,1.3419905E0,1.9569745E0,1.383923E0,0E0,1.3434547E0,0E0,4.191509E0,3.1014197E0,2.2774136E-1,2.236717E-1,1.0424792E0,1.3360741E0,0E0,3.3227015E0,1.2276967E0,0E0,0E0,0E0,0E0,0E0,0E0,0E0,0E0,0E0,0E0,0E0,0E0],"parents":[2147483647,0,0,2,2,3,3,4,4,6,6,7,7,8,8,10,10,12,12,13,13,14,14,15,15,16,16,17,17,19,19,20,20],"right_children":[2,-1,4,6,8,-1,10,12,14,-1,16,-1,18,20,22,24,26,28,-1,30,32,-1,-1,-1,-1,-1,-1,-1,-1,-1,-1,-1,-1],"split_conditions":[-4.547421E-6,-2.2207762E-1,2.9544151E-5,9.75E1,5.996402E0,-9.35662E-2,2.5E0,2.2038464E3,4.3072117E1,2.4022852E-1,6.5E0,-2.4952377E-1,9.512832E3,3.5984528E1,5.583582E4,1.93E2,4.765E2,8.975924E3,-2.6304397E-1,6.00219E0,4.41201E2,-1.9265147E-1,-1.3178072E-2,-1.6976936E-2,-1.6250552E-1,2.4835765E-1,1.3252826E-2,-2.264345E-2,2.0062254E-1,4.6328653E-2,-1.7697722E-1,4.5998156E-1,5.042198E-2],"split_indices":[2,0,2,1,2,0,0,1,2,0,0,0,1,2,1,1,1,1,0,2,0,0,0,0,0,0,0,0,0,0,0,0,0],"split_type":[0,0,0,0,0,0,0,0,0,0,0,0,0,0,0,0,0,0,0,0,0,0,0,0,0,0,0,0,0,0,0,0,0],"sum_hessian":[8.14941E1,2.8047965E0,7.868931E1,1.5493651E1,6.3195656E1,2.0471241E0,1.34465275E1,1.7185274E1,4.6010384E1,4.0142484E0,9.43228E0,5.090104E0,1.2095171E1,4.2960304E1,3.0500796E0,3.3376446E0,6.0946345E0,8.311085E0,3.7840862E0,4.055492E1,2.4053812E0,2.0490513E0,1.0010282E0,2.1599162E0,1.1777285E0,2.1467276E0,3.947907E0,4.8024526E0,3.508632E0,3.432975E1,6.2251716E0,1.009822E0,1.3955592E0],"tree_param":{"num_deleted":"0","num_feature":"3","num_nodes":"33","size_leaf_vector":"0"}},{"base_weights":[-2.8572928E-2,-6.9467396E-1,2.8613975E-4,2.4110647E-1,-6.0161594E-2,-3.2591805E-1,5.0262886E-1,-7.7127117E-1,-1.3448087E-2,-4.9026522E-1,5.325229E-2,7.588963E-1,2.3868537E-1,-1.2957028E-1,-9.5597684E-1,5.392687E-1,-6.0034823E-2,-1.7691782E-1,7.2101027E-1,8.37298E-1,2.2422288E-1,-2.7470726E-1,1.00646086E-1,-2.7642837E-1,2.0675408E-3,-2.9675886E-1,5.787906E-1,-1.6927423E-1,-7.990113E-1,8.7463963E-1,-2.0868577E-2],"categories":[],"categories_nodes":[],"categories_segments":[],"categories_sizes":[],"default_left":[1,0,1,1,1,1,1,1,1,0,0,0,1,0,0,1,1,1,0,0,1,1,1,0,0,0,0,0,0,0,0],"id":30,"left_children":[1,-1,3,5,7,9,11,13,15,-1,-1,-1,17,-1,-1,19,21,23,-1,-1,25,27,29,-1,-1,-1,-1,-1,-1,-1,-1],"loss_changes":[1.504371E0,0E0,1.1208199E0,2.4546502E0,2.0342283E0,3.6776924E-1,5.605781E-1,3.237245E-1,1.5457596E0,0E0,0E0,0E0,1.5028325E0,0E0,0E0,2.506398E-1,1.9284244E0,8.051114E-2,0E0,0E0,8.433069E-1,1.1835604E0,3.051183E0,0E0,0E0,0E0,0E0,0E0,0E0,0E0,0E0],"parents":[2147483647,0,0,2,2,3,3,4,4,5,5,6,6,7,7,8,8,12,12,15,15,16,16,17,17,20,20,21,21,22,22],"right_children":[2,-1,4,6,8,10,12,14,16,-1,-1,-1,18,-1,-1,20,22,24,-1,-1,26,28,30,-1,-1,-1,-1,-1,-1,-1,-1],"split_conditions":[-4.547421E-6,-2.084022E-1,4.0004683E0,5.35478E1,3.1983038E2,3.8207495E0,2.0281236E0,2.8199707E2,4.6026752E2,-1.4707957E-1,1.5975688E-2,2.276689E-1,1.9191672E3,-3.8871083E-2,-2.8679305E-1,3.2477612E2,9.286172E3,3.9997694E0,2.163031E-1,2.511894E-1,7.9734626E0,1.8106442E2,9.524707E3,-8.2928516E-2,6.2026223E-4,-8.902766E-2,1.7363718E-1,-5.078227E-2,-2.397034E-1,2.623919E-1,-6.2605734E-3],"split_indices":[2,0,0,1,1,2,0,1,1,0,0,0,1,0,0,1,1,0,0,0,0,0,1,0,0,0,0,0,0,0,0],"split_type":[0,0,0,0,0,0,0,0,0,0,0,0,0,0,0,0,0,0,0,0,0,0,0,0,0,0,0,0,0,0,0],"sum_hessian":[7.7248344E1,2.24977E0,7.499858E1,1.444838E1,6.0550198E1,4.4827633E0,9.965617E0,2.7763135E0,5.7773884E1,2.922879E0,1.5598842E0,4.104887E0,5.86073E0,1.0008112E0,1.7755024E0,3.6689503E0,5.4104935E1,3.4882338E0,2.3724961E0,1.0335361E0,2.6354141E0,2.2857407E1,3.1247528E1,1.891948E0,1.5962857E0,1.1332788E0,1.5021354E0,2.0131908E1,2.7254982E0,3.399084E0,2.7848444E1],"tree_param":{"num_deleted":"0","num_feature":"3","num_nodes":"31","size_leaf_vector":"0"}},{"base_weights":[-2.1592487E-2,-6.483455E-1,2.7709685E-3,-1.7625755E-2,6.208796E-1,2.073112E-2,-7.6414096E-1,-3.7942942E-2,7.518757E-1,1.5149212E-2,-8.078084E-1,1.2146853E0,-4.3818107E-1,-5.4582037E-2,7.3431516E-1,1.6736786E0,2.9045716E-1],"categories":[],"categories_nodes":[],"categories_segments":[],"categories_sizes":[],"default_left":[1,0,1,1,0,1,0,1,1,1,0,1,0,0,0,0,0],"id":31,"left_children":[1,-1,3,5,-1,7,-1,9,11,13,-1,15,-1,-1,-1,-1,-1],"loss_changes":[1.154465E0,0E0,9.395745E-1,2.0854235E0,0E0,3.0193975E0,0E0,2.6891134E0,3.4112852E0,3.1616995E0,0E0,1.2229128E0,0E0,0E0,0E0,0E0,0E0],"parents":[2147483647,0,0,2,2,3,3,5,5,7,7,8,8,9,9,11,11],"right_children":[2,-1,4,6,-1,8,-1,10,12,14,-1,16,-1,-1,-1,-1,-1],"split_conditions":[-4.547421E-6,-1.9450365E-1,4.9081294E5,1.4640879E3,1.8626389E-1,5.5014E4,-2.292423E-1,5.800674E2,2.7561412E5,1.91225E4,-2.4234253E-1,1.242E3,-1.3145433E-1,-1.6374612E-2,2.2029455E-1,5.021036E-1,8.713715E-2],"split_indices":[2,0,1,0,0,1,0,0,1,1,0,0,0,0,0,0,0],"split_type":[0,0,0,0,0,0,0,0,0,0,0,0,0,0,0,0,0],"sum_hessian":[7.448647E1,1.8288063E0,7.265767E1,7.127711E1,1.3805609E0,6.87185E1,2.5586119E0,6.44912E1,4.227289E0,6.124771E1,3.2434971E0,3.0287294E0,1.1985595E0,5.6676395E1,4.5713124E0,1.4818935E0,1.546836E0],"tree_param":{"num_deleted":"0","num_feature":"3","num_nodes":"17","size_leaf_vector":"0"}},{"base_weights":[-1.5623214E-2,-6.025617E-1,4.594589E-3,2.9707702E-2,-4.697408E-1,1.4544523E-3,9.989736E-1,-5.979537E-1,-5.929428E-2,-2.403585E-2,8.704462E-1,3.5953753E-2,-4.9854782E-1,6.2812515E-2,-5.671795E-1,-7.2356486E-1,-1.9355609E-1],"categories":[],"categories_nodes":[],"categories_segments":[],"categories_sizes":[],"default_left":[1,0,1,1,1,1,0,0,0,1,0,1,1,0,0,0,0],"id":32,"left_children":[1,-1,3,5,7,9,-1,-1,-1,11,-1,13,15,-1,-1,-1,-1],"loss_changes":[8.9348125E-1,0E0,8.9012605E-1,1.9372768E0,1.62301E-1,1.5668712E0,0E0,0E0,0E0,1.9756899E0,0E0,1.0398234E0,3.9431238E-1,0E0,0E0,0E0,0E0],"parents":[2147483647,0,0,2,2,3,3,4,4,5,5,9,9,11,11,12,12],"right_children":[2,-1,4,6,8,10,-1,-1,-1,12,-1,14,16,-1,-1,-1,-1],"split_conditions":[-4.547421E-6,-1.8076852E-1,4.3072117E1,4.083506E1,6.112496E4,2.9104844E5,2.996921E-1,-1.7938611E-1,-1.7788285E-2,6.00219E0,2.6113388E-1,1.4665E3,1.6973427E1,1.8843755E-2,-1.7015386E-1,-2.1706946E-1,-5.8066826E-2],"split_indices":[2,0,2,2,1,1,0,0,0,2,0,0,2,0,0,0,0],"split_type":[0,0,0,0,0,0,0,0,0,0,0,0,0,0,0,0,0],"sum_hessian":[7.406044E1,1.5070179E0,7.255342E1,6.979555E1,2.7578712E0,6.879183E1,1.0037208E0,1.7533369E0,1.0045342E0,6.777608E1,1.0157484E0,6.0989754E1,6.7863264E0,5.924721E1,1.7425432E0,3.1154203E0,3.6709058E0],"tree_param":{"num_deleted":"0","num_feature":"3","num_nodes":"17","size_leaf_vector":"0"}},{"base_weights":[-1.661164E-2,-1.4599851E-1,6.8479516E-2,7.351497E-2,-3.811625E-1,-3.2974076E-2,2.7465543E-1,-5.584111E-1,1.638481E-1,-7.791944E-1,-1.7577502E-1,3.4930453E-1,-1.8650639E-1,9.557084E-1,-9.497826E-2,3.325462E-1,-6.3757874E-2,6.7173237E-1,-4.3257838E-1,-1.9026725E-1,7.6693636E-1,-1.0145528E-1,-6.355514E-1,3.3134502E-1,1.2904974E0,-4.5426318E-1,2.2360443E-1,-2.1585923E-1,4.9075547E-1,-3.5783705E-1,5.2212435E-1,-5.3154793E-2,-8.2795274E-1,3.3373854E-1,-9.3257254E-1,9.728528E-1,2.626657E-1,-2.4502142E-1,7.971099E-1,6.918144E-2,-9.650967E-1,4.2654586E-1,7.681384E-2,-1.4094444E-1,-6.210209E-1,5.923143E-1,-9.551106E-2,7.14889E-1,2.1351671E-1,-6.572907E-1,-5.037052E-2,3.3419654E-1,-7.0199347E-1,6.762565E-1,-2.4853538E-1,-1.129437E-1,-7.886168E-1,2.6187965E-1,-5.0423676E-1,1.4197946E-1,7.4108434E-1,-4.9165088E-1,4.052858E-1],"categories":[],"categories_nodes":[],"categories_segments":[],"categories_sizes":[],"default_left":[1,1,1,1,1,1,1,0,1,0,1,1,1,1,1,1,1,0,1,1,1,1,1,1,0,1,1,0,1,1,0,1,0,1,0,0,0,1,0,0,0,0,0,1,0,1,1,0,0,0,0,0,0,0,0,0,0,0,0,0,0,0,0],"id":33,"left_children":[1,3,5,7,9,11,13,-1,15,-1,17,19,21,23,25,27,29,-1,31,33,35,37,39,41,-1,43,45,-1,47,49,-1,51,-1,53,-1,-1,-1,55,-1,-1,-1,-1,-1,57,-1,59,61,-1,-1,-1,-1,-1,-1,-1,-1,-1,-1,-1,-1,-1,-1,-1,-1],"loss_changes":[8.278364E-1,1.565844E0,9.606537E-1,1.0188876E0,1.0520291E0,1.9070723E0,3.8946903E0,0E0,5.966686E-1,0E0,2.6596162E0,2.2507515E0,8.155444E-1,7.0247936E-1,1.3267987E0,8.6671036E-1,1.4306258E0,0E0,1.3004204E0,2.208082E0,3.11836E-1,2.8479943E0,8.748187E-1,4.5564145E-2,0E0,1.9255304E-1,8.0296695E-1,0E0,2.8920794E-1,4.6405697E-1,0E0,1.6525638E0,0E0,8.8507044E-1,0E0,0E0,0E0,1.2388123E0,0E0,0E0,0E0,0E0,0E0,5.9385306E-1,0E0,1.012615E-1,1.0447065E0,0E0,0E0,0E0,0E0,0E0,0E0,0E0,0E0,0E0,0E0,0E0,0E0,0E0,0E0,0E0,0E0],"parents":[2147483647,0,0,1,1,2,2,3,3,4,4,5,5,6,6,8,8,10,10,11,11,12,12,13,13,14,14,15,15,16,16,18,18,19,19,20,20,21,21,22,22,23,23,25,25,26,26,28,28,29,29,31,31,33,33,37,37,43,43,45,45,46,46],"right_children":[2,4,6,8,10,12,14,-1,16,-1,18,20,22,24,26,28,30,-1,32,34,36,38,40,42,-1,44,46,-1,48,50,-1,52,-1,54,-1,-1,-1,56,-1,-1,-1,-1,-1,58,-1,60,62,-1,-1,-1,-1,-1,-1,-1,-1,-1,-1,-1,-1,-1,-1,-1,-1],"split_conditions":[5.996402E0,2.9544151E-5,1.2250304E4,-4.547421E-6,2.2038464E3,1.1000968E1,4.0109448E2,-1.6752334E-1,3.23E2,-2.3375833E-1,4.1129875E0,2.848687E2,1.1055747E4,1.86658E4,5.5351992E4,9.75E1,2.335E2,2.0151971E-1,2.0106168E0,2.8009128E2,8.164656E0,2.1797615E2,2.3105203E2,2.731363E2,3.8714924E-1,5.800674E2,1.4640879E3,-6.475777E-2,2.5E0,8.5E0,1.5663731E-1,9.583E3,-2.4838583E-1,1.8930384E1,-2.7977178E-1,2.9185587E-1,7.879971E-2,9.524707E3,2.3913299E-1,2.0754434E-2,-2.8952903E-1,1.2796377E-1,2.3044152E-2,6.0503407E0,-1.8630628E-1,6.425284E4,4.9081294E5,2.144667E-1,6.405502E-2,-1.9718722E-1,-1.5111157E-2,1.0025897E-1,-2.1059805E-1,2.0287696E-1,-7.456062E-2,-3.3883113E-2,-2.3658504E-1,7.85639E-2,-1.5127103E-1,4.2593837E-2,2.2232531E-1,-1.4749527E-1,1.2158575E-1],"split_indices":[2,2,1,2,1,0,0,0,1,0,0,1,1,1,1,1,0,0,2,1,0,0,0,0,0,0,0,0,0,0,0,1,0,2,0,0,0,1,0,0,0,0,0,2,0,1,1,0,0,0,0,0,0,0,0,0,0,0,0,0,0,0,0],"split_type":[0,0,0,0,0,0,0,0,0,0,0,0,0,0,0,0,0,0,0,0,0,0,0,0,0,0,0,0,0,0,0,0,0,0,0,0,0,0,0,0,0,0,0,0,0,0,0,0,0,0,0,0,0,0,0,0,0,0,0,0,0,0,0],"sum_hessian":[7.328359E1,2.879026E1,4.4493332E1,1.5246152E1,1.3544109E1,3.0382832E1,1.41105E1,1.258765E0,1.3987387E1,3.6591191E0,9.884991E0,8.340581E0,2.2042252E1,4.4063015E0,9.704199E0,7.7684603E0,6.2189264E0,1.9229822E0,7.962008E0,3.8765595E0,4.4640217E0,1.956289E1,2.479362E0,2.232508E0,2.1737933E0,4.3606E0,5.3435993E0,1.6577524E0,6.1107078E0,4.3997426E0,1.819184E0,4.641859E0,3.320149E0,2.5950634E0,1.2814962E0,2.509892E0,1.9541298E0,1.7494987E1,2.0679011E0,1.0417178E0,1.4376442E0,1.1329479E0,1.0995601E0,2.1556273E0,2.2049725E0,2.0819623E0,3.2616372E0,2.5060713E0,3.6046364E0,1.6525228E0,2.7472198E0,3.2102797E0,1.4315792E0,1.5322962E0,1.0627671E0,1.50468235E1,2.4481647E0,1.1545707E0,1.0010566E0,1.0023004E0,1.079662E0,1.8313038E0,1.4303333E0],"tree_param":{"num_deleted":"0","num_feature":"3","num_nodes":"63","size_leaf_vector":"0"}},{"base_weights":[-1.4825808E-2,-5.5929493E-2,2.000203E-1,-1.3805038E-2,-5.485301E-1,7.618113E-1,-9.7987965E-2,-4.6685413E-2,6.184038E-1,-2.6910102E-1,-7.536002E-1,-2.5381288E-1,1.592336E0,1.3623631E-1,-6.6824716E-1,5.8213584E-3,-4.705441E-1,1.0382499E-1,-5.456294E-1,-2.239885E-1,5.572533E-1,-2.2806799E-2,5.8193636E-1,1.9909446E-1,-7.701888E-1,-4.5745942E-1,3.8292997E-2,2.0621657E-1,6.991153E-1,3.150694E-2,-5.1746863E-1],"categories":[],"categories_nodes":[],"categories_segments":[],"categories_sizes":[],"default_left":[1,1,1,1,1,1,1,1,0,1,0,0,0,1,0,1,1,0,0,1,1,1,0,0,0,0,0,0,0,0,0],"id":34,"left_children":[1,3,5,7,9,11,13,15,-1,17,-1,-1,-1,19,-1,21,23,-1,-1,25,27,29,-1,-1,-1,-1,-1,-1,-1,-1,-1],"loss_changes":[6.268368E-1,1.2229476E0,1.9855987E0,1.1857834E0,6.34191E-2,3.837339E0,1.2055438E0,1.2008226E0,0E0,4.198335E-1,0E0,0E0,0E0,1.1478237E0,0E0,8.195763E-1,1.3464116E0,0E0,0E0,2.8379297E-1,2.4994254E-2,1.2934324E0,0E0,0E0,0E0,0E0,0E0,0E0,0E0,0E0,0E0],"parents":[2147483647,0,0,1,1,2,2,3,3,4,4,5,5,6,6,7,7,9,9,13,13,15,15,16,16,19,19,20,20,21,21],"right_children":[2,4,6,8,10,12,14,16,-1,18,-1,-1,-1,20,-1,22,24,-1,-1,26,28,30,-1,-1,-1,-1,-1,-1,-1,-1,-1],"split_conditions":[3.9892805E4,3.6605908E2,7.6328284E2,1.9832742E4,5.800674E2,2.5053558E2,3.8000053E1,6.00219E0,1.8552114E-1,6.0503407E0,-2.2608006E-1,-7.614387E-2,4.7770083E-1,9.30315E4,-2.0047416E-1,2.4571103E2,4.63E2,3.1147497E-2,-1.6368882E-1,1.2027542E3,4.5110513E3,1.1054075E4,1.7458092E-1,5.972834E-2,-2.3105665E-1,-1.3723783E-1,1.1487899E-2,6.1864976E-2,2.0973459E-1,9.452082E-3,-1.552406E-1],"split_indices":[1,0,0,1,0,0,2,2,0,2,0,0,0,1,0,0,1,0,0,0,0,1,0,0,0,0,0,0,0,0,0],"split_type":[0,0,0,0,0,0,0,0,0,0,0,0,0,0,0,0,0,0,0,0,0,0,0,0,0,0,0,0,0,0,0],"sum_hessian":[6.871487E1,5.8300648E1,1.0414222E1,5.4654892E1,3.6457567E0,3.0701597E0,7.344062E0,5.2833256E1,1.8216352E0,2.5217931E0,1.1239634E0,1.6935554E0,1.3766043E0,5.745353E0,1.5987086E0,4.7887333E1,4.9459224E0,1.3396641E0,1.1821291E0,3.3484123E0,2.396941E0,4.6535328E1,1.3520087E0,1.6327215E0,3.3132005E0,1.377802E0,1.9706104E0,1.3960544E0,1.0008864E0,4.2774952E1,3.7603724E0],"tree_param":{"num_deleted":"0","num_feature":"3","num_nodes":"31","size_leaf_vector":"0"}},{"base_weights":[-1.2711923E-2,-1.4447838E-1,7.105462E-2,3.5406362E-2,-3.5795426E-1,1.0648504E-1,-3.8071775E-1,-5.233128E-1,1.1387789E-1,-7.358794E-1,-1.6307339E-1,5.5218544E-2,5.605913E-1,-5.281471E-1,-2.2723695E-2,2.6524943E-1,-8.38241E-2,6.215074E-1,-3.976657E-1,1.3834076E-1,-4.647964E-1,-5.444061E-2,8.2979494E-1,9.660615E-2,7.43751E-1,-6.09255E-1,1.5478274E-1,-8.021484E-1,-7.9503134E-2,4.114234E-1,3.7468065E-2,7.7467784E-2,-7.3202235E-1,3.6560303E-1,-2.3074228E-1,4.763687E-1,-1.8678544E-2,6.419876E-1,-7.404641E-1,-1.3138224E-2,8.125903E-1,-8.9463294E-1,1.2138932E-1],"categories":[],"categories_nodes":[],"categories_segments":[],"categories_sizes":[],"default_left":[1,1,1,1,1,1,1,0,1,0,1,1,1,0,0,1,1,0,1,1,1,0,0,1,0,0,1,0,1,1,1,0,0,0,0,0,0,0,0,0,0,0,0],"id":35,"left_children":[1,3,5,7,9,11,13,-1,15,-1,17,19,21,-1,-1,23,25,-1,27,29,31,-1,-1,33,-1,-1,35,-1,37,39,41,-1,-1,-1,-1,-1,-1,-1,-1,-1,-1,-1,-1],"loss_changes":[7.6517767E-1,1.0460865E0,7.205505E-1,7.398069E-1,7.9300463E-1,9.0434426E-1,1.6259333E-1,0E0,4.5392883E-1,0E0,1.9889972E0,1.6726557E0,7.018603E-1,0E0,0E0,6.068037E-1,9.738045E-1,0E0,9.5225954E-1,8.8953674E-1,8.3303225E-1,0E0,0E0,7.3312604E-1,0E0,0E0,3.224954E-1,0E0,3.1120775E0,1.5029178E0,2.07124E0,0E0,0E0,0E0,0E0,0E0,0E0,0E0,0E0,0E0,0E0,0E0,0E0],"parents":[2147483647,0,0,1,1,2,2,3,3,4,4,5,5,6,6,8,8,10,10,11,11,12,12,15,15,16,16,18,18,19,19,20,20,23,23,26,26,28,28,29,29,30,30],"right_children":[2,4,6,8,10,12,14,-1,16,-1,18,20,22,-1,-1,24,26,-1,28,30,32,-1,-1,34,-1,-1,36,-1,38,40,42,-1,-1,-1,-1,-1,-1,-1,-1,-1,-1,-1,-1],"split_conditions":[5.996402E0,2.9544151E-5,4.3072117E1,-4.547421E-6,2.2038464E3,3.5984528E1,5.398031E1,-1.5699385E-1,3.23E2,-2.2076383E-1,4.1129875E0,6.00219E0,2.3310602E4,-1.5844414E-1,-6.817109E-3,6.5E0,8.5E0,1.8645222E-1,1.6979382E1,3.35E1,1.4602533E2,-1.6332183E-2,2.4893849E-1,1.5E0,2.2312531E-1,-1.8277651E-1,7.905E2,-2.4064453E-1,1.8157597E1,8.835E2,1.777E3,2.3240335E-2,-2.1960671E-1,1.0968091E-1,-6.922269E-2,1.4291061E-1,-5.6035635E-3,1.925963E-1,-2.2213924E-1,-3.9414675E-3,2.437771E-1,-2.6838988E-1,3.64168E-2],"split_indices":[2,2,2,2,1,2,2,0,1,0,0,2,1,0,0,0,0,0,0,0,0,0,0,0,0,0,1,0,0,1,1,0,0,0,0,0,0,0,0,0,0,0,0],"split_type":[0,0,0,0,0,0,0,0,0,0,0,0,0,0,0,0,0,0,0,0,0,0,0,0,0,0,0,0,0,0,0,0,0,0,0,0,0,0,0,0,0,0,0],"sum_hessian":[6.739443E1,2.5911053E1,4.1483383E1,1.4514555E1,1.1396498E1,3.9175335E1,2.3080459E0,1.0893726E0,1.3425182E1,2.9328618E0,8.463636E0,3.6209095E1,2.9662414E0,1.2981465E0,1.0098994E0,7.410009E0,6.015174E0,1.5685158E0,6.8951206E0,3.1851702E1,4.3573933E0,1.1459459E0,1.8202955E0,6.367676E0,1.0423331E0,1.3934044E0,4.6217694E0,2.3660066E0,4.529114E0,7.761398E0,2.4090303E1,1.6728637E0,2.6845295E0,3.4312236E0,2.9364524E0,1.0075618E0,3.6142077E0,2.1791291E0,2.3499846E0,4.240673E0,3.5207248E0,1.1918802E0,2.2898422E1],"tree_param":{"num_deleted":"0","num_feature":"3","num_nodes":"43","size_leaf_vector":"0"}},{"base_weights":[-1.7874144E-2,-1.2755966E-1,4.7361854E-2,2.5826186E-2,-3.3855298E-1,1.7752288E-1,-6.6536225E-2,-3.3976147E-1,1.1261514E-1,6.896506E-2,-4.7311133E-1,5.7999283E-2,1.0481266E0,-6.8351585E-1,4.9157523E-2,6.432647E-1,-3.0615993E-2,-5.0911844E-1,5.755062E-1,-8.1172013E-1,-8.4196635E-2,1.6451752E-1,-2.6239598E-1,7.5509536E-1,-3.4721754E-2,-1.3362513E-1,2.9308087E-1,5.807058E-1,-6.934107E-1,-9.6186124E-2,6.4568347E-1,-5.2766734E-1,3.1819612E-1,-6.3168985E-1,8.2398504E-2,7.594063E-2,-5.145072E-1,4.7025353E-1,-2.9167594E-2,8.5597165E-2,-7.9383844E-1,9.101754E-1,1.472643E-1,6.231755E-1,-3.8249962E-2],"categories":[],"categories_nodes":[],"categories_segments":[],"categories_sizes":[],"default_left":[1,1,1,1,1,1,1,0,1,1,1,1,0,0,1,0,1,0,0,0,1,1,1,0,1,1,1,0,0,1,1,0,0,0,1,0,0,0,0,0,0,0,0,0,0],"id":36,"left_children":[1,3,5,7,9,11,13,-1,15,17,19,21,-1,-1,23,-1,25,-1,-1,-1,27,29,31,-1,33,35,37,-1,-1,39,41,-1,-1,-1,43,-1,-1,-1,-1,-1,-1,-1,-1,-1,-1],"loss_changes":[4.7110537E-1,8.0197227E-1,6.26821E-1,5.180565E-1,6.022768E-1,1.9821365E0,1.6647708E0,0E0,1.0056077E0,1.3036705E0,9.7687185E-1,6.6843534E-1,0E0,0E0,1.2209222E0,0E0,4.115824E-1,0E0,0E0,0E0,2.3509622E0,1.8640249E0,9.312991E-1,0E0,1.3797401E0,7.7019465E-1,1.8553573E-1,0E0,0E0,1.3598833E0,5.485127E-1,0E0,0E0,0E0,1.1172966E0,0E0,0E0,0E0,0E0,0E0,0E0,0E0,0E0,0E0,0E0],"parents":[2147483647,0,0,1,1,2,2,3,3,4,4,5,5,6,6,8,8,9,9,10,10,11,11,14,14,16,16,20,20,21,21,22,22,24,24,25,25,26,26,29,29,30,30,34,34],"right_children":[2,4,6,8,10,12,14,-1,16,18,20,22,-1,-1,24,-1,26,-1,-1,-1,28,30,32,-1,34,36,38,-1,-1,40,42,-1,-1,-1,44,-1,-1,-1,-1,-1,-1,-1,-1,-1,-1],"split_conditions":[5.996402E0,2.9544151E-5,1.8106442E2,9.7820786E1,4.0004683E0,9.286172E3,1.9295789E2,-1.0192844E-1,2.0848413E0,1.9191672E3,1.6991806E1,7.52122E3,3.14438E-1,-2.0505476E-1,9.524707E3,1.9297943E-1,2.3377203E2,-1.5273553E-1,1.7265187E-1,-2.4351604E-1,1.8157597E1,1.7145E3,1.7596225E2,2.2652861E-1,2.1797615E2,4.6026483E2,7.110891E2,1.7421176E-1,-2.0802322E-1,2.2021471E1,9.009697E1,-1.583002E-1,9.545884E-2,-1.8950696E-1,1.1055747E4,2.278219E-2,-1.5435216E-1,1.4107606E-1,-8.7502785E-3,2.567915E-2,-2.3815154E-1,2.7305263E-1,4.417929E-2,1.8695265E-1,-1.1474989E-2],"split_indices":[2,2,0,1,0,1,0,0,0,1,0,1,0,0,1,0,0,0,0,0,0,1,0,0,0,1,0,0,0,0,0,0,0,0,1,0,0,0,0,0,0,0,0,0,0],"split_type":[0,0,0,0,0,0,0,0,0,0,0,0,0,0,0,0,0,0,0,0,0,0,0,0,0,0,0,0,0,0,0,0,0,0,0,0,0,0,0,0,0,0,0,0,0],"sum_hessian":[6.3994415E1,2.3510063E1,4.0484352E1,1.4121646E1,9.388418E0,1.8632639E1,2.1851713E1,2.1500456E0,1.19716E1,2.451469E0,6.936949E0,1.7321255E1,1.3113838E0,2.6755233E0,1.9176191E1,1.8025033E0,1.0169097E1,1.1425083E0,1.3089607E0,3.1271513E0,3.8097975E0,1.33645935E1,3.9566603E0,1.186691E0,1.79895E1,8.159661E0,2.0094354E0,1.8440155E0,1.9657822E0,9.187016E0,4.177579E0,2.7783804E0,1.1782799E0,2.2299275E0,1.5759572E1,5.780036E0,2.379625E0,1.0002229E0,1.0092126E0,7.9839816E0,1.2030337E0,2.189546E0,1.9880325E0,2.1148887E0,1.3644684E1],"tree_param":{"num_deleted":"0","num_feature":"3","num_nodes":"45","size_leaf_vector":"0"}},{"base_weights":[-1.3411931E-2,-5.3464975E-2,1.8356493E-1,3.424551E-5,-3.588164E-1,6.9268703E-1,-8.9776374E-2,-5.1113304E-2,9.000061E-1,-1.5542437E-1,-6.5439236E-1,-1.1721728E-1,1.2411058E0,1.1505719E-1,-6.150098E-1,2.2322696E-2,-3.6239195E-1,-5.671276E-1,1.0375091E-1,-3.9377818E-1,3.1310079E-1,-5.7516444E-2,3.9385808E-1,-7.1267074E-1,-1.466702E-1,5.675839E-1,-3.0489898E-1,6.960302E-1,-3.3505045E-2,-5.638008E-3,-4.7027746E-1,-1.3729717E-2,8.794876E-1,3.5650942E-1,-4.6820536E-1,-2.674154E-1,2.447854E-1],"categories":[],"categories_nodes":[],"categories_segments":[],"categories_sizes":[],"default_left":[1,1,1,1,1,1,1,1,0,1,0,0,0,1,0,1,1,0,1,0,1,1,1,0,1,0,0,0,1,0,0,0,0,0,0,0,0],"id":37,"left_children":[1,3,5,7,9,11,13,15,-1,17,-1,-1,-1,19,-1,21,23,-1,25,-1,27,29,31,-1,33,-1,-1,-1,35,-1,-1,-1,-1,-1,-1,-1,-1],"loss_changes":[4.9918735E-1,8.5473466E-1,1.5522196E0,2.1413867E0,3.672341E-1,1.8577706E0,9.155172E-1,1.0143254E0,0E0,6.918305E-1,0E0,0E0,0E0,7.774357E-1,0E0,1.1070918E0,5.347775E-1,0E0,1.0233257E0,0E0,7.1744305E-1,6.6040665E-1,1.3172501E0,0E0,1.2177627E0,0E0,0E0,0E0,3.0625543E-1,0E0,0E0,0E0,0E0,0E0,0E0,0E0,0E0],"parents":[2147483647,0,0,1,1,2,2,3,3,4,4,5,5,6,6,7,7,9,9,13,13,15,15,16,16,18,18,20,20,21,21,22,22,24,24,28,28],"right_children":[2,4,6,8,10,12,14,16,-1,18,-1,-1,-1,20,-1,22,24,-1,26,-1,28,30,32,-1,34,-1,-1,-1,36,-1,-1,-1,-1,-1,-1,-1,-1],"split_conditions":[3.9892805E4,2.3415955E2,7.6328284E2,2.2698764E2,6.0253716E0,2.5053558E2,3.8000053E1,1.8106442E2,2.7000186E-1,1.2235251E4,-1.9631772E-1,-3.5165187E-2,3.7233174E-1,1.2027542E3,-1.8450294E-1,8.387988E3,9.3025E3,-1.7013828E-1,3.6625232E2,-1.18133456E-1,1.4640879E3,7.52122E3,1.2819267E2,-2.1380123E-1,1.9800198E2,1.7027518E-1,-9.14697E-2,2.0880906E-1,2.2403019E5,-1.6914025E-3,-1.4108324E-1,-4.118915E-3,2.6384628E-1,1.0695283E-1,-1.4046161E-1,-8.0224626E-2,7.343562E-2],"split_indices":[1,0,0,0,2,0,2,0,0,1,0,0,0,0,0,1,1,0,0,0,0,1,0,0,0,0,0,0,1,0,0,0,0,0,0,0,0],"split_type":[0,0,0,0,0,0,0,0,0,0,0,0,0,0,0,0,0,0,0,0,0,0,0,0,0,0,0,0,0,0,0,0,0,0,0,0,0],"sum_hessian":[6.102822E1,5.13212E1,9.70702E0,4.45208E1,6.8003974E0,2.8550649E0,6.851955E0,4.3019127E1,1.501674E0,4.932249E0,1.8681486E0,1.470175E0,1.3848898E0,5.491348E0,1.360607E0,3.555854E1,7.460586E0,1.446409E0,3.48584E0,1.2615904E0,4.2297573E0,2.9964642E1,5.593901E0,1.9654781E0,5.4951077E0,1.4505203E0,2.0353196E0,1.5306104E0,2.699147E0,2.7519478E1,2.4451642E0,3.5696387E0,2.0242622E0,2.099994E0,3.395114E0,1.4877404E0,1.2114067E0],"tree_param":{"num_deleted":"0","num_feature":"3","num_nodes":"37","size_leaf_vector":"0"}},{"base_weights":[-1.1196281E-2,-5.6434367E-2,1.3232413E-1,-1.4766216E-2,-3.981841E-1,5.0653845E-1,-1.852888E-1,5.8687158E-2,-1.699819E-1,1.6426906E-1,-7.1135736E-1,-5.510643E-1,8.2445794E-1,-6.5783566E-1,5.44832E-2,-8.280504E-2,2.806389E-1,-4.6504045E-1,2.0020021E-2,1.0579889E0,-2.8877448E-2,4.612689E-1,-1.6255169E-1,2.7888688E-1,-2.0121747E-1,-1.20301105E-1,5.1031226E-1,7.383264E-2,-7.026603E-1,5.460336E-1,-1.4010362E-1,1.4571993E0,5.1594424E-1,-3.8697806E-1,3.0256316E-1,-3.203491E-2,6.06362E-1,-4.2636824E-1,-2.4202406E-2,-5.2732056E-1,3.9453164E-1,8.814912E-1,7.208085E-2,-6.617849E-1,9.226893E-2,2.2725973E-2,8.7270325E-1],"categories":[],"categories_nodes":[],"categories_segments":[],"categories_sizes":[],"default_left":[1,1,1,1,1,1,1,1,1,0,0,0,1,0,1,1,1,1,1,1,0,0,1,1,1,1,1,0,0,0,1,0,1,0,0,0,0,0,0,0,0,0,0,0,0,0,0],"id":38,"left_children":[1,3,5,7,9,11,13,15,17,-1,-1,-1,19,-1,21,23,25,27,29,31,-1,-1,33,35,37,39,41,-1,-1,-1,43,-1,45,-1,-1,-1,-1,-1,-1,-1,-1,-1,-1,-1,-1,-1,-1],"loss_changes":[4.0299115E-1,6.6369283E-1,1.8646754E0,4.9964046E-1,1.010165E0,2.844213E0,1.0319064E0,9.621089E-1,7.971299E-1,0E0,0E0,0E0,1.1994586E0,0E0,6.7139876E-1,8.711252E-1,1.1541367E0,7.6200676E-1,8.7724054E-1,2.5045872E-1,0E0,0E0,6.5409833E-1,5.3997636E-1,5.841959E-1,1.2832613E0,1.1947396E0,0E0,0E0,0E0,1.0410502E0,0E0,5.9825224E-1,0E0,0E0,0E0,0E0,0E0,0E0,0E0,0E0,0E0,0E0,0E0,0E0,0E0,0E0],"parents":[2147483647,0,0,1,1,2,2,3,3,4,4,5,5,6,6,7,7,8,8,12,12,14,14,15,15,16,16,17,17,18,18,19,19,22,22,23,23,24,24,25,25,26,26,30,30,32,32],"right_children":[2,4,6,8,10,12,14,16,18,-1,-1,-1,20,-1,22,24,26,28,30,32,-1,-1,34,36,38,40,42,-1,-1,-1,44,-1,46,-1,-1,-1,-1,-1,-1,-1,-1,-1,-1,-1,-1,-1,-1],"split_conditions":[1.91225E4,6.00219E0,5.800674E2,1.705E2,4.63E2,1.2834119E2,1.1547092E3,1.714813E3,1.9264928E2,4.928072E-2,-2.1340722E-1,-1.653193E-1,1.5760012E5,-1.9735071E-1,1.3313594E3,1.0000303E0,2.9882908E0,8.591E3,9.54E3,3.3625317E2,-8.663235E-3,1.3838068E-1,4.9081294E5,5.40478E1,3.1983038E2,1.6991806E1,9.9E1,2.2149792E-2,-2.107981E-1,1.6381009E-1,2.1779019E2,4.371598E-1,2.5932154E4,-1.1609342E-1,9.076895E-2,-9.610474E-3,1.8190861E-1,-1.2791048E-1,-7.260722E-3,-1.5819618E-1,1.183595E-1,2.6444736E-1,2.1624256E-2,-1.9853547E-1,2.768068E-2,6.817792E-3,2.61811E-1],"split_indices":[1,2,0,0,1,0,0,1,0,0,0,0,1,0,0,0,2,1,1,0,0,0,1,1,1,0,0,0,0,0,0,0,1,0,0,0,0,0,0,0,0,0,0,0,0,0,0],"split_type":[0,0,0,0,0,0,0,0,0,0,0,0,0,0,0,0,0,0,0,0,0,0,0,0,0,0,0,0,0,0,0,0,0,0,0,0,0,0,0,0,0,0,0,0,0,0,0],"sum_hessian":[5.9919235E1,4.6020283E1,1.3898953E1,4.1948837E1,4.071443E0,6.107828E0,7.7911253E0,2.889611E1,1.305273E1,1.6262317E0,2.4452114E0,1.2421851E0,4.865643E0,2.0356476E0,5.7554774E0,1.8029434E1,1.0866675E1,4.5458355E0,8.506894E0,3.6318836E0,1.2337594E0,1.6108885E0,4.144589E0,4.1125116E0,1.3916923E1,4.13115E0,6.7355256E0,1.602034E0,2.9438014E0,1.4228129E0,7.0840807E0,1.1192381E0,2.5126457E0,2.9089584E0,1.2356308E0,2.572358E0,1.5401537E0,5.505569E0,8.411354E0,2.2936034E0,1.8375462E0,3.0991194E0,3.6364064E0,1.6135899E0,5.470491E0,1.501092E0,1.0115536E0],"tree_param":{"num_deleted":"0","num_feature":"3","num_nodes":"47","size_leaf_vector":"0"}},{"base_weights":[-4.2116726E-3,-1.1631044E-1,5.6187186E-2,1.8678172E-2,-3.2604626E-1,-2.1240987E-2,2.1016954E-1,-2.8199068E-1,9.15992E-2,5.0532307E-2,-4.4740048E-1,2.6205823E-1,-1.2270414E-1,5.6559986E-1,-1.3720892E-1,3.449523E-1,-1.3964188E-1,-7.3444986E-1,-9.163529E-2,-1.8257444E-1,7.2420806E-1,-5.475026E-2,-4.754173E-1,1.3687606E-1,7.0149815E-1,4.4869065E-2,-5.821973E-1,1.6055775E-1,5.907149E-1,-5.831514E-1,6.919749E-2,4.813199E-1,-6.186881E-1,2.661195E-1,-7.899253E-1,9.0940946E-1,2.4091713E-1,-1.6438358E-1,5.236713E-1,3.6440402E-2,-7.3847187E-1,3.0508047E-1,9.0237117E-1,-4.848964E-1,2.5112766E-1,5.54262E-1,-1.4002185E-1,4.6868098E-1,-1.24114774E-1,6.194847E-1,-2.575509E-1,-8.125466E-2,-6.0962206E-1,-1.5448369E-2,4.8709032E-1,3.3929375E-1,3.086028E-3],"categories":[],"categories_nodes":[],"categories_segments":[],"categories_sizes":[],"default_left":[1,1,1,1,1,1,1,0,1,0,1,1,1,1,1,1,1,0,1,1,1,1,1,0,1,1,0,1,0,0,1,0,0,1,0,0,0,1,0,0,0,1,0,0,1,0,0,0,0,0,0,0,0,0,0,0,0],"id":39,"left_children":[1,3,5,7,9,11,13,-1,15,-1,17,19,21,23,25,27,29,-1,31,33,35,37,39,-1,41,43,-1,45,-1,-1,47,-1,-1,49,-1,-1,-1,51,-1,-1,-1,53,-1,-1,55,-1,-1,-1,-1,-1,-1,-1,-1,-1,-1,-1,-1],"loss_changes":[4.0061015E-1,5.9229696E-1,4.6346217E-1,3.2276687E-1,3.9560872E-1,7.946084E-1,1.6793665E0,0E0,7.3095906E-1,0E0,5.734446E-1,1.6350921E0,4.5840532E-1,2.889483E-1,6.229013E-1,1.7024142E-1,6.7064804E-1,0E0,1.4888927E0,1.4436569E0,1.19917035E-1,1.2324065E0,4.4899833E-1,0E0,1.0490894E-1,7.943551E-1,0E0,6.356129E-1,0E0,0E0,4.8448482E-1,0E0,0E0,7.7965516E-1,0E0,0E0,0E0,5.41088E-1,0E0,0E0,0E0,1.8934104E-1,0E0,0E0,1.10248E-1,0E0,0E0,0E0,0E0,0E0,0E0,0E0,0E0,0E0,0E0,0E0,0E0],"parents":[2147483647,0,0,1,1,2,2,3,3,4,4,5,5,6,6,8,8,10,10,11,11,12,12,13,13,14,14,15,15,16,16,18,18,19,19,20,20,21,21,22,22,24,24,25,25,27,27,30,30,33,33,37,37,41,41,44,44],"right_children":[2,4,6,8,10,12,14,-1,16,-1,18,20,22,24,26,28,30,-1,32,34,36,38,40,-1,42,44,-1,46,-1,-1,48,-1,-1,50,-1,-1,-1,52,-1,-1,-1,54,-1,-1,56,-1,-1,-1,-1,-1,-1,-1,-1,-1,-1,-1,-1],"split_conditions":[5.996402E0,2.9544151E-5,1.2214566E4,9.7820786E1,4.0004683E0,1.1000968E1,5.800674E2,-8.459721E-2,3.23E2,1.5159693E-2,1.6991806E1,2.848687E2,1.1055747E4,1.8966469E4,3.8000053E1,6.916505E0,8.998716E0,-2.2033496E-1,1.8157597E1,2.8009128E2,8.164656E0,2.1797615E2,2.3105203E2,4.106282E-2,1.8782043E1,5.3166945E4,-1.746592E-1,2.0848413E0,1.7721447E-1,-1.7494543E-1,5.430128E2,1.4439598E-1,-1.8560643E-1,1.8930384E1,-2.3697759E-1,2.7282286E-1,7.227514E-2,9.524707E3,1.5710141E-1,1.0932121E-2,-2.2154157E-1,4.1492767E2,2.7071136E-1,-1.4546892E-1,3.8302275E3,1.662786E-1,-4.2006556E-2,1.406043E-1,-3.7234433E-2,1.8584542E-1,-7.726527E-2,-2.43764E-2,-1.8288663E-1,-4.6345107E-3,1.461271E-1,1.01788126E-1,9.258084E-4],"split_indices":[2,2,1,1,0,0,0,0,1,0,0,1,1,1,2,0,0,0,0,1,0,0,0,0,2,1,0,0,0,0,1,0,0,2,0,0,0,1,0,0,0,0,0,0,0,0,0,0,0,0,0,0,0,0,0,0,0],"split_type":[0,0,0,0,0,0,0,0,0,0,0,0,0,0,0,0,0,0,0,0,0,0,0,0,0,0,0,0,0,0,0,0,0,0,0,0,0,0,0,0,0,0,0,0,0,0,0,0,0,0,0,0,0,0,0,0,0],"sum_hessian":[5.720352E1,1.970529E1,3.749823E1,1.2543243E1,7.162046E0,2.5525232E1,1.1973E1,1.8886931E0,1.0654551E1,1.8877376E0,5.2743087E0,6.313703E0,1.9211529E1,5.6074157E0,6.3655844E0,4.84954E0,5.805011E0,2.3299575E0,2.944351E0,3.5261512E0,2.7875519E0,1.7076742E1,2.134787E0,1.8327527E0,3.7746627E0,5.155324E0,1.2102603E0,3.715284E0,1.1342559E0,1.284593E0,4.5204177E0,1.452318E0,1.492033E0,2.3510766E0,1.1750746E0,1.3778467E0,1.4097053E0,1.4957519E1,2.1192229E0,1.0171213E0,1.1176658E0,2.116526E0,1.658137E0,1.0661229E0,4.089201E0,1.2430885E0,2.4721956E0,1.0095947E0,3.510823E0,1.2945597E0,1.0565169E0,1.360068E1,1.3568383E0,1.0980052E0,1.0185207E0,2.7454455E0,1.3437556E0],"tree_param":{"num_deleted":"0","num_feature":"3","num_nodes":"57","size_leaf_vector":"0"}},{"base_weights":[-3.6988417E-3,-2.6912555E-1,1.8555425E-2,-3.663964E-1,-1.0180844E-2,3.740456E-1,-2.963151E-2,5.6536275E-1,1.7839046E-1,-5.674923E-1,3.696504E-3,-3.8112056E-2,4.776393E-1,3.7269285E-1,-4.074116E-2,-1.5185311E-1,1.09952405E-1,-2.3317488E-3,8.313992E-1,-3.0026174E-1,2.8644055E-2,4.0381354E-1,-4.4517064E-1,-7.214319E-1,-3.947265E-2,1.11624286E-1,-2.500948E-1],"categories":[],"categories_nodes":[],"categories_segments":[],"categories_sizes":[],"default_left":[1,1,1,0,0,1,1,0,1,0,1,1,0,1,1,0,0,1,0,1,1,0,0,0,0,0,0],"id":40,"left_children":[1,3,5,-1,-1,7,9,-1,11,-1,13,15,-1,17,19,-1,-1,21,-1,23,25,-1,-1,-1,-1,-1,-1],"loss_changes":[3.3461115E-1,1.0662305E-1,9.090559E-1,0E0,0E0,1.3612455E-1,8.462284E-1,0E0,3.156435E-1,0E0,7.5857466E-1,7.7153586E-2,0E0,8.571594E-1,7.534487E-1,0E0,0E0,8.510686E-1,0E0,9.395429E-1,8.039528E-1,0E0,0E0,0E0,0E0,0E0,0E0],"parents":[2147483647,0,0,1,1,2,2,5,5,6,6,8,8,10,10,11,11,13,13,14,14,17,17,19,19,20,20],"right_children":[2,4,6,-1,-1,8,10,-1,12,-1,14,16,-1,18,20,-1,-1,22,-1,24,26,-1,-1,-1,-1,-1,-1],"split_conditions":[5.35478E1,3.8207495E0,4.0004683E0,-1.0991892E-1,-3.0542533E-3,2.0281236E0,2.8498267E2,1.6960883E-1,9.947295E2,-1.702477E-1,5.220076E2,3.9999506E0,1.4329179E-1,4.1097217E2,5.996402E0,-4.5555934E-2,3.2985725E-2,3.23E2,2.4941976E-1,1.6991806E1,6.00219E0,1.21144064E-1,-1.335512E-1,-2.1642958E-1,-1.1841795E-2,3.3487286E-2,-7.502844E-2],"split_indices":[1,2,0,0,0,0,1,0,1,0,1,0,0,1,2,0,0,1,0,0,2,0,0,0,0,0,0],"split_type":[0,0,0,0,0,0,0,0,0,0,0,0,0,0,0,0,0,0,0,0,0,0,0,0,0,0,0],"sum_hessian":[5.4802315E1,3.3812244E0,5.142109E1,2.1562746E0,1.2249498E0,5.3309093E0,4.609018E1,1.7399495E0,3.5909595E0,1.7541136E0,4.4336067E1,2.5898666E0,1.0010929E0,3.9714587E0,4.036461E1,1.4502313E0,1.1396352E0,2.7324257E0,1.239033E0,7.8132725E0,3.2551334E1,1.4712285E0,1.2611972E0,2.3124158E0,5.5008564E0,2.5545893E1,7.005444E0],"tree_param":{"num_deleted":"0","num_feature":"3","num_nodes":"27","size_leaf_vector":"0"}},{"base_weights":[-4.803459E-3,-3.768933E-2,1.980949E-1,8.309512E-3,-4.284347E-1,5.9432673E-1,-8.141883E-2,-2.9045906E-2,4.6577463E-1,-5.1908445E-1,-1.3612787E-1,-2.7467296E-2,9.789506E-1,-2.6699394E-1,3.2315472E-1,7.88629E-3,-3.490178E-1,9.677654E-4,6.7320794E-1,7.524186E-2,-4.4817138E-1,-1.4534513E-2,4.0157473E-1,1.4537118E-1,-6.507465E-1,2.7519563E-2,-3.7075016E-1],"categories":[],"categories_nodes":[],"categories_segments":[],"categories_sizes":[],"default_left":[1,1,1,1,1,1,1,1,1,0,0,0,0,1,0,1,1,0,0,0,0,1,0,0,0,0,0],"id":41,"left_children":[1,3,5,7,9,11,13,15,17,-1,-1,-1,-1,19,-1,21,23,-1,-1,-1,-1,25,-1,-1,-1,-1,-1],"loss_changes":[3.7121913E-1,8.618466E-1,9.0819705E-1,7.603715E-1,6.310767E-2,8.2368743E-1,4.9408174E-1,4.9134463E-1,3.23116E-1,0E0,0E0,0E0,0E0,2.9856002E-1,0E0,3.4165365E-1,7.3611325E-1,0E0,0E0,0E0,0E0,5.638789E-1,0E0,0E0,0E0,0E0,0E0],"parents":[2147483647,0,0,1,1,2,2,3,3,4,4,5,5,6,6,7,7,8,8,13,13,15,15,16,16,21,21],"right_children":[2,4,6,8,10,12,14,16,18,-1,-1,-1,-1,20,-1,22,24,-1,-1,-1,-1,26,-1,-1,-1,-1,-1],"split_conditions":[5.5014E4,3.6605908E2,1.2419948E3,2.01055E4,3.7173715E4,3.746269E2,4.9081294E5,6.00219E0,1.595E2,-1.5572535E-1,-4.0838365E-2,-8.240189E-3,2.936852E-1,1.4640879E3,9.694642E-2,2.4571103E2,4.63E2,2.9032963E-4,2.019624E-1,2.2572558E-2,-1.3445142E-1,1.1054075E4,1.20472424E-1,4.3611355E-2,-1.9522397E-1,8.255869E-3,-1.1122505E-1],"split_indices":[1,0,0,1,1,0,1,2,0,0,0,0,0,0,0,0,1,0,0,0,0,1,0,0,0,0,0],"split_type":[0,0,0,0,0,0,0,0,0,0,0,0,0,0,0,0,0,0,0,0,0,0,0,0,0,0,0],"sum_hessian":[5.3515347E1,4.6752003E1,6.763343E0,4.2703632E1,4.04837E0,2.3316975E0,4.431646E0,4.0345623E1,2.3580122E0,2.4979033E0,1.5504665E0,1.2459865E0,1.085711E0,3.2712202E0,1.1604255E0,3.704511E1,3.3005135E0,1.0376223E0,1.32039E0,1.3347137E0,1.9365064E0,3.596023E1,1.0848765E0,1.4472952E0,1.8532183E0,3.298843E1,2.9718008E0],"tree_param":{"num_deleted":"0","num_feature":"3","num_nodes":"27","size_leaf_vector":"0"}},{"base_weights":[-1.8053148E-3,-2.9541507E-2,2.1638027E-1,-6.767868E-3,-4.9592805E-1,6.044516E-1,-1.4243953E-1,-3.2372728E-2,5.9126204E-1,8.785099E-1,6.2126093E-2,-3.915958E-1,2.3620284E-1,3.9165467E-3,-3.4710646E-1,-1.3058601E-1,8.8784985E-2,-9.909615E-2,-5.716963E-1,-4.2956892E-2,-4.5290637E-1,6.095375E-1,3.7886307E-2,-3.6680573E-1,2.8500417E-1],"categories":[],"categories_nodes":[],"categories_segments":[],"categories_sizes":[],"default_left":[1,1,1,1,0,1,1,1,0,0,0,0,0,1,1,1,1,1,0,0,0,0,0,0,0],"id":42,"left_children":[1,3,5,7,-1,9,11,13,-1,-1,-1,-1,-1,15,17,19,21,23,-1,-1,-1,-1,-1,-1,-1],"loss_changes":[3.3304563E-1,5.1464236E-1,9.5054454E-1,7.466823E-1,0E0,4.1704082E-1,4.731479E-1,5.325753E-1,0E0,0E0,0E0,0E0,0E0,4.989113E-1,2.1179408E-1,4.584614E-1,6.8646896E-1,4.6443653E-1,0E0,0E0,0E0,0E0,0E0,0E0,0E0],"parents":[2147483647,0,0,1,1,2,2,3,3,5,5,6,6,7,7,13,13,14,14,15,15,16,16,17,17],"right_children":[2,4,6,8,-1,10,12,14,-1,-1,-1,-1,-1,16,18,20,22,24,-1,-1,-1,-1,-1,-1,-1],"split_conditions":[6.8114875E4,4.3075222E1,1.9982384E5,4.087859E1,-1.4877842E-1,1.4665E3,5.3938994E3,6.00219E0,1.7737862E-1,2.6355296E-1,1.8637829E-2,-1.1747875E-1,7.0860855E-2,5.996402E0,3.3625317E2,9.512832E3,5.5E0,6.368078E1,-1.715089E-1,-1.2887068E-2,-1.3587192E-1,1.8286125E-1,1.1365892E-2,-1.1004172E-1,8.550125E-2],"split_indices":[1,2,1,2,0,0,0,2,0,0,0,0,0,2,0,1,0,0,0,0,0,0,0,0,0],"split_type":[0,0,0,0,0,0,0,0,0,0,0,0,0,0,0,0,0,0,0,0,0,0,0,0,0],"sum_hessian":[5.29777E1,4.7769722E1,5.2079797E0,4.6513004E1,1.2567171E0,2.173134E0,3.0348458E0,4.551033E1,1.0026729E0,1.0318205E0,1.1413134E0,1.8097647E0,1.2250811E0,4.169087E1,3.819464E0,1.5920615E1,2.5770252E1,2.4999967E0,1.3194672E0,1.340852E1,2.5120957E0,1.3172946E0,2.4452957E1,1.4997381E0,1.0002586E0],