{"learner":{"attributes":{"best_iteration":"99","best_ntree_limit":"100","scikit_learn":"{\"use_label_encoder\": null, \"n_estimators\": 100, \"objective\": \"binary:logistic\", \"max_depth\": null, \"max_leaves\": null, \"max_bin\": null, \"grow_policy\": null, \"learning_rate\": null, \"verbosity\": null, \"booster\": null, \"tree_method\": null, \"gamma\": null, \"min_child_weight\": null, \"max_delta_step\": null, \"subsample\": null, \"sampling_method\": null, \"colsample_bytree\": null, \"colsample_bylevel\": null, \"colsample_bynode\": null, \"reg_alpha\": null, \"reg_lambda\": null, \"scale_pos_weight\": null, \"base_score\": null, \"missing\": NaN, \"num_parallel_tree\": null, \"random_state\": null, \"n_jobs\": null, \"monotone_constraints\": null, \"interaction_constraints\": null, \"importance_type\": null, \"gpu_id\": null, \"validate_parameters\": null, \"predictor\": null, \"enable_categorical\": false, \"feature_types\": null, \"max_cat_to_onehot\": null, \"max_cat_threshold\": null, \"eval_metric\": null, \"early_stopping_rounds\": null, \"callbacks\": null, \"classes_\": [0, 1], \"n_classes_\": 2, \"_estimator_type\": \"classifier\"}"},"feature_names":[],"feature_types":[],"gradient_booster":{"model":{"gbtree_model_param":{"num_parallel_tree":"1","num_trees":"100","size_leaf_vector":"0"},"tree_info":[0,0,0,0,0,0,0,0,0,0,0,0,0,0,0,0,0,0,0,0,0,0,0,0,0,0,0,0,0,0,0,0,0,0,0,0,0,0,0,0,0,0,0,0,0,0,0,0,0,0,0,0,0,0,0,0,0,0,0,0,0,0,0,0,0,0,0,0,0,0,0,0,0,0,0,0,0,0,0,0,0,0,0,0,0,0,0,0,0,0,0,0,0,0,0,0,0,0,0,0],"trees":[{"base_weights":[-1.0710902E0,-1.1979637E-1,-1.9482309E0,-1.9987435E0,1.999595E0,-1.9986359E0,-1.776966E0,-1.9994614E0,1E0,9.174312E-2,-1.8162544E0,-1.9183674E0,1.6774193E0,-1.345667E0,-1.9341362E0,1.8319328E0,-1.1111112E0,-1.9223745E0,1.9738562E0,-1.7860616E0,-1.9971801E0,-1.9953161E0,8.333333E-1,-1.9964881E0,7.2164947E-1],"categories":[],"categories_nodes":[],"categories_segments":[],"categories_sizes":[],"default_left":[1,1,1,1,0,0,1,0,0,1,1,0,1,1,1,0,0,1,0,1,0,0,0,0,0],"id":0,"left_children":[1,3,5,7,-1,-1,9,-1,-1,11,13,-1,15,17,19,-1,-1,21,-1,23,-1,-1,-1,-1,-1],"loss_changes":[1.8277912E4,4.1855184E4,9.483594E1,1.3994141E1,0E0,0E0,1.9109277E2,0E0,0E0,1.7693036E2,1.3868848E2,0E0,1.5392311E1,9.8683563E2,1.5425293E1,0E0,0E0,8.970349E1,0E0,3.2702502E2,0E0,0E0,0E0,0E0,0E0],"parents":[2147483647,0,0,1,1,2,2,3,3,6,6,9,9,10,10,12,12,13,13,14,14,17,17,19,19],"right_children":[2,4,6,8,-1,-1,10,-1,-1,12,14,-1,16,18,20,-1,-1,22,-1,24,-1,-1,-1,-1,-1],"split_conditions":[1.0000038E0,5.356067E1,1.9937391E0,3.5338972E0,5.9987855E-1,-5.995908E-1,2.0010378E0,-5.9983844E-1,3E-1,2.0915E3,4.000146E0,-5.7551026E-1,2.3E1,6.47953E2,6.000982E0,5.4957986E-1,-3.3333337E-1,5.1424074E0,5.921569E-1,5.9984713E0,-5.9915406E-1,-5.9859484E-1,2.5E-1,-5.9894645E-1,2.1649484E-1],"split_indices":[0,1,2,2,0,0,2,0,0,1,0,0,0,1,2,0,0,2,0,2,0,0,0,0,0],"split_type":[0,0,0,0,0,0,0,0,0,0,0,0,0,0,0,0,0,0,0,0,0,0,0,0,0],"sum_hessian":[2.190425E4,1.05085E4,1.139575E4,5.57025E3,4.93825E3,8.79625E3,2.5995E3,5.56925E3,1E0,5.35E1,2.546E3,2.35E1,3E1,5.125E2,2.0335E3,2.875E1,1.25E0,4.37E2,7.55E1,6.16E2,1.4175E3,4.26E2,1.1E1,5.685E2,4.75E1],"tree_param":{"num_deleted":"0","num_feature":"3","num_nodes":"25","size_leaf_vector":"0"}},{"base_weights":[-8.292329E-1,-9.273431E-2,-1.5079188E0,-1.5477694E0,1.5485357E0,-1.5476018E0,-1.3733472E0,-1.5484002E0,6.108185E-1,6.253665E-2,-1.4038355E0,-1.4934573E0,1.2802329E0,-1.0391507E0,-1.4951564E0,1.4191074E0,-1.0449004E0,-1.4858868E0,1.5310243E0,-1.3751243E0,-1.5465428E0,-1.5456203E0,6.1405706E-1,-1.5464188E0,5.163221E-1],"categories":[],"categories_nodes":[],"categories_segments":[],"categories_sizes":[],"default_left":[1,1,1,1,0,0,1,0,0,1,1,0,1,1,1,0,0,1,0,1,0,0,0,0,0],"id":1,"left_children":[1,3,5,7,-1,-1,9,-1,-1,11,13,-1,15,17,19,-1,-1,21,-1,23,-1,-1,-1,-1,-1],"loss_changes":[1.0023599E4,2.2971623E4,5.360547E1,7.888672E0,0E0,0E0,1.04520996E2,0E0,0E0,9.770281E1,7.624219E1,0E0,1.0814625E1,5.43173E2,9.382324E0,0E0,0E0,5.135443E1,0E0,1.849447E2,0E0,0E0,0E0,0E0,0E0],"parents":[2147483647,0,0,1,1,2,2,3,3,6,6,9,9,10,10,12,12,13,13,14,14,17,17,19,19],"right_children":[2,4,6,8,-1,-1,10,-1,-1,12,14,-1,16,18,20,-1,-1,22,-1,24,-1,-1,-1,-1,-1],"split_conditions":[1.0000038E0,5.356067E1,1.9937391E0,1.0407516E0,4.6456072E-1,-4.6428058E-1,2.0010378E0,-4.6452007E-1,1.8324555E-1,2.0915E3,4.000146E0,-4.480372E-1,1.2442E4,6.47953E2,6.000982E0,4.2573225E-1,-3.1347013E-1,5.1424074E0,4.593073E-1,5.9984713E0,-4.6396285E-1,-4.636861E-1,1.8421713E-1,-4.6392566E-1,1.5489663E-1],"split_indices":[0,1,2,2,0,0,2,0,0,1,0,0,1,1,2,0,0,2,0,2,0,0,0,0,0],"split_type":[0,0,0,0,0,0,0,0,0,0,0,0,0,0,0,0,0,0,0,0,0,0,0,0,0],"sum_hessian":[2.0052445E4,9.61718E3,1.0435266E4,5.097844E3,4.519335E3,8.050733E3,2.384533E3,5.0966377E3,1.2066283E0,4.955651E1,2.3349763E3,2.1656713E1,2.7899797E1,4.700876E2,1.8648888E3,2.6695034E1,1.2047625E0,4.0083768E2,6.924991E1,5.673627E2,1.2975261E3,3.9000778E2,1.0829899E1,5.204149E2,4.6947735E1],"tree_param":{"num_deleted":"0","num_feature":"3","num_nodes":"25","size_leaf_vector":"0"}},{"base_weights":[-7.19535E-1,-8.048914E-2,-1.3076347E0,-1.3437574E0,1.3445642E0,-1.343427E0,-1.1867871E0,-1.3443972E0,5.1693475E-1,4.4097703E-2,-1.2134508E0,-1.2888123E0,1.0675251E0,-8.9737123E-1,-1.2925103E0,1.1996455E0,-8.998315E-1,-1.2839962E0,1.3265352E0,-1.1777207E0,-1.3422883E0,-1.3415421E0,4.6073744E-1,-1.3423688E0,3.7439847E-1],"categories":[],"categories_nodes":[],"categories_segments":[],"categories_sizes":[],"default_left":[1,1,1,1,0,0,1,0,0,1,1,0,1,1,1,0,0,1,0,1,0,0,0,0,0],"id":2,"left_children":[1,3,5,7,-1,-1,9,-1,-1,11,13,-1,15,17,19,-1,-1,21,-1,23,-1,-1,-1,-1,-1],"loss_changes":[6.285875E3,1.4433899E4,3.6081055E1,5.755371E0,0E0,0E0,6.565527E1,0E0,0E0,6.0505753E1,4.7730957E1,0E0,7.594969E0,3.4109467E2,7.348877E0,0E0,0E0,3.443097E1,0E0,1.2338739E2,0E0,0E0,0E0,0E0,0E0],"parents":[2147483647,0,0,1,1,2,2,3,3,6,6,9,9,10,10,12,12,13,13,14,14,17,17,19,19],"right_children":[2,4,6,8,-1,-1,10,-1,-1,12,14,-1,16,18,20,-1,-1,22,-1,24,-1,-1,-1,-1,-1],"split_conditions":[1.0000038E0,5.356067E1,1.9937391E0,1.0407516E0,4.0336928E-1,-4.030281E-1,2.0010378E0,-4.0331918E-1,1.5508044E-1,2.0915E3,4.000146E0,-3.866437E-1,1.2442E4,6.47953E2,6.000982E0,3.5989368E-1,-2.6994947E-1,5.1424074E0,3.9796057E-1,5.9984713E0,-4.026865E-1,-4.0246266E-1,1.3822123E-1,-4.0271068E-1,1.12319544E-1],"split_indices":[0,1,2,2,0,0,2,0,0,1,0,0,1,1,2,0,0,2,0,2,0,0,0,0,0],"split_type":[0,0,0,0,0,0,0,0,0,0,0,0,0,0,0,0,0,0,0,0,0,0,0,0,0],"sum_hessian":[1.6724918E4,8.015829E3,8.70909E3,4.249144E3,3.766685E3,6.7112573E3,1.9978324E3,4.247961E3,1.1832771E0,4.2346035E1,1.9554863E3,1.8279518E1,2.4066519E1,3.9372473E2,1.5617616E3,2.2917677E1,1.1488419E0,3.3577335E2,5.7951393E1,4.7985724E2,1.0819043E3,3.2527597E2,1.0497371E1,4.3395825E2,4.5898994E1],"tree_param":{"num_deleted":"0","num_feature":"3","num_nodes":"25","size_leaf_vector":"0"}},{"base_weights":[-6.575938E-1,-7.359968E-2,-1.1939732E0,-1.2291062E0,1.2300209E0,-1.228544E0,-1.0780032E0,-1.2298024E0,4.4060978E-1,2.9441303E-2,-1.1026126E0,-1.1654786E0,9.2405903E-1,-8.14623E-1,-1.1745045E0,1.0600926E0,-8.538619E-1,-1.1662225E0,1.2087084E0,-1.0554394E0,-1.2271576E0,-1.2264175E0,3.4718388E-1,-1.227402E0,2.7192798E-1],"categories":[],"categories_nodes":[],"categories_segments":[],"categories_sizes":[],"default_left":[1,1,1,1,0,0,1,0,0,1,1,0,1,1,1,0,0,1,0,1,0,0,0,0,0],"id":3,"left_children":[1,3,5,7,-1,-1,9,-1,-1,11,13,-1,15,17,19,-1,-1,21,-1,23,-1,-1,-1,-1,-1],"loss_changes":[4.186286E3,9.64119E3,2.6604492E1,4.4853516E0,0E0,0E0,4.3854004E1,0E0,0E0,3.9483994E1,3.1610596E1,0E0,6.0092163E0,2.2727478E2,6.5821533E0,0E0,0E0,2.5113586E1,0E0,8.990646E1,0E0,0E0,0E0,0E0,0E0],"parents":[2147483647,0,0,1,1,2,2,3,3,6,6,9,9,10,10,12,12,13,13,14,14,17,17,19,19],"right_children":[2,4,6,8,-1,-1,10,-1,-1,12,14,-1,16,18,20,-1,-1,22,-1,24,-1,-1,-1,-1,-1],"split_conditions":[1.0000038E0,5.356067E1,1.9937391E0,1.0407516E0,3.6900628E-1,-3.685632E-1,2.0010378E0,-3.689407E-1,1.3218294E-1,2.0915E3,4.000146E0,-3.496436E-1,2.3E1,6.47953E2,6.000982E0,3.180278E-1,-2.561586E-1,5.1424074E0,3.6261255E-1,5.9984713E0,-3.6814728E-1,-3.679253E-1,1.0415517E-1,-3.682206E-1,8.1578396E-2],"split_indices":[0,1,2,2,0,0,2,0,0,1,0,0,0,1,2,0,0,2,0,2,0,0,0,0,0],"split_type":[0,0,0,0,0,0,0,0,0,0,0,0,0,0,0,0,0,0,0,0,0,0,0,0,0],"sum_hessian":[1.3363645E4,6.398396E3,6.965248E3,3.391917E3,3.006479E3,5.3583306E3,1.6069176E3,3.3907666E3,1.1504475E0,3.4928112E1,1.5719895E3,1.4824547E1,2.0103565E1,3.1649286E2,1.2554966E3,1.9049763E1,1.0538028E0,2.699982E2,4.649466E1,3.914194E2,8.6407715E2,2.5985233E2,1.0145888E1,3.4659302E2,4.4826397E1],"tree_param":{"num_deleted":"0","num_feature":"3","num_nodes":"25","size_leaf_vector":"0"}},{"base_weights":[-6.1868536E-1,-6.930298E-2,-1.1218972E0,-1.1577479E0,1.1588292E0,-1.1568674E0,-1.0056435E0,-1.1585381E0,3.7735802E-1,-8.346954E-1,-1.1517391E0,-1.0941356E0,-3.4593347E-2,6.5848345E-1,-1.1610793E0,-1.1575091E0,1.1780841E0,9.9864423E-1,-1.143512E0,9.455594E-3,9.6723616E-1,-2.0497828E0,-1.1550967E0,1.3052168E0,2.4713781E-1,4.8406795E-1,1.1791891E0,-1.4245838E0,-7.000573E-1],"categories":[],"categories_nodes":[],"categories_segments":[],"categories_sizes":[],"default_left":[1,1,1,1,0,0,1,0,0,1,1,1,1,1,1,0,1,1,1,0,0,0,0,0,0,0,0,0,0],"id":4,"left_children":[1,3,5,7,-1,-1,9,-1,-1,11,13,15,17,19,21,-1,23,25,27,-1,-1,-1,-1,-1,-1,-1,-1,-1,-1],"loss_changes":[2.8818335E3,6.664641E3,2.0956543E1,3.6430664E0,0E0,0E0,3.0652222E1,0E0,0E0,1.2179675E2,1.2260193E1,6.518121E1,1.6699225E2,8.180876E-1,1.2304688E0,0E0,1.1593151E0,6.4402313E0,7.763077E0,0E0,0E0,0E0,0E0,0E0,0E0,0E0,0E0,0E0,0E0],"parents":[2147483647,0,0,1,1,2,2,3,3,6,6,9,9,10,10,11,11,12,12,13,13,14,14,16,16,17,17,18,18],"right_children":[2,4,6,8,-1,-1,10,-1,-1,12,14,16,18,20,22,-1,24,26,28,-1,-1,-1,-1,-1,-1,-1,-1,-1,-1],"split_conditions":[1.0000038E0,5.356067E1,1.9937391E0,1.0407516E0,3.4764877E-1,-3.4706023E-1,6.000982E0,-3.4756145E-1,1.1320741E-1,8.91E2,2.255569E0,5.9143567E0,2.0503538E1,1.23E2,4.2661257E0,-3.4725273E-1,8.075E2,2.9343596E0,1.11775E4,2.8366784E-3,2.9017085E-1,-6.1493486E-1,-3.46529E-1,3.9156505E-1,7.4141346E-2,1.4522038E-1,3.5375673E-1,-4.2737517E-1,-2.100172E-1],"split_indices":[0,1,2,2,0,0,2,0,0,1,0,2,0,1,0,0,1,2,1,0,0,0,0,0,0,0,0,0,0],"split_type":[0,0,0,0,0,0,0,0,0,0,0,0,0,0,0,0,0,0,0,0,0,0,0,0,0,0,0,0,0],"sum_hessian":[1.0423495E4,4.9836855E3,5.4398096E3,2.6421287E3,2.341557E3,4.174986E3,1.2648237E3,2.6410146E3,1.1140761E0,5.859321E2,6.7889166E2,4.4218286E2,1.4374925E2,3.1281345E0,6.757635E2,4.3066205E2,1.1520809E1,7.446539E1,6.928387E1,1.3406291E0,1.7875054E0,2.2343817E0,6.735291E2,9.782809E0,1.7380003E0,2.0297121E1,5.4168274E1,4.105181E1,2.8232052E1],"tree_param":{"num_deleted":"0","num_feature":"3","num_nodes":"29","size_leaf_vector":"0"}},{"base_weights":[-5.921719E-1,-6.645389E-2,-1.0715644E0,-1.110605E0,1.111919E0,-1.1092894E0,-9.4811773E-1,-1.1115278E0,3.2424974E-1,6.9171205E-2,-9.739361E-1,-1.0206021E0,7.7045435E-1,-8.208055E-1,-1.1010904E0,1.0330949E0,3.9557537E-1,-9.561057E-1,3.115888E-1,5.646294E-1,-1.1115686E0,6.394128E-2,5.441252E-1,-1.1105722E0,-1.271965E-1,1.2387847E0,-7.8788954E-1,8.717262E-1,2.0620286E-2],"categories":[],"categories_nodes":[],"categories_segments":[],"categories_sizes":[],"default_left":[1,1,1,1,0,0,1,0,0,1,1,0,1,1,1,0,1,1,1,1,0,0,0,0,0,0,0,0,0],"id":5,"left_children":[1,3,5,7,-1,-1,9,-1,-1,11,13,-1,15,17,19,-1,21,23,25,27,-1,-1,-1,-1,-1,-1,-1,-1,-1],"loss_changes":[2.0199338E3,4.706164E3,1.847168E1,3.0456543E0,0E0,0E0,2.6020447E1,0E0,0E0,2.0191463E1,1.786145E1,0E0,1.1685705E0,6.78866E1,9.766418E0,0E0,3.701601E-1,5.034494E1,4.9742535E1,6.396332E-1,0E0,0E0,0E0,0E0,0E0,0E0,0E0,0E0,0E0],"parents":[2147483647,0,0,1,1,2,2,3,3,6,6,9,9,10,10,12,12,13,13,14,14,16,16,17,17,18,18,19,19],"right_children":[2,4,6,8,-1,-1,10,-1,-1,12,14,-1,16,18,20,-1,22,24,26,28,-1,-1,-1,-1,-1,-1,-1,-1,-1],"split_conditions":[1.0000038E0,5.356067E1,1.9937391E0,1.0407516E0,3.3357573E-1,-3.3278683E-1,2.0010378E0,-3.3345836E-1,9.727493E-2,2.0915E3,6.000982E0,-3.0618066E-1,7E0,5.9984713E0,2.255569E0,3.0992848E-1,1.75E1,2.6297136E3,8.15E1,3.9E1,-3.3347058E-1,1.9182384E-2,1.6323757E-1,-3.3317167E-1,-3.8158953E-2,3.716354E-1,-2.3636687E-1,2.6151788E-1,6.186086E-3],"split_indices":[0,1,2,2,0,0,2,0,0,1,2,0,0,2,0,0,0,1,0,2,0,0,0,0,0,0,0,0,0],"split_type":[0,0,0,0,0,0,0,0,0,0,0,0,0,0,0,0,0,0,0,0,0,0,0,0,0,0,0,0,0],"sum_hessian":[8.0140903E3,3.8229038E3,4.1911865E3,2.0269181E3,1.7959857E3,3.2040508E3,9.8713556E2,2.0258405E3,1.0776064E0,2.4391426E1,9.6274414E2,9.372109E0,1.5019317E1,4.401414E2,5.226028E2,7.7993073E0,7.22001E0,3.9330444E2,4.683696E1,2.9362788E0,5.196665E2,2.6761043E0,4.5439053E0,3.3123865E2,6.20658E1,2.534049E1,2.149647E1,1.4917593E0,1.4445195E0],"tree_param":{"num_deleted":"0","num_feature":"3","num_nodes":"29","size_leaf_vector":"0"}},{"base_weights":[-5.723418E-1,-6.448368E-2,-1.0315566E0,-1.0781971E0,1.0798256E0,-1.0762886E0,-8.897841E-1,-1.0792981E0,2.7925897E-1,-7.0204914E-1,-1.0652807E0,-1.0131702E0,-9.422536E-3,4.8853764E-1,-1.0773911E0,-1.0769051E0,8.130149E-1,8.386111E-1,-8.6411184E-1,-9.193436E-2,8.1358045E-1,9.674445E-1,-1.544786E-2,1.0890898E0,3.0427954E-1,-1.0653793E0,-3.1407303E-1],"categories":[],"categories_nodes":[],"categories_segments":[],"categories_sizes":[],"default_left":[1,1,1,1,0,0,1,0,0,1,1,1,1,1,0,0,1,1,1,0,0,0,0,0,0,0,0],"id":6,"left_children":[1,3,5,7,-1,-1,9,-1,-1,11,13,15,17,19,-1,-1,21,23,25,-1,-1,-1,-1,-1,-1,-1,-1],"loss_changes":[1.4257408E3,3.3699805E3,1.9402588E1,2.6038818E0,0E0,0E0,2.4812195E1,0E0,0E0,8.139464E1,8.035217E0,3.1214386E1,8.632431E1,7.868768E-1,0E0,0E0,1.2124896E0,7.6706123E0,6.2315063E0,0E0,0E0,0E0,0E0,0E0,0E0,0E0,0E0],"parents":[2147483647,0,0,1,1,2,2,3,3,6,6,9,9,10,10,11,11,12,12,13,13,16,16,17,17,18,18],"right_children":[2,4,6,8,-1,-1,10,-1,-1,12,14,16,18,20,-1,-1,22,24,26,-1,-1,-1,-1,-1,-1,-1,-1],"split_conditions":[1.0000038E0,5.356067E1,1.9937391E0,1.0407516E0,3.239477E-1,-3.228866E-1,6.000982E0,-3.2378945E-1,8.3777696E-2,8.91E2,2.255569E0,5.9143567E0,2.0503538E1,1.23E2,-3.2321736E-1,-3.2307154E-1,8.075E2,6.128479E0,2.2613695E2,-2.758031E-2,2.4407415E-1,2.9023334E-1,-4.634358E-3,3.2672694E-1,9.1283865E-2,-3.1961378E-1,-9.422191E-2],"split_indices":[0,1,2,2,0,0,2,0,0,1,0,2,0,1,0,0,1,0,0,0,0,0,0,0,0,0,0],"split_type":[0,0,0,0,0,0,0,0,0,0,0,0,0,0,0,0,0,0,0,0,0,0,0,0,0,0,0],"sum_hessian":[6.1126772E3,2.9031475E3,3.2095295E3,1.5394485E3,1.363699E3,2.4347327E3,7.7479694E2,1.5384055E3,1.0429188E0,3.7676178E2,3.9803516E2,2.5966156E2,1.1710022E2,2.7740467E0,3.952611E2,2.5130128E2,8.360264E0,5.8788414E1,5.8311802E1,1.2532015E0,1.5208453E0,6.905319E0,1.4549443E0,3.9318737E1,1.9469677E1,4.2004726E1,1.6307076E1],"tree_param":{"num_deleted":"0","num_feature":"3","num_nodes":"27","size_leaf_vector":"0"}},{"base_weights":[-5.581673E-1,-6.307403E-2,-1.002813E0,-1.0552341E0,1.0572816E0,-1.0525177E0,-8.4879875E-1,-1.0565698E0,2.4091057E-1,-1.053055E0,-4.0330783E-1,-6.543723E-1,-1.0380361E0,-5.1788256E-2,-5.5374295E-1,-9.8166937E-1,5.3122286E-3,4.2448834E-1,-1.0521555E0,-1.053875E0,7.342394E-1,7.7511954E-1,-7.168504E-1,7.502214E-1,-7.522282E-2,8.667964E-1,1.5560284E-1,1.0325323E0,2.9771018E-1,-1.0598572E0,-2.3866251E-1],"categories":[],"categories_nodes":[],"categories_segments":[],"categories_sizes":[],"default_left":[1,1,1,1,0,1,1,0,0,0,1,1,1,0,0,1,1,1,0,0,1,1,1,0,0,0,0,0,0,0,0],"id":7,"left_children":[1,3,5,7,-1,9,11,-1,-1,-1,13,15,17,-1,-1,19,21,23,-1,-1,25,27,29,-1,-1,-1,-1,-1,-1,-1,-1],"loss_changes":[1.01866943E3,2.4362068E3,1.7769775E1,2.2669678E0,0E0,2.1691895E-1,2.1396301E1,0E0,0E0,0E0,1.3745987E-1,6.448687E1,6.690155E0,0E0,0E0,2.5505936E1,5.6164993E1,6.429915E-1,0E0,0E0,5.28605E-1,5.701784E0,8.297792E0,0E0,0E0,0E0,0E0,0E0,0E0,0E0,0E0],"parents":[2147483647,0,0,1,1,2,2,3,3,5,5,6,6,10,10,11,11,12,12,15,15,16,16,17,17,20,20,21,21,22,22],"right_children":[2,4,6,8,-1,10,12,-1,-1,-1,14,16,18,-1,-1,20,22,24,-1,-1,26,28,30,-1,-1,-1,-1,-1,-1,-1,-1],"split_conditions":[1.0000038E0,5.356067E1,1.9937391E0,1.0407516E0,3.171845E-1,1.2385E3,6.000982E0,-3.1697094E-1,7.227317E-2,-3.1591654E-1,1.6608821E3,9.185E2,2.255569E0,-1.5536477E-2,-1.6612288E-1,5.9143567E0,2.0503538E1,3.9E1,-3.1564665E-1,-3.161625E-1,1.15E1,6.128479E0,5.9984713E0,2.2506642E-1,-2.2566848E-2,2.600389E-1,4.6680853E-2,3.097597E-1,8.931306E-2,-3.179572E-1,-7.159875E-2],"split_indices":[0,1,2,2,0,0,2,0,0,0,0,1,0,0,0,2,0,2,0,0,0,0,2,0,0,0,0,0,0,0,0],"split_type":[0,0,0,0,0,0,0,0,0,0,0,0,0,0,0,0,0,0,0,0,0,0,0,0,0,0,0,0,0,0,0],"sum_hessian":[4.6266357E3,2.1896733E3,2.4369626E3,1.1613064E3,1.028367E3,1.8379653E3,5.989974E2,1.1602954E3,1.0109421E0,1.8358236E3,2.1417246E0,2.9764676E2,3.0135062E2,1.0447437E0,1.0969808E0,1.9861662E2,9.903012E1,2.6035454E0,2.9874707E2,1.9096655E2,7.6500716E0,4.7898346E1,5.113177E1,1.2726609E0,1.3308845E0,5.819022E0,1.8310493E0,3.0363802E1,1.7534546E1,2.9066095E1,2.2065676E1],"tree_param":{"num_deleted":"0","num_feature":"3","num_nodes":"31","size_leaf_vector":"0"}},{"base_weights":[-5.472189E-1,-6.2030133E-2,-9.795138E-1,-1.0385089E0,1.0411121E0,-1.0347048E0,-8.126783E-1,-1.0401512E0,1.83891E-1,-1.0368195E0,-6.529157E-1,-6.126887E-1,-1.0156907E0,-1.8973533E-3,-8.018953E-1,-9.7475654E-1,-2.038041E-2,3.7141648E-1,-1.0325173E0,-9.0204185E-1,-6.88204E-2,-1.0354618E0,6.261314E-1,8.807076E-1,-4.5627633E-1,-1.5405233E-1,7.1202624E-1,8.312003E-1,2.0448524E-1,1.0220389E0,3.6264285E-1,-7.996861E-1,1.3330908E-2],"categories":[],"categories_nodes":[],"categories_segments":[],"categories_sizes":[],"default_left":[1,1,1,1,0,1,1,0,0,0,1,1,1,0,1,1,1,1,0,0,0,0,1,1,1,0,0,0,0,0,0,0,0],"id":8,"left_children":[1,3,5,7,-1,9,11,-1,-1,-1,13,15,17,-1,19,21,23,25,-1,-1,-1,-1,27,29,31,-1,-1,-1,-1,-1,-1,-1,-1],"loss_changes":[7.3163916E2,1.772822E3,1.6145386E1,1.9439697E0,0E0,4.3933105E-1,1.8184845E1,0E0,0E0,0E0,9.990072E-1,5.0563957E1,5.7134094E0,0E0,5.540552E-1,1.4872482E1,3.5950497E1,7.3117286E-1,0E0,0E0,0E0,0E0,3.4628415E-1,1.8148422E0,9.953864E0,0E0,0E0,0E0,0E0,0E0,0E0,0E0,0E0],"parents":[2147483647,0,0,1,1,2,2,3,3,5,5,6,6,10,10,11,11,12,12,14,14,15,15,16,16,17,17,22,22,23,23,24,24],"right_children":[2,4,6,8,-1,10,12,-1,-1,-1,14,16,18,-1,20,22,24,26,-1,-1,-1,-1,28,30,32,-1,-1,-1,-1,-1,-1,-1,-1],"split_conditions":[1.0000038E0,5.356067E1,1.9937391E0,1.0113815E0,3.1233364E-1,2.3382635E2,6.000982E0,-3.120454E-1,5.5167302E-2,-3.1104586E-1,3.0339667E2,8.2574005E2,2.255569E0,-5.69206E-4,8.716676E4,5.9143567E0,1.211205E1,1.23E2,-3.097552E-1,-2.7061257E-1,-2.0646121E-2,-3.1063855E-1,5.5E0,5.293477E0,5.9984713E0,-4.62157E-2,2.1360788E-1,2.493601E-1,6.1345574E-2,3.066117E-1,1.08792864E-1,-2.3990583E-1,3.9992724E-3],"split_indices":[0,1,2,2,0,0,2,0,0,0,0,1,0,0,1,2,0,1,0,0,0,0,0,0,2,0,0,0,0,0,0,0,0],"split_type":[0,0,0,0,0,0,0,0,0,0,0,0,0,0,0,0,0,0,0,0,0,0,0,0,0,0,0,0,0,0,0,0,0],"sum_hessian":[3.4875276E3,1.6437728E3,1.8437546E3,8.719761E2,7.717967E2,1.3815286E3,4.6222614E2,8.7095496E2,1.0211403E0,1.3722125E3,9.315955E0,2.3487062E2,2.2735551E2,1.9234607E0,7.392494E0,1.4536551E2,8.950511E1,2.4723663E0,2.2488315E2,6.3011885E0,1.0913057E0,1.4039496E2,4.9705453E0,2.884859E1,6.065652E1,1.1877325E0,1.284634E0,2.6906288E0,2.2799168E0,2.1901047E1,6.9475436E0,3.462986E1,2.6026663E1],"tree_param":{"num_deleted":"0","num_feature":"3","num_nodes":"33","size_leaf_vector":"0"}},{"base_weights":[-5.372567E-1,-6.1231337E-2,-9.563167E-1,-1.0259346E0,1.0292873E0,-1.0206797E0,-7.6901937E-1,-1.0279912E0,1.5792008E-1,-1.0234612E0,-5.845132E-1,-5.5929196E-1,-9.9612355E-1,-8.4404314E-1,-1.4658092E-1,-9.540234E-1,-1.030367E-2,3.2588318E-1,-1.0162356E0,4.3438202E-1,-6.659068E-1,-1.0216872E0,5.542184E-1,5.379552E-1,-5.848849E-1,6.6600454E-1,-1.3506085E-1,7.6423573E-1,1.6779011E-1,-2.1454732E-1,7.927041E-1,-8.6570364E-1,5.229029E-2],"categories":[],"categories_nodes":[],"categories_segments":[],"categories_sizes":[],"default_left":[1,1,1,1,0,1,1,0,0,0,1,1,1,0,1,1,1,1,0,0,0,0,1,1,1,0,0,0,0,0,0,0,0],"id":9,"left_children":[1,3,5,7,-1,9,11,-1,-1,-1,13,15,17,-1,19,21,23,25,-1,-1,-1,-1,27,29,31,-1,-1,-1,-1,-1,-1,-1,-1],"loss_changes":[5.2397626E2,1.2960552E3,1.605603E1,1.7537842E0,0E0,6.595459E-1,1.6653717E1,0E0,0E0,0E0,8.879123E-1,4.1194008E1,4.909775E0,0E0,1.6536472E0,1.1853195E1,2.5686613E1,6.132288E-1,0E0,0E0,0E0,0E0,3.0977345E-1,8.170722E0,7.1677074E0,0E0,0E0,0E0,0E0,0E0,0E0,0E0,0E0],"parents":[2147483647,0,0,1,1,2,2,3,3,5,5,6,6,10,10,11,11,12,12,14,14,15,15,16,16,17,17,22,22,23,23,24,24],"right_children":[2,4,6,8,-1,10,12,-1,-1,-1,14,16,18,-1,20,22,24,26,-1,-1,-1,-1,28,30,32,-1,-1,-1,-1,-1,-1,-1,-1],"split_conditions":[1.0000038E0,5.356067E1,1.9937391E0,1.0113815E0,3.087862E-1,2.3382635E2,6.000982E0,-3.0839735E-1,4.7376025E-2,-3.0703837E-1,3.196334E4,8.2574005E2,2.255569E0,-2.5321296E-1,1.4936639E-2,5.9143567E0,2.8100239E1,3.9E1,-3.048707E-1,1.3031462E-1,-1.9977205E-1,-3.0650616E-1,5.5E0,1.9843306E3,2.2613695E2,1.9980137E-1,-4.0518254E-2,2.2927073E-1,5.0337035E-2,-6.43642E-2,2.3781124E-1,-2.5971112E-1,1.5687088E-2],"split_indices":[0,1,2,2,0,0,2,0,0,0,1,1,0,0,2,2,0,2,0,0,0,0,0,1,0,0,0,0,0,0,0,0,0],"split_type":[0,0,0,0,0,0,0,0,0,0,0,0,0,0,0,0,0,0,0,0,0,0,0,0,0,0,0,0,0,0,0,0,0],"sum_hessian":[2.625962E3,1.2299563E3,1.3960055E3,6.526569E2,5.772993E2,1.0356608E3,3.6034473E2,6.516565E2,1.0004135E0,1.02776E3,7.9007916E0,1.8913971E2,1.7120502E2,4.3785896E0,3.522202E0,1.09598694E2,7.9541016E1,2.3377216E0,1.688673E2,1.7396473E0,1.7825546E0,1.0520167E2,4.3970275E0,4.073545E1,3.880557E1,1.0891724E0,1.2485492E0,2.2153373E0,2.1816902E0,1.0342513E1,3.0392939E1,2.6685814E1,1.2119754E1],"tree_param":{"num_deleted":"0","num_feature":"3","num_nodes":"33","size_leaf_vector":"0"}},{"base_weights":[-5.281397E-1,-6.058559E-2,-9.334084E-1,-1.0161004E0,1.0204474E0,-1.0089011E0,-7.238185E-1,-1.0186994E0,1.2304623E-1,-1.0125726E0,-5.2330345E-1,-5.069991E-1,-9.7721463E-1,1.5747212E-1,-7.1395713E-1,-9.337638E-1,-7.85785E-3,2.882722E-1,-1.0016646E0,-8.366925E-1,-4.7102794E-2,-1.0102714E0,4.9012947E-1,9.0779024E-1,-2.6696056E-1,-1.8951261E-1,6.38297E-1,7.034369E-1,1.3729957E-1,9.702755E-1,2.220491E-1,-7.626021E-1,2.4963093E-1],"categories":[],"categories_nodes":[],"categories_segments":[],"categories_sizes":[],"default_left":[1,1,1,1,0,1,1,0,0,0,1,1,1,0,1,1,1,1,0,0,0,0,1,1,1,0,0,0,0,0,0,0,0],"id":10,"left_children":[1,3,5,7,-1,9,11,-1,-1,-1,13,15,17,-1,19,21,23,25,-1,-1,-1,-1,27,29,31,-1,-1,-1,-1,-1,-1,-1,-1],"loss_changes":[3.746516E2,9.50585E2,1.6029602E1,1.5714722E0,0E0,8.540039E-1,1.5109863E1,0E0,0E0,0E0,1.1370509E0,3.304081E1,4.3077927E0,0E0,4.801426E-1,9.605385E0,1.7446735E1,6.625713E-1,0E0,0E0,0E0,0E0,2.750286E-1,4.796238E-1,1.4860493E1,0E0,0E0,0E0,0E0,0E0,0E0,0E0,0E0],"parents":[2147483647,0,0,1,1,2,2,3,3,5,5,6,6,10,10,11,11,12,12,14,14,15,15,16,16,17,17,22,22,23,23,24,24],"right_children":[2,4,6,8,-1,10,12,-1,-1,-1,14,16,18,-1,20,22,24,26,-1,-1,-1,-1,28,30,32,-1,-1,-1,-1,-1,-1,-1,-1],"split_conditions":[1.0000038E0,5.356067E1,1.9937391E0,9.997853E-1,3.0613422E-1,2.3382635E2,6.000982E0,-3.0560982E-1,3.6913868E-2,-3.037718E-1,3.0339667E2,8.2574005E2,2.255569E0,4.724164E-2,8.716676E4,5.9143567E0,6.128479E0,1.23E2,-3.004994E-1,-2.5100777E-1,-1.4130839E-2,-3.0308145E-1,5.5E0,5.293477E0,5.9984713E0,-5.6853786E-2,1.9148912E-1,2.1103108E-1,4.118987E-2,2.9108268E-1,6.661473E-2,-2.2878064E-1,7.488928E-2],"split_indices":[0,1,2,2,0,0,2,0,0,0,0,1,0,0,1,2,0,1,0,0,0,0,0,0,2,0,0,0,0,0,0,0,0],"split_type":[0,0,0,0,0,0,0,0,0,0,0,0,0,0,0,0,0,0,0,0,0,0,0,0,0,0,0,0,0,0,0,0,0],"sum_hessian":[1.9765076E3,9.182647E2,1.0582428E3,4.8746185E2,4.3080286E2,7.752057E2,2.8303708E2,4.8645773E2,1.0041226E0,7.683114E2,6.8943224E0,1.5414403E2,1.2889307E2,1.5464356E0,5.347887E0,8.26272E1,7.151682E1,2.2385626E0,1.2665451E2,4.301504E0,1.0463829E0,7.86896E1,3.937604E0,1.5221539E1,5.6295284E1,1.1404369E0,1.0981257E0,1.8347093E0,2.1028945E0,1.3570091E1,1.6514467E0,2.848717E1,2.7808113E1],"tree_param":{"num_deleted":"0","num_feature":"3","num_nodes":"33","size_leaf_vector":"0"}},{"base_weights":[-5.186985E-1,-1.013047E0,-1.4377853E-1,-1.014294E0,-1.7114873E-1,1.023996E0,-8.639719E-1,1.011563E0,2.0105329E0,-9.940991E-1,-6.836173E-1,1.0136305E0,2.527903E-1,-1.0034472E0,-4.5870718E-1,-4.511376E-1,-9.874722E-1,-7.7618223E-1,-1.3271229E-2,-9.1246146E-1,-1.4067979E-3,5.785663E-1,-6.1501807E-1,-1.0000622E0,4.331814E-1,4.4620037E-1,-4.768845E-1],"categories":[],"categories_nodes":[],"categories_segments":[],"categories_sizes":[],"default_left":[1,1,1,0,0,1,1,1,0,1,1,0,0,0,1,1,0,0,1,1,1,0,0,0,0,0,0],"id":11,"left_children":[1,3,5,-1,-1,7,9,11,-1,13,15,-1,-1,-1,17,19,-1,-1,21,23,25,-1,-1,-1,-1,-1,-1],"loss_changes":[2.7599384E2,5.008545E-1,7.144619E2,0E0,0E0,1.9417114E0,1.1649811E1,2.4911499E-1,0E0,1.0559998E0,1.5334213E1,0E0,0E0,0E0,9.8541784E-1,2.6637194E1,0E0,0E0,1.7616637E0,7.904335E0,1.4262864E1,0E0,0E0,0E0,0E0,0E0,0E0],"parents":[2147483647,0,0,1,1,2,2,5,5,6,6,7,7,9,9,10,10,14,14,15,15,18,18,19,19,20,20],"right_children":[2,4,6,-1,-1,8,10,12,-1,14,16,-1,-1,-1,18,20,-1,-1,22,24,26,-1,-1,-1,-1,-1,-1],"split_conditions":[5.356067E1,3.5491078E0,2.0175784E0,-3.042882E-1,-5.1344622E-2,1.625E2,1.9937391E0,1.1291491E0,6.031599E-1,2.3382635E2,6.000982E0,3.0408916E-1,7.583709E-2,-3.0103415E-1,3.196334E4,8.2574005E2,-2.9624167E-1,-2.3285468E-1,1.2645E3,5.9143567E0,4.4121254E1,1.735699E-1,-1.8450543E-1,-3.0001867E-1,1.2995443E-1,1.3386011E-1,-1.4306536E-1],"split_indices":[1,2,0,0,0,1,2,0,0,0,2,0,0,0,1,1,0,0,0,2,0,0,0,0,0,0,0],"split_type":[0,0,0,0,0,0,0,0,0,0,0,0,0,0,0,0,0,0,0,0,0,0,0,0,0,0,0],"sum_hessian":[1.4888983E3,6.414354E2,8.474629E2,6.402823E2,1.1531705E0,3.2311636E2,5.243465E2,3.2109506E2,2.0213106E0,3.0196475E2,2.2238174E2,3.198875E2,1.2075326E0,2.9592365E2,6.0411224E0,1.273958E2,9.498595E1,3.0936596E0,2.9474628E0,6.2379444E1,6.501636E1,1.5053874E0,1.4420754E0,5.880789E1,3.5715523E0,3.3521408E1,3.1494946E1],"tree_param":{"num_deleted":"0","num_feature":"3","num_nodes":"27","size_leaf_vector":"0"}},{"base_weights":[-5.0839186E-1,-1.0069665E0,-1.3913205E-1,-1.0088052E0,-1.4168368E-1,1.0208589E0,-8.269464E-1,1.005042E0,2.2434661E0,-9.8211557E-1,-6.2721694E-1,1.0081596E0,2.1151143E-1,-9.9448115E-1,-4.05717E-1,-3.9347646E-1,-9.7247255E-1,2.6918498E-1,-6.3332E-1,-6.85956E-1,3.2070673E-1,-7.74862E-1,-3.1556297E-2,-1.0040935E0,-7.2663076E-2,-2.4615936E-3,1.2531086E0],"categories":[],"categories_nodes":[],"categories_segments":[],"categories_sizes":[],"default_left":[1,1,1,0,0,1,1,1,0,1,1,0,0,0,1,1,0,0,1,1,1,0,0,0,0,0,0],"id":12,"left_children":[1,3,5,-1,-1,7,9,11,-1,13,15,-1,-1,-1,17,19,-1,-1,21,23,25,-1,-1,-1,-1,-1,-1],"loss_changes":[2.0705179E2,6.1865234E-1,5.176274E2,0E0,0E0,2.4162445E0,1.2002808E1,3.8116455E-1,0E0,1.2171631E0,1.4207016E1,0E0,0E0,0E0,1.1635078E0,2.308941E1,0E0,0E0,4.1271353E-1,1.5144291E1,9.793442E0,0E0,0E0,0E0,0E0,0E0,0E0],"parents":[2147483647,0,0,1,1,2,2,5,5,6,6,7,7,9,9,10,10,14,14,15,15,18,18,19,19,20,20],"right_children":[2,4,6,-1,-1,8,10,12,-1,14,16,-1,-1,-1,18,20,-1,-1,22,24,26,-1,-1,-1,-1,-1,-1],"split_conditions":[5.356067E1,3.5491078E0,2.0175784E0,-3.0264157E-1,-4.2505108E-2,1.625E2,1.9937391E0,1.1291491E0,6.7303985E-1,2.3382635E2,6.000982E0,3.0244792E-1,6.3453436E-2,-2.9834434E-1,3.0339667E2,5.9984713E0,-2.917418E-1,8.0755495E-2,8.016891E4,2.180399E3,1.11775E4,-2.324586E-1,-9.466889E-3,-3.0122808E-1,-2.1798924E-2,-7.384781E-4,3.759326E-1],"split_indices":[1,2,0,0,0,1,2,0,0,0,2,0,0,0,0,2,0,0,1,1,1,0,0,0,0,0,0],"split_type":[0,0,0,0,0,0,0,0,0,0,0,0,0,0,0,0,0,0,0,0,0,0,0,0,0,0,0],"sum_hessian":[1.1244094E3,4.7769647E2,6.467129E2,4.7651804E2,1.1784554E0,2.4054773E2,4.061652E2,2.3927428E2,1.2734526E0,2.2637668E2,1.797885E2,2.380685E2,1.2057841E0,2.2091206E2,5.464613E0,1.0848384E2,7.1304665E1,1.3320487E0,4.132564E0,7.6992584E1,3.1491262E1,3.1127555E0,1.0198088E0,5.027558E1,2.6717E1,2.4126451E1,7.364811E0],"tree_param":{"num_deleted":"0","num_feature":"3","num_nodes":"27","size_leaf_vector":"0"}},{"base_weights":[-4.9544036E-1,-1.0014492E0,-1.3292441E-1,-1.0041012E0,-1.1738771E-1,1.018757E0,-7.80659E-1,1.0000933E0,1.9691428E0,-9.688461E-1,-5.611845E-1,-9.8533607E-1,-3.5393E-1,-3.320316E-1,-9.5552754E-1,-4.6349E-1,-9.910689E-1,1.0055457E-1,-7.221049E-1,-8.5240924E-1,-8.911889E-3,-6.3195074E-1,-7.964117E-3,-6.2411684E-1,9.774508E-1,-9.7942966E-1,3.6566433E-1,9.280522E-1,-1.970766E-1],"categories":[],"categories_nodes":[],"categories_segments":[],"categories_sizes":[],"default_left":[1,1,1,0,0,1,1,0,0,1,1,1,1,1,0,1,0,1,0,1,1,0,0,0,0,0,0,0,0],"id":13,"left_children":[1,3,5,-1,-1,7,9,-1,-1,11,13,15,17,19,-1,21,-1,23,-1,25,27,-1,-1,-1,-1,-1,-1,-1,-1],"loss_changes":[1.566605E2,7.182007E-1,3.7314655E2,0E0,0E0,1.2254028E0,1.2674332E1,0E0,0E0,1.3843994E0,1.3247547E1,3.6956787E-2,1.0806639E0,1.6213902E1,0E0,2.7745634E-1,0E0,2.8811321E0,0E0,6.074398E0,1.0854192E1,0E0,0E0,0E0,0E0,0E0,0E0,0E0,0E0],"parents":[2147483647,0,0,1,1,2,2,5,5,6,6,9,9,10,10,11,11,12,12,13,13,15,15,17,17,19,19,20,20],"right_children":[2,4,6,-1,-1,8,10,-1,-1,12,14,16,18,20,-1,22,-1,24,-1,26,28,-1,-1,-1,-1,-1,-1,-1,-1],"split_conditions":[5.356067E1,3.5491078E0,2.0175784E0,-3.0123037E-1,-3.5216317E-2,1.9970951E0,1.9937391E0,3.0002803E-1,5.907429E-1,3.196334E4,6.000982E0,3.0030437E0,8.91363E-3,8.2574005E2,-2.866583E-1,2.8613682E0,-2.973207E-1,-1.01112634E-1,-2.1663149E-1,5.9143567E0,5.293477E0,-1.8958522E-1,-2.3892354E-3,-1.8723506E-1,2.9323524E-1,-2.938289E-1,1.096993E-1,2.7841568E-1,-5.9122983E-2],"split_indices":[1,2,0,0,0,0,2,0,0,1,2,0,2,1,0,0,0,2,0,2,0,0,0,0,0,0,0,0,0],"split_type":[0,0,0,0,0,0,0,0,0,0,0,0,0,0,0,0,0,0,0,0,0,0,0,0,0,0,0,0,0],"sum_hessian":[8.537578E2,3.5561664E2,4.9814114E2,3.5441772E2,1.1989083E0,1.7910934E2,3.190318E2,1.7767252E2,1.4368374E0,1.6992027E2,1.4911154E2,1.6489592E2,5.0243473E0,9.54737E1,5.3637836E1,2.6812081E0,1.622147E2,2.573919E0,2.4504282E0,3.594575E1,5.9527946E1,1.6746113E0,1.0065969E0,1.5671141E0,1.006805E0,3.2728725E1,3.2170255E0,9.297755E0,5.023019E1],"tree_param":{"num_deleted":"0","num_feature":"3","num_nodes":"29","size_leaf_vector":"0"}},{"base_weights":[-4.8046935E-1,-9.9597853E-1,-1.2573184E-1,-9.997398E-1,-9.731963E-2,1.0128443E0,-7.2981936E-1,1.2537466E-1,1.024096E0,-9.5338047E-1,-4.9440977E-1,9.991479E-1,2.149636E0,-9.748995E-1,-2.537062E-1,-2.7389684E-1,-9.3549466E-1,-4.1664833E-1,-9.824088E-1,3.8216776E-1,-5.272701E-1,-5.891972E-1,2.7763936E-1,-5.860472E-1,-6.774837E-3,-6.8394697E-1,-2.805612E-2,-9.841527E-1,-9.606008E-2,8.449785E-1,-9.065903E-2],"categories":[],"categories_nodes":[],"categories_segments":[],"categories_sizes":[],"default_left":[1,1,1,0,0,1,1,0,1,1,1,0,0,1,1,1,0,1,0,0,1,1,1,0,0,0,0,0,0,0,0],"id":14,"left_children":[1,3,5,-1,-1,7,9,-1,11,13,15,-1,-1,17,19,21,-1,23,-1,-1,25,27,29,-1,-1,-1,-1,-1,-1,-1,-1],"loss_changes":[1.1916072E2,8.009949E-1,2.6729376E2,0E0,0E0,1.2172394E0,1.2885025E1,0E0,1.5849915E0,1.6963043E0,1.1969448E1,0E0,0E0,1.14219666E-1,1.1066899E0,1.498229E1,0E0,2.3168755E-1,0E0,0E0,2.9825413E-1,1.0527857E1,6.6951494E0,0E0,0E0,0E0,0E0,0E0,0E0,0E0,0E0],"parents":[2147483647,0,0,1,1,2,2,5,5,6,6,8,8,9,9,10,10,13,13,14,14,15,15,17,17,20,20,21,21,22,22],"right_children":[2,4,6,-1,-1,8,10,-1,12,14,16,-1,-1,18,20,22,-1,24,-1,-1,26,28,30,-1,-1,-1,-1,-1,-1,-1,-1],"split_conditions":[5.356067E1,3.5491078E0,2.0175784E0,-2.9992196E-1,-2.9195892E-2,9.785384E1,1.9937391E0,3.76124E-2,1.5E0,2.3382635E2,6.000982E0,2.9974437E-1,6.4489084E-1,3.0030437E0,3.0339667E2,5.9984713E0,-2.806484E-1,2.8613682E0,-2.9472265E-1,1.1465033E-1,7.63292E4,2.180399E3,8.15E1,-1.7581415E-1,-2.0324513E-3,-2.051841E-1,-8.416836E-3,-2.9524583E-1,-2.8818026E-2,2.5349358E-1,-2.719771E-2],"split_indices":[1,2,0,0,0,1,2,0,0,0,2,0,0,0,0,2,0,0,0,0,1,1,0,0,0,0,0,0,0,0,0],"split_type":[0,0,0,0,0,0,0,0,0,0,0,0,0,0,0,0,0,0,0,0,0,0,0,0,0,0,0,0,0,0,0],"sum_hessian":[6.5129755E2,2.647507E2,3.8654684E2,2.6353522E2,1.2154894E0,1.3376038E2,2.5278645E2,1.8266554E0,1.3193373E2,1.280918E2,1.2469465E2,1.3091954E2,1.0141823E0,1.2388816E2,4.2036395E0,8.4214165E1,4.0480488E1,2.394079E0,1.2149408E2,1.1450591E0,3.0585806E0,5.3538925E1,3.067524E1,1.3898399E0,1.004239E0,2.0463054E0,1.012275E0,2.9176031E1,2.4362894E1,1.1565334E1,1.9109905E1],"tree_param":{"num_deleted":"0","num_feature":"3","num_nodes":"31","size_leaf_vector":"0"}},{"base_weights":[-4.6351376E-1,-9.900668E-1,-1.1819434E-1,-9.953307E-1,-8.072181E-2,1.0071049E0,-6.7688423E-1,1.0165131E-1,1.0226113E0,-9.3464106E-1,-4.335614E-1,-9.62893E-1,-1.9379635E-1,-2.2819619E-1,-9.1122067E-1,-3.745782E-1,-9.727134E-1,2.1515037E-1,-6.254287E-1,-8.2442427E-1,1.0283536E-2,-5.4236823E-1,-5.7633123E-3,-5.620368E-1,9.755958E-1,-9.531354E-1,1.587609E-1,4.074241E-1,-3.6442453E-1],"categories":[],"categories_nodes":[],"categories_segments":[],"categories_sizes":[],"default_left":[1,1,1,0,0,1,1,0,0,1,1,1,1,1,0,1,0,1,0,1,1,0,0,0,0,0,0,0,0],"id":15,"left_children":[1,3,5,-1,-1,7,9,-1,-1,11,13,15,17,19,-1,21,-1,23,-1,25,27,-1,-1,-1,-1,-1,-1,-1,-1],"loss_changes":[9.093652E1,8.683624E-1,1.9153038E2,0E0,0E0,1.3157349E0,1.2354774E1,0E0,0E0,1.8630905E0,1.024115E1,1.7919159E-1,9.905369E-1,1.0790197E1,0E0,1.9309938E-1,0E0,2.4597259E0,0E0,2.8944063E0,8.355535E0,0E0,0E0,0E0,0E0,0E0,0E0,0E0,0E0],"parents":[2147483647,0,0,1,1,2,2,5,5,6,6,9,9,10,10,11,11,12,12,13,13,15,15,17,17,19,19,20,20],"right_children":[2,4,6,-1,-1,8,10,-1,-1,12,14,16,18,20,-1,22,-1,24,-1,26,28,-1,-1,-1,-1,-1,-1,-1,-1],"split_conditions":[5.356067E1,3.5491078E0,2.0175784E0,-2.985992E-1,-2.4216544E-2,9.785384E1,1.9937391E0,3.0495394E-2,3.0678338E-1,3.196334E4,6.000982E0,3.0030437E0,8.91363E-3,8.2574005E2,-2.733662E-1,2.8613682E0,-2.9181403E-1,-2.7014796E-2,-1.8762861E-1,5.9143567E0,4.4121254E1,-1.6271047E-1,-1.7289937E-3,-1.6861105E-1,2.9267874E-1,-2.8594062E-1,4.7628272E-2,1.2222723E-1,-1.0932736E-1],"split_indices":[1,2,0,0,0,1,2,0,0,1,2,0,2,1,0,0,0,2,0,2,0,0,0,0,0,0,0,0,0],"split_type":[0,0,0,0,0,0,0,0,0,0,0,0,0,0,0,0,0,0,0,0,0,0,0,0,0,0,0,0,0],"sum_hessian":[4.997646E2,1.9720049E2,3.0256412E2,1.9597153E2,1.2289644E0,1.0011412E2,2.0244998E2,1.8128642E0,9.830126E1,9.692947E1,1.05520515E2,9.308015E1,3.8493195E0,7.482705E1,3.0693466E1,2.1708813E0,9.090926E1,2.2341416E0,1.6151779E0,2.0676447E1,5.4150608E1,1.1686436E0,1.0022376E0,1.2339432E0,1.0001985E0,1.8310003E1,2.3664422E0,2.6246017E1,2.7904589E1],"tree_param":{"num_deleted":"0","num_feature":"3","num_nodes":"29","size_leaf_vector":"0"}},{"base_weights":[-4.454047E-1,-9.832127E-1,-1.1230329E-1,-9.90496E-1,-6.6980034E-2,1.0017099E0,-6.197823E-1,8.2329914E-2,1.0230618E0,-9.117739E-1,-3.7561792E-1,-9.478382E-1,-1.380295E-1,-1.898746E-1,-8.8158506E-1,-3.3727807E-1,-9.605573E-1,4.4468397E-1,-4.4342214E-1,-5.0239366E-1,2.7354988E-1,-6.022066E-1,-2.7186384E-2,3.3014125E-1,-7.084264E-1,-3.6453847E-2,1.0930315E0],"categories":[],"categories_nodes":[],"categories_segments":[],"categories_sizes":[],"default_left":[1,1,1,0,0,1,1,0,0,1,1,1,1,1,0,0,0,0,1,1,1,0,0,0,0,0,0],"id":16,"left_children":[1,3,5,-1,-1,7,9,-1,-1,11,13,15,17,19,-1,-1,-1,-1,21,23,25,-1,-1,-1,-1,-1,-1],"loss_changes":[6.928355E1,9.2149353E-1,1.364915E2,0E0,0E0,1.3998413E0,1.1473427E1,0E0,0E0,1.9557266E0,8.475032E0,2.2953033E-1,9.980745E-1,1.0064134E1,0E0,0E0,0E0,0E0,2.1188402E-1,7.3159685E0,7.2173004E0,0E0,0E0,0E0,0E0,0E0,0E0],"parents":[2147483647,0,0,1,1,2,2,5,5,6,6,9,9,10,10,11,11,12,12,13,13,18,18,19,19,20,20],"right_children":[2,4,6,-1,-1,8,10,-1,-1,12,14,16,18,20,-1,-1,-1,-1,22,24,26,-1,-1,-1,-1,-1,-1],"split_conditions":[5.356067E1,3.5491078E0,2.0175784E0,-2.971488E-1,-2.0094011E-2,9.785384E1,1.9937391E0,2.4698975E-2,3.0691853E-1,2.3382635E2,6.000982E0,3.0030437E0,3.0339667E2,5.9984713E0,-2.6447552E-1,-1.0118342E-1,-2.881672E-1,1.334052E-1,7.410608E4,2.0010378E0,1.11775E4,-1.8066198E-1,-8.155916E-3,9.904238E-2,-2.1252793E-1,-1.0936154E-2,3.2790947E-1],"split_indices":[1,2,0,0,0,1,2,0,0,0,2,0,0,2,0,0,0,0,1,2,1,0,0,0,0,0,0],"split_type":[0,0,0,0,0,0,0,0,0,0,0,0,0,0,0,0,0,0,0,0,0,0,0,0,0,0,0],"sum_hessian":[3.863629E2,1.4702785E2,2.3933508E2,1.457879E2,1.2399429E0,7.459999E1,1.6473509E2,1.8034112E0,7.279658E1,7.377487E1,9.096022E1,7.027438E1,3.500494E0,6.754087E1,2.3419352E1,1.9956145E0,6.827876E1,1.0468725E0,2.4536216E0,4.0287888E1,2.7252985E1,1.4526695E0,1.0009521E0,7.872878E0,3.241501E1,2.0466267E1,6.786719E0],"tree_param":{"num_deleted":"0","num_feature":"3","num_nodes":"27","size_leaf_vector":"0"}},{"base_weights":[-4.2025328E-1,-9.7486275E-1,-1.016232E-1,-9.848364E-1,-5.5593792E-2,9.9331397E-1,-5.499475E-1,6.662746E-2,1.0223975E0,-8.832287E-1,-3.093221E-1,-9.2964005E-1,-6.8859264E-2,-1.4487687E-1,-8.4560424E-1,-2.9156867E-1,-9.4603705E-1,4.7647732E-1,-3.914788E-1,-7.095927E-1,4.6569414E-2,-9.3289155E-1,-4.8096102E-1,-6.1029935E-1,-9.8141164E-1,-5.4691935E-1,-2.7767606E-2,-9.269374E-1,1.3301551E-1,8.990393E-1,-1.2758695E-1,3.000853E-1,-7.7850336E-1],"categories":[],"categories_nodes":[],"categories_segments":[],"categories_sizes":[],"default_left":[1,1,1,0,0,1,1,0,0,1,1,1,1,1,1,0,1,0,1,1,1,0,1,0,0,0,0,0,0,0,0,0,0],"id":17,"left_children":[1,3,5,-1,-1,7,9,-1,-1,11,13,15,17,19,21,-1,23,-1,25,27,29,-1,31,-1,-1,-1,-1,-1,-1,-1,-1,-1,-1],"loss_changes":[5.361192E1,9.609909E-1,9.5854164E1,0E0,0E0,1.4616089E0,1.0825542E1,0E0,0E0,2.1087608E0,7.100919E0,2.9235077E-1,9.2186624E-1,6.9407043E0,1.565504E-1,0E0,2.458191E-2,0E0,1.6431224E-1,3.0970917E0,7.3381705E0,0E0,1.5668461E0,0E0,0E0,0E0,0E0,0E0,0E0,0E0,0E0,0E0,0E0],"parents":[2147483647,0,0,1,1,2,2,5,5,6,6,9,9,10,10,11,11,12,12,13,13,14,14,16,16,18,18,19,19,20,20,22,22],"right_children":[2,4,6,-1,-1,8,10,-1,-1,12,14,16,18,20,22,-1,24,-1,26,28,30,-1,32,-1,-1,-1,-1,-1,-1,-1,-1,-1,-1],"split_conditions":[5.356067E1,3.5491078E0,2.0175784E0,-2.9545093E-1,-1.6678138E-2,9.785384E1,1.9937391E0,1.9988239E-2,3.0671927E-1,3.196334E4,6.000982E0,3.0030437E0,4.1798234E4,8.91E2,3.5993637E1,-8.7470606E-2,3.2267676E2,1.429432E-1,9.376875E4,5.9143567E0,5.293477E0,-2.7986747E-1,4.300651E1,-1.8308981E-1,-2.944235E-1,-1.640758E-1,-8.330282E-3,-2.7808124E-1,3.9904654E-2,2.6971182E-1,-3.8276084E-2,9.00256E-2,-2.3355101E-1],"split_indices":[1,2,0,0,0,1,2,0,0,1,2,0,1,1,2,0,1,0,1,2,0,0,2,0,0,0,0,0,0,0,0,0,0],"split_type":[0,0,0,0,0,0,0,0,0,0,0,0,0,0,0,0,0,0,0,0,0,0,0,0,0,0,0,0,0,0,0,0,0],"sum_hessian":[3.0294086E2,1.0978641E2,1.9315445E2,1.085375E2,1.2489092E0,5.5759083E1,1.3739537E2,1.7968566E0,5.3962227E1,5.648691E1,8.090846E1,5.3307354E1,3.1795566E0,6.289311E1,1.8015352E1,1.806118E0,5.1501236E1,1.0045776E0,2.174979E0,1.5238142E1,4.7654964E1,1.3278428E1,4.736924E0,6.6489515E0,4.4852283E1,1.170864E0,1.0041149E0,1.2033982E1,3.2041605E0,7.3780813E0,4.0276886E1,1.3043827E0,3.4325414E0],"tree_param":{"num_deleted":"0","num_feature":"3","num_nodes":"33","size_leaf_vector":"0"}},{"base_weights":[-3.947264E-1,-9.643816E-1,-9.393108E-2,-9.7790253E-1,-4.6154063E-2,9.8038495E-1,-4.870291E-1,5.388859E-2,1.0194961E0,-8.48692E-1,-2.5872722E-1,-9.0672094E-1,-2.8627902E-2,-1.1329425E-1,-8.0531335E-1,-2.509976E-1,-9.275219E-1,3.4270614E-1,-5.294716E-1,-4.0611848E-1,2.3357168E-1,-9.116855E-1,-4.2065495E-1,-5.4345274E-1,-9.733098E-1,-9.372548E-1,-5.82721E-2,-6.8658926E-3,8.876655E-1,2.3436719E-1,-7.345227E-1],"categories":[],"categories_nodes":[],"categories_segments":[],"categories_sizes":[],"default_left":[1,1,1,0,0,1,1,0,0,1,1,1,1,1,1,0,1,0,0,1,1,0,1,0,0,0,0,0,0,0,0],"id":18,"left_children":[1,3,5,-1,-1,7,9,-1,-1,11,13,15,17,19,21,-1,23,-1,-1,25,27,-1,29,-1,-1,-1,-1,-1,-1,-1,-1],"loss_changes":[4.119661E1,9.872818E-1,6.753905E1,0E0,0E0,1.4985504E0,9.434759E0,0E0,0E0,2.1063728E0,5.720929E0,3.3753586E-1,9.2421997E-1,6.0788364E0,2.3852634E-1,0E0,1.7726517E-1,0E0,0E0,5.914948E0,4.34726E0,0E0,1.2309299E0,0E0,0E0,0E0,0E0,0E0,0E0,0E0,0E0],"parents":[2147483647,0,0,1,1,2,2,5,5,6,6,9,9,10,10,11,11,12,12,13,13,14,14,16,16,19,19,20,20,22,22],"right_children":[2,4,6,-1,-1,8,10,-1,-1,12,14,16,18,20,22,-1,24,-1,-1,26,28,-1,30,-1,-1,-1,-1,-1,-1,-1,-1],"split_conditions":[5.356067E1,3.5491078E0,2.0175784E0,-2.9337078E-1,-1.38462195E-2,9.785384E1,1.9937391E0,1.6166577E-2,3.0584884E-1,2.3382635E2,6.000982E0,3.0030437E0,1.0406745E-2,5.9984713E0,3.5993637E1,-7.5299285E-2,3.2267676E2,1.0281185E-1,-1.5884148E-1,2.180399E3,1.11775E4,-2.7350566E-1,4.300651E1,-1.6303582E-1,-2.9199296E-1,-2.8117645E-1,-1.748163E-2,-2.059768E-3,2.6629966E-1,7.031016E-2,-2.2035682E-1],"split_indices":[1,2,0,0,0,1,2,0,0,0,2,0,2,2,2,0,1,0,0,1,1,0,2,0,0,0,0,0,0,0,0],"split_type":[0,0,0,0,0,0,0,0,0,0,0,0,0,0,0,0,0,0,0,0,0,0,0,0,0,0,0,0,0,0,0],"sum_hessian":[2.3995293E2,8.2156456E1,1.5779646E2,8.090021E1,1.2562485E0,4.1871067E1,1.159254E2,1.7922635E0,4.0078804E1,4.380871E1,7.211669E1,4.0814915E1,2.9937925E0,5.7914387E1,1.4202302E1,1.6566873E0,3.915823E1,1.9004837E0,1.0933088E0,3.1310902E1,2.6603487E1,1.0052342E1,4.14996E0,5.541876E0,3.3616352E1,1.172034E1,1.959056E1,2.017638E1,6.427108E0,1.426415E0,2.7235448E0],"tree_param":{"num_deleted":"0","num_feature":"3","num_nodes":"31","size_leaf_vector":"0"}},{"base_weights":[-3.6598954E-1,-9.510305E-1,-8.772706E-2,-9.691692E-1,-3.8323812E-2,9.613887E-1,-4.2453885E-1,4.357665E-2,1.0131925E0,-8.0788463E-1,-2.1570583E-1,-8.790821E-1,-6.911963E-3,-9.0857945E-2,-7.597264E-1,-2.1537802E-1,-9.050882E-1,4.702244E-1,-3.3399898E-1,-3.3509147E-1,1.7848213E-1,-8.2043236E-1,-1.5678552E-1,-4.7643447E-1,-9.6386546E-1,-9.1128623E-1,-4.158848E-2,6.895392E-1,-9.136974E-2,-2.5354162E-1,-8.9468986E-1],"categories":[],"categories_nodes":[],"categories_segments":[],"categories_sizes":[],"default_left":[1,1,1,0,0,1,1,0,0,1,1,1,1,1,1,0,1,0,0,1,1,1,0,0,0,0,0,0,0,0,0],"id":19,"left_children":[1,3,5,-1,-1,7,9,-1,-1,11,13,15,17,19,21,-1,23,-1,-1,25,27,29,-1,-1,-1,-1,-1,-1,-1,-1,-1],"loss_changes":[3.1617678E1,1.0002899E0,4.7427593E1,0E0,0E0,1.5079613E0,7.9450626E0,0E0,0E0,2.0128155E0,4.482911E0,3.660984E-1,7.6538074E-1,3.7202816E0,3.2427073E-1,0E0,3.209877E-1,0E0,0E0,4.9561462E0,3.802444E0,2.3644829E-1,0E0,0E0,0E0,0E0,0E0,0E0,0E0,0E0,0E0],"parents":[2147483647,0,0,1,1,2,2,5,5,6,6,9,9,10,10,11,11,12,12,13,13,14,14,16,16,19,19,20,20,21,21],"right_children":[2,4,6,-1,-1,8,10,-1,-1,12,14,16,18,20,22,-1,24,-1,-1,26,28,30,-1,-1,-1,-1,-1,-1,-1,-1,-1],"split_conditions":[5.356067E1,3.5491078E0,2.0175784E0,-2.9075077E-1,-1.1497144E-2,9.785384E1,1.9937391E0,1.30729955E-2,3.0395776E-1,3.196334E4,6.000982E0,3.0030437E0,4.4735984E4,5.9984713E0,4.596772E4,-6.461341E-2,3.2267676E2,1.4106733E-1,-1.001997E-1,2.180399E3,8.15E1,8.112881E0,-4.7035657E-2,-1.4293034E-1,-2.8915966E-1,-2.7338588E-1,-1.2476545E-2,2.0686176E-1,-2.7410923E-2,-7.6062486E-2,-2.6840696E-1],"split_indices":[1,2,0,0,0,1,2,0,0,1,2,0,1,2,1,0,1,0,0,1,0,0,0,0,0,0,0,0,0,0,0],"split_type":[0,0,0,0,0,0,0,0,0,0,0,0,0,0,0,0,0,0,0,0,0,0,0,0,0,0,0,0,0,0,0],"sum_hessian":[1.9373033E2,6.166443E1,1.320659E2,6.0402157E1,1.262269E0,3.1644348E1,1.0042155E2,1.7890365E0,2.9855312E1,3.4402252E1,6.6019295E1,3.1504353E1,2.8979006E0,5.4645622E1,1.13736725E1,1.5378767E0,2.9966476E1,1.0006278E0,1.8972728E0,2.8530487E1,2.6115137E1,1.0005564E1,1.3681085E0,4.71156E0,2.5254915E1,8.91804E0,1.9612446E1,8.486945E0,1.7628191E1,1.6701087E0,8.335455E0],"tree_param":{"num_deleted":"0","num_feature":"3","num_nodes":"31","size_leaf_vector":"0"}},{"base_weights":[-3.3529606E-1,-9.339632E-1,-8.04308E-2,-9.580175E-1,-3.1826574E-2,9.3509537E-1,-3.6707097E-1,3.522366E-2,1.0025023E0,-7.590982E-1,-1.8018332E-1,-8.455306E-1,4.607444E-2,8.079644E-2,-4.103173E-1,-1.8436536E-1,-8.7734336E-1,4.4246858E-1,-2.713232E-1,-5.662393E-1,4.8532486E-1,-8.9702266E-1,-2.4605544E-1,-4.115988E-1,-9.515449E-1,-8.514312E-1,-1.7336462E-1,6.373277E-1,-7.3852867E-1,-2.6888901E-2,-7.4655396E-1],"categories":[],"categories_nodes":[],"categories_segments":[],"categories_sizes":[],"default_left":[1,1,1,0,0,1,1,0,0,1,1,1,1,1,1,0,1,0,0,1,1,0,1,0,0,0,0,0,0,0,0],"id":20,"left_children":[1,3,5,-1,-1,7,9,-1,-1,11,13,15,17,19,21,-1,23,-1,-1,25,27,-1,29,-1,-1,-1,-1,-1,-1,-1,-1],"loss_changes":[2.42293E1,9.9961853E-1,3.3184185E1,0E0,0E0,1.4881973E0,6.362109E0,0E0,0E0,2.0101433E0,3.7196126E0,3.7734222E-1,5.8482444E-1,8.021811E0,2.4000869E0,0E0,4.442482E-1,0E0,0E0,1.1798396E0,3.9587512E0,0E0,2.8196158E0,0E0,0E0,0E0,0E0,0E0,0E0,0E0,0E0],"parents":[2147483647,0,0,1,1,2,2,5,5,6,6,9,9,10,10,11,11,12,12,13,13,14,14,16,16,19,19,20,20,22,22],"right_children":[2,4,6,-1,-1,8,10,-1,-1,12,14,16,18,20,22,-1,24,-1,-1,26,28,-1,30,-1,-1,-1,-1,-1,-1,-1,-1],"split_conditions":[5.356067E1,3.5491078E0,2.0175784E0,-2.8740528E-1,-9.547973E-3,9.785384E1,1.9937391E0,1.0567098E-2,3.007507E-1,2.3382635E2,2.0022978E1,3.0030437E0,3.480325E2,1.0777119E3,5.9984713E0,-5.5309612E-2,3.2267676E2,1.3274059E-1,-8.139697E-2,5.9143567E0,1.5238668E4,-2.691068E-1,6.000982E0,-1.2347964E-1,-2.8546348E-1,-2.5542936E-1,-5.200939E-2,1.911983E-1,-2.2155862E-1,-8.066671E-3,-2.239662E-1],"split_indices":[1,2,0,0,0,1,2,0,0,0,0,0,0,1,2,0,1,0,0,2,1,0,2,0,0,0,0,0,0,0,0],"split_type":[0,0,0,0,0,0,0,0,0,0,0,0,0,0,0,0,0,0,0,0,0,0,0,0,0,0,0,0,0,0,0],"sum_hessian":[1.5829025E2,4.646993E1,1.1182032E2,4.5202713E1,1.2672166E0,2.4116535E1,8.770379E1,1.7867149E0,2.232982E1,2.7324476E1,6.0379307E1,2.463037E1,2.6941068E0,2.8597588E1,3.1781721E1,1.4426696E0,2.31877E1,1.0227524E0,1.6713544E0,1.0847485E1,1.7750103E1,6.8939943E0,2.4887726E1,4.0862656E0,1.9101435E1,5.608808E0,5.2386765E0,1.6215393E1,1.5347091E0,1.804125E1,6.846476E0],"tree_param":{"num_deleted":"0","num_feature":"3","num_nodes":"31","size_leaf_vector":"0"}},{"base_weights":[-3.0978864E-1,-9.122477E-1,-7.881329E-2,-9.43727E-1,-2.6433907E-2,9.0083885E-1,-3.260463E-1,2.846922E-2,9.868164E-1,-7.0381606E-1,-1.6236709E-1,-8.0621344E-1,7.962181E-2,4.0826583E-1,-2.5645408E-1,-1.5753289E-1,-8.443494E-1,4.5485112E-1,-2.4332522E-1,-3.806014E-1,8.3283746E-1,-5.6203365E-1,-8.966573E-2,-3.5090184E-1,-9.368045E-1,-6.0893255E-1,1.00981645E-1,2.1676646E-1,-9.5766115E-1,1.1089392E-1,-6.5280515E-1],"categories":[],"categories_nodes":[],"categories_segments":[],"categories_sizes":[],"default_left":[1,1,1,0,0,1,1,0,0,1,1,1,1,1,1,0,1,0,0,1,0,1,1,0,0,0,0,0,0,0,0],"id":21,"left_children":[1,3,5,-1,-1,7,9,-1,-1,11,13,15,17,19,21,-1,23,-1,-1,25,-1,27,29,-1,-1,-1,-1,-1,-1,-1,-1],"loss_changes":[1.8154537E1,9.8462486E-1,2.3490875E1,0E0,0E0,1.4394236E0,4.6598606E0,0E0,0E0,1.9125586E0,3.0667038E0,3.7330532E-1,5.4370797E-1,3.0616384E0,2.3947413E0,0E0,5.4270935E-1,0E0,0E0,4.5224637E-1,0E0,5.3683844E0,3.7120047E0,0E0,0E0,0E0,0E0,0E0,0E0,0E0,0E0],"parents":[2147483647,0,0,1,1,2,2,5,5,6,6,9,9,10,10,11,11,12,12,13,13,14,14,16,16,19,19,21,21,22,22],"right_children":[2,4,6,-1,-1,8,10,-1,-1,12,14,16,18,20,22,-1,24,-1,-1,26,-1,28,30,-1,-1,-1,-1,-1,-1,-1,-1],"split_conditions":[5.356067E1,3.5491078E0,2.0175784E0,-2.8311813E-1,-7.930173E-3,9.785384E1,1.9937391E0,8.540766E-3,2.9604495E-1,3.196334E4,4.000146E0,3.0030437E0,4.478129E4,4.598894E2,5.9984713E0,-4.7259867E-2,3.2267676E2,1.3645534E-1,-7.299757E-2,3.4472756E0,2.4985124E-1,2.0010378E0,6.000982E0,-1.0527056E-1,-2.8104135E-1,-1.8267977E-1,3.0294495E-2,6.502994E-2,-2.8729835E-1,3.3268176E-2,-1.9584155E-1],"split_indices":[1,2,0,0,0,1,2,0,0,1,0,0,1,1,2,0,1,0,0,2,0,2,2,0,0,0,0,0,0,0,0],"split_type":[0,0,0,0,0,0,0,0,0,0,0,0,0,0,0,0,0,0,0,0,0,0,0,0,0,0,0,0,0,0,0],"sum_hessian":[1.2998106E2,3.5205105E1,9.4775955E1,3.393382E1,1.2712891E0,1.8565826E1,7.621013E1,1.7850431E0,1.6780785E1,2.2040628E1,5.41695E1,1.946715E1,2.5734782E0,7.194709E0,4.6974792E1,1.3658198E0,1.810133E1,1.0014563E0,1.5720221E0,2.5536015E0,4.641107E0,1.5749591E1,3.12252E1,3.6130865E0,1.4488243E1,1.5528944E0,1.0007073E0,5.4578347E0,1.0291757E1,2.3617138E1,7.6080623E0],"tree_param":{"num_deleted":"0","num_feature":"3","num_nodes":"31","size_leaf_vector":"0"}},{"base_weights":[-2.7963793E-1,-8.8492864E-1,-7.1940355E-2,-9.254874E-1,-2.1956893E-2,8.5865676E-1,-2.8233138E-1,2.3005573E-2,9.6594065E-1,-8.297084E-1,-1.8350469E-1,9.464687E-1,-2.788336E-1,1.3047566E0,-3.3222225E-1,-6.205007E-1,-6.4428695E-2],"categories":[],"categories_nodes":[],"categories_segments":[],"categories_sizes":[],"default_left":[1,1,1,0,0,1,1,0,0,0,1,0,1,0,1,0,0],"id":22,"left_children":[1,3,5,-1,-1,7,9,-1,-1,-1,11,-1,13,-1,15,-1,-1],"loss_changes":[1.368669E1,9.546013E-1,1.6399168E1,0E0,0E0,1.3641376E0,3.529334E0,0E0,0E0,0E0,6.6121144E0,0E0,5.0936623E0,0E0,4.1380153E0,0E0,0E0],"parents":[2147483647,0,0,1,1,2,2,5,5,6,6,10,10,12,12,14,14],"right_children":[2,4,6,-1,-1,8,10,-1,-1,-1,12,-1,14,-1,16,-1,-1],"split_conditions":[5.356067E1,3.5491078E0,2.0175784E0,-2.7764624E-1,-6.587068E-3,9.785384E1,3.2134195E2,6.901672E-3,2.897822E-1,-2.4891253E-1,4.002469E0,2.839406E-1,4.9356888E2,3.91427E-1,5.9984713E0,-1.8615021E-1,-1.932861E-2],"split_indices":[1,2,0,0,0,1,1,0,0,0,0,0,1,0,2,0,0],"split_type":[0,0,0,0,0,0,0,0,0,0,0,0,0,0,0,0,0],"sum_hessian":[1.083751E2,2.6854033E1,8.1521065E1,2.5579386E1,1.2746462E0,1.446381E1,6.705726E1,1.7838163E0,1.2679994E1,9.124314E0,5.793294E1,3.8125656E0,5.4120377E1,1.0006517E0,5.3119724E1,2.4947153E1,2.8172573E1],"tree_param":{"num_deleted":"0","num_feature":"3","num_nodes":"17","size_leaf_vector":"0"}},{"base_weights":[-2.3114708E-1,-8.511424E-1,-4.7796525E-2,-9.024407E-1,-1.8239452E-2,9.07368E-1,-2.0467071E-1,-8.3994794E-1,-1.1832621E-1,7.5071603E-1,-2.1523339E-1,-1.0724641E-1,9.9712515E-1,-4.73873E-1,1.1895407E-2,-9.055371E-1,-1.5872324E-2,7.0530427E-1,-2.4931778E-1],"categories":[],"categories_nodes":[],"categories_segments":[],"categories_sizes":[],"default_left":[1,1,1,0,0,0,1,0,1,1,1,0,0,1,1,0,0,0,0],"id":23,"left_children":[1,3,5,-1,-1,-1,7,-1,9,11,13,-1,-1,15,17,-1,-1,-1,-1],"loss_changes":[1.0778452E1,9.0910625E-1,1.1350667E1,0E0,0E0,0E0,3.4559875E0,0E0,5.0650973E0,1.3889606E0,3.128555E0,0E0,0E0,4.9046187E0,5.479305E0,0E0,0E0,0E0,0E0],"parents":[2147483647,0,0,1,1,2,2,6,6,8,8,9,9,10,10,13,13,14,14],"right_children":[2,4,6,-1,-1,-1,8,-1,10,12,14,-1,-1,16,18,-1,-1,-1,-1],"split_conditions":[5.356067E1,3.5491078E0,1.1291491E0,-2.7073222E-1,-5.471836E-3,2.7221042E-1,2.8899976E2,-2.519844E-1,4.000146E0,2.9544217E2,8.975543E3,-3.2173924E-2,2.9913756E-1,5.9954076E0,9.52483E3,-2.7166116E-1,-4.7616973E-3,2.1159129E-1,-7.4795336E-2],"split_indices":[1,2,0,0,0,0,1,0,0,1,1,0,0,2,1,0,0,0,0],"split_type":[0,0,0,0,0,0,0,0,0,0,0,0,0,0,0,0,0,0,0],"sum_hessian":[9.417477E1,2.0662588E1,7.3512184E1,1.9385172E1,1.277417E0,9.695409E0,6.3816772E1,6.591576E0,5.7225197E1,5.0641613E0,5.2161037E1,1.2559341E0,3.808227E0,2.3880783E1,2.8280252E1,1.179082E1,1.2089963E1,7.2731233E0,2.100713E1],"tree_param":{"num_deleted":"0","num_feature":"3","num_nodes":"19","size_leaf_vector":"0"}},{"base_weights":[-1.968452E-1,-8.10288E-1,-3.6334436E-2,-8.7376463E-1,-1.515225E-2,8.814141E-1,-1.6600381E-1,-7.583004E-1,-9.201724E-2,4.9944857E-1,-2.2301556E-1,1.8964094E-1,1.6497821E0,-5.917737E-1,1.4161337E-2,6.729518E-1,-3.924052E-1,-1.0867401E0,-2.4092072E-1,5.525014E-1,-1.8535209E-1],"categories":[],"categories_nodes":[],"categories_segments":[],"categories_sizes":[],"default_left":[1,1,1,0,0,0,1,0,1,1,1,1,0,1,1,0,0,0,0,0,0],"id":24,"left_children":[1,3,5,-1,-1,-1,7,-1,9,11,13,15,-1,17,19,-1,-1,-1,-1,-1,-1],"loss_changes":[8.09783E0,8.483858E-1,8.056414E0,0E0,0E0,0E0,2.5193105E0,0E0,4.268966E0,3.2645981E0,3.910978E0,2.8066201E0,0E0,2.775344E0,3.1239522E0,0E0,0E0,0E0,0E0,0E0,0E0],"parents":[2147483647,0,0,1,1,2,2,6,6,8,8,9,9,10,10,11,11,13,13,14,14],"right_children":[2,4,6,-1,-1,-1,8,-1,10,12,14,16,-1,18,20,-1,-1,-1,-1,-1,-1],"split_conditions":[5.356067E1,3.5491078E0,1.1291491E0,-2.621294E-1,-4.545675E-3,2.6442423E-1,2.8899976E2,-2.2749014E-1,8.001184E0,6.655774E0,8.975543E3,4.000146E0,4.9493465E-1,5.9954076E0,9.52483E3,2.0188555E-1,-1.17721565E-1,-3.2602206E-1,-7.227622E-2,1.6575041E-1,-5.5605628E-2],"split_indices":[1,2,0,0,0,0,1,0,0,0,1,0,0,2,1,0,0,0,0,0,0],"split_type":[0,0,0,0,0,0,0,0,0,0,0,0,0,0,0,0,0,0,0,0,0],"sum_hessian":[8.154039E1,1.6071163E1,6.546923E1,1.4791456E1,1.2797062E0,7.3873177E0,5.8081913E1,5.4225698E0,5.2659344E1,9.038283E0,4.362106E1,8.038274E0,1.0000093E0,1.648908E1,2.7131979E1,4.306294E0,3.7319798E0,5.9697785E0,1.0519301E1,6.8580093E0,2.027397E1],"tree_param":{"num_deleted":"0","num_feature":"3","num_nodes":"21","size_leaf_vector":"0"}},{"base_weights":[-1.6087724E-1,-7.6223385E-1,-2.367934E-2,-8.3880293E-1,-1.2588192E-2,7.466046E-1,-1.5263425E-1,3.0545783E-1,1.0279274E0,-2.6525542E-1,2.3751065E-1,7.078386E-1,-3.706622E-1,-1.315145E-1,-6.4080155E-1,8.557929E-1,-4.6054456E-1,-6.7293936E-1,8.177976E-2,-7.5655156E-1,2.0024247E-1,1.0614119E0,-8.178376E-2,-8.400695E-1,-1.3141602E-1,1.438363E-1,-8.678409E-1,-9.606977E-2,5.8967805E-1,-1.0273888E0,-4.6817467E-1,3.2818907E-1,1.2202721E0,3.2478198E-1,-5.6079936E-1],"categories":[],"categories_nodes":[],"categories_segments":[],"categories_sizes":[],"default_left":[1,1,1,0,0,1,1,1,0,1,1,0,0,1,1,1,1,1,1,1,0,1,0,0,1,0,0,0,0,0,0,0,0,0,0],"id":25,"left_children":[1,3,5,-1,-1,7,9,11,-1,13,15,-1,-1,17,19,21,23,25,27,29,-1,31,-1,-1,33,-1,-1,-1,-1,-1,-1,-1,-1,-1,-1],"loss_changes":[6.065127E0,7.7378607E-1,6.1798077E0,0E0,0E0,7.9388666E-1,2.3978765E0,1.5951426E0,0E0,2.010573E0,5.7592964E0,0E0,0E0,3.7520912E0,1.1926222E0,1.4251194E0,7.0015395E-1,1.5823693E0,2.211729E0,2.6958084E-1,0E0,2.7102327E-1,0E0,0E0,1.0950856E0,0E0,0E0,0E0,0E0,0E0,0E0,0E0,0E0,0E0,0E0],"parents":[2147483647,0,0,1,1,2,2,5,5,6,6,7,7,9,9,10,10,13,13,14,14,15,15,16,16,17,17,18,18,19,19,21,21,24,24],"right_children":[2,4,6,-1,-1,8,10,12,-1,14,16,-1,-1,18,20,22,24,26,28,30,-1,32,-1,-1,34,-1,-1,-1,-1,-1,-1,-1,-1,-1,-1],"split_conditions":[5.356067E1,3.5491078E0,3.0030437E0,-2.516409E-1,-3.7764576E-3,1.389628E2,2.2699847E2,1.1291491E0,3.0837822E-1,1.810015E2,4.410033E2,2.1235159E-1,-1.1119867E-1,1.9937391E0,1.4045275E4,6.017642E0,3.716075E4,3.2267676E2,8.967262E3,9.302911E3,6.0072746E-2,1.2235373E4,-2.4535129E-2,-2.5202087E-1,1.3311733E3,4.3150894E-2,-2.6035228E-1,-2.8820932E-2,1.7690343E-1,-3.0821666E-1,-1.404524E-1,9.8456725E-2,3.6608163E-1,9.74346E-2,-1.6823982E-1],"split_indices":[1,2,0,0,0,1,0,0,0,0,0,0,0,2,1,2,1,1,1,1,0,1,0,0,0,0,0,0,0,0,0,0,0,0,0],"split_type":[0,0,0,0,0,0,0,0,0,0,0,0,0,0,0,0,0,0,0,0,0,0,0,0,0,0,0,0,0,0,0,0,0,0,0],"sum_hessian":[7.273112E1,1.2664631E1,6.0066486E1,1.1383032E1,1.2815995E0,7.9269466E0,5.213954E1,3.8988645E0,4.0280824E0,4.0708527E1,1.1431015E1,2.4148169E0,1.4840477E0,3.1013924E1,9.694601E0,5.942049E0,5.4889655E0,8.155944E0,2.2857979E1,8.610086E0,1.0845152E0,4.7649684E0,1.1770808E0,1.8283045E0,3.6606612E0,1.6217338E0,6.53421E0,1.7530289E1,5.327691E0,3.1185505E0,5.4915357E0,1.3945034E0,3.370465E0,1.8930256E0,1.7676355E0],"tree_param":{"num_deleted":"0","num_feature":"3","num_nodes":"35","size_leaf_vector":"0"}},{"base_weights":[-1.3395016E-1,-8.770335E-1,-3.154184E-2,8.103497E-1,-1.7338283E-1,-1.2944922E-1,1.0243996E0,-5.4895425E-1,8.5483074E-2,6.519522E-1,1.5406163E0,-9.0648204E-1,-1.8114263E-1,2.4343993E-1,-5.1522654E-1,7.9298997E-1,2.4016824E-2,3.5859135E-1,-8.9218855E-1,6.791639E-1,6.609492E-3,-2.7385205E-1,-8.400833E-1,9.891118E-1,-2.509879E-3,3.2219878E-1,8.937023E-1,-3.3565536E-1,6.930437E-1,-6.7405516E-1,4.7574693E-1],"categories":[],"categories_nodes":[],"categories_segments":[],"categories_sizes":[],"default_left":[1,0,1,1,1,0,1,1,1,1,0,0,1,1,1,0,0,1,0,1,1,1,0,0,0,0,0,0,0,0,0],"id":26,"left_children":[1,-1,3,5,7,-1,9,11,13,15,-1,-1,17,19,21,-1,-1,23,-1,25,27,29,-1,-1,-1,-1,-1,-1,-1,-1,-1],"loss_changes":[5.044734E0,0E0,7.2599964E0,1.897346E0,5.087655E0,0E0,3.909297E-1,2.6354527E0,3.1198056E0,5.078492E-1,0E0,0E0,4.8268604E0,2.6440866E0,3.1030083E-1,0E0,0E0,1.6849058E0,0E0,4.034543E-1,4.376563E0,1.9518201E0,0E0,0E0,0E0,0E0,0E0,0E0,0E0,0E0,0E0],"parents":[2147483647,0,0,2,2,3,3,4,4,6,6,7,7,8,8,9,9,12,12,13,13,14,14,17,17,19,19,20,20,21,21],"right_children":[2,-1,4,6,8,-1,10,12,14,16,-1,-1,18,20,22,-1,-1,24,-1,26,28,30,-1,-1,-1,-1,-1,-1,-1,-1,-1],"split_conditions":[-2.2712711E-6,-2.6311004E-1,3.9005165E-5,9.75E1,5.9984713E0,-3.8834766E-2,6.5E0,2.203932E3,6.000982E0,1.5E0,4.621849E-1,-2.719446E-1,9.530984E3,8.15E1,4.300651E1,2.37897E-1,7.205047E-3,4.037635E0,-2.6765656E-1,8.87E2,1.11775E4,2.7996399E1,-2.52025E-1,2.9673356E-1,-7.529637E-4,9.665964E-2,2.6811072E-1,-1.00696616E-1,2.0791312E-1,-2.0221655E-1,1.4272408E-1],"split_indices":[2,0,2,1,2,0,0,1,2,0,0,0,1,0,2,0,0,0,0,1,1,2,0,0,0,0,0,0,0,0,0],"split_type":[0,0,0,0,0,0,0,0,0,0,0,0,0,0,0,0,0,0,0,0,0,0,0,0,0,0,0,0,0,0,0],"sum_hessian":[6.565619E1,7.036279E0,5.861991E1,7.7726393E0,5.084727E1,1.5152189E0,6.2574205E0,2.028969E1,3.0557583E1,4.9493995E0,1.3080208E0,9.546033E0,1.0743658E1,2.4666311E1,5.8912716E0,3.8269851E0,1.1224146E0,6.3893647E0,4.3542933E0,8.028198E0,1.6638113E1,4.437283E0,1.4539883E0,1.6933844E0,4.69598E0,3.9528964E0,4.0753016E0,1.1443336E1,5.194777E0,2.9585326E0,1.4787506E0],"tree_param":{"num_deleted":"0","num_feature":"3","num_nodes":"31","size_leaf_vector":"0"}},{"base_weights":[-1.1133425E-1,-8.451519E-1,-2.0753454E-2,6.5965074E-1,-1.4710028E-1,-1.08593956E-1,8.3484864E-1,-8.53525E-1,-2.311181E-2,1.0592152E0,2.0507738E-1,3.4754494E-1,-1.3155748E-1,-9.411603E-2,4.143398E-1,-1.6591042E-1,1.0259833E0,-4.354946E-1,4.5085333E-2,6.444726E-1,-4.8868588E-1,-1.1390657E0,-1.8066575E-1,5.421081E-1,-1.7365512E-1],"categories":[],"categories_nodes":[],"categories_segments":[],"categories_sizes":[],"default_left":[1,0,1,1,1,0,1,0,1,0,1,1,1,0,0,1,0,1,1,0,0,0,0,0,0],"id":27,"left_children":[1,-1,3,5,7,-1,9,-1,11,-1,13,15,17,-1,-1,19,-1,21,23,-1,-1,-1,-1,-1,-1],"loss_changes":[3.877077E0,0E0,4.6687236E0,1.2361825E0,3.98033E0,0E0,7.7830887E-1,0E0,1.6486548E0,0E0,2.3251273E-1,3.410204E0,1.7149389E0,0E0,0E0,1.9249259E0,0E0,1.8919482E0,2.3638182E0,0E0,0E0,0E0,0E0,0E0,0E0],"parents":[2147483647,0,0,2,2,3,3,4,4,6,6,8,8,10,10,11,11,12,12,15,15,17,17,18,18],"right_children":[2,-1,4,6,8,-1,10,-1,12,-1,14,16,18,-1,-1,20,-1,22,24,-1,-1,-1,-1,-1,-1],"split_conditions":[-2.2712711E-6,-2.5354558E-1,3.9005165E-5,9.75E1,9.999266E-1,-3.257819E-2,3.23E2,-2.560575E-1,9.006266E0,3.1776458E-1,3.38485E4,4.4777777E2,8.975543E3,-2.8234811E-2,1.2430195E-1,1.0273304E0,3.0779502E-1,5.9954076E0,9.52483E3,1.9334179E-1,-1.4660577E-1,-3.4171975E-1,-5.4199725E-2,1.6263244E-1,-5.209654E-2],"split_indices":[2,0,2,1,2,0,1,0,0,0,1,1,1,0,0,0,0,2,1,0,0,0,0,0,0],"split_type":[0,0,0,0,0,0,0,0,0,0,0,0,0,0,0,0,0,0,0,0,0,0,0,0,0],"sum_hessian":[5.7592285E1,5.412655E0,5.217963E1,7.5109005E0,4.466873E1,1.4653755E0,6.045525E0,5.790938E0,3.8877792E1,3.9546945E0,2.0908308E0,8.301E0,3.0576794E1,1.0869749E0,1.0038558E0,5.1550274E0,3.1459723E0,1.0700237E1,1.9876556E1,1.1844938E0,3.9705334E0,1.9224668E0,8.77777E0,5.6225843E0,1.4253971E1],"tree_param":{"num_deleted":"0","num_feature":"3","num_nodes":"25","size_leaf_vector":"0"}},{"base_weights":[-8.950571E-2,-8.086138E-1,-1.2097197E-2,5.7166463E-1,-1.1785139E-1,-9.097851E-2,7.350758E-1,-4.9840513E-1,8.724309E-2,9.87969E-1,1.687098E-1,-7.6223403E-1,4.263321E-4,2.1925884E-1,-4.4001368E-1,2.8608698E-1,1.146734E0,-1.2158691E-1,3.9665255E-1,-2.85854E-1,-1.090845E0,7.4969554E-1,-7.329414E-1,5.9511596E-1,2.9741026E-2,1.1233225E-2,-5.7436514E-1,-7.698908E-1,9.1939026E-1,2.6951233E-1,8.289249E-1,-2.854224E-1,5.63828E-1,-7.29657E-1,-7.3483854E-4],"categories":[],"categories_nodes":[],"categories_segments":[],"categories_sizes":[],"default_left":[1,0,1,1,1,0,1,1,1,1,1,1,1,1,1,0,0,0,0,1,0,0,0,1,1,0,1,0,0,0,0,0,0,0,0],"id":28,"left_children":[1,-1,3,5,7,-1,9,11,13,15,17,19,21,23,25,-1,-1,-1,-1,27,-1,-1,-1,29,31,-1,33,-1,-1,-1,-1,-1,-1,-1,-1],"loss_changes":[2.979032E0,0E0,3.1226442E0,9.0730715E-1,3.3784187E0,0E0,7.4085116E-1,1.9892263E0,2.0883262E0,1.3710165E-1,2.574482E-1,1.2356381E0,3.97135E0,1.6600335E0,3.7401164E-1,0E0,0E0,0E0,0E0,3.852493E0,0E0,0E0,0E0,3.7364435E-1,2.9737358E0,0E0,4.1733837E-1,0E0,0E0,0E0,0E0,0E0,0E0,0E0,0E0],"parents":[2147483647,0,0,2,2,3,3,4,4,6,6,7,7,8,8,9,9,10,10,11,11,12,12,13,13,14,14,19,19,23,23,24,24,26,26],"right_children":[2,-1,4,6,8,-1,10,12,14,16,18,20,22,24,26,-1,-1,-1,-1,28,-1,-1,-1,30,32,-1,34,-1,-1,-1,-1,-1,-1,-1,-1],"split_conditions":[-2.2712711E-6,-2.4258414E-1,3.9005165E-5,9.75E1,5.9984713E0,-2.7293554E-2,3.23E2,1.6993101E1,6.000982E0,1.385E2,3.89655E4,4.000146E0,1.8017206E1,8.15E1,8.112881E0,8.58261E-2,3.4402022E-1,-3.6476076E-2,1.1899577E-1,4.5376505E2,-3.2725352E-1,2.2490866E-1,-2.1988243E-1,8.87E2,1.1044E4,3.3699677E-3,2.5472047E4,-2.3096724E-1,2.758171E-1,8.08537E-2,2.4867748E-1,-8.562673E-2,1.691484E-1,-2.188971E-1,-2.2045158E-4],"split_indices":[2,0,2,1,2,0,1,0,2,1,1,0,0,0,0,0,0,0,0,1,0,0,0,1,1,0,1,0,0,0,0,0,0,0,0],"split_type":[0,0,0,0,0,0,0,0,0,0,0,0,0,0,0,0,0,0,0,0,0,0,0,0,0,0,0,0,0,0,0,0,0,0,0],"sum_hessian":[5.2692795E1,4.202883E0,4.848991E1,6.7614107E0,4.17285E1,1.4252361E0,5.3361745E0,1.4112524E1,2.7615976E1,3.1743612E0,2.1618133E0,8.885172E0,5.227352E0,2.2553205E1,5.0627713E0,1.1024609E0,2.0719004E0,1.1560785E0,1.0057348E0,4.390396E0,4.4947753E0,2.5746315E0,2.652721E0,6.8426027E0,1.5710602E1,1.3717744E0,3.690997E0,3.3901129E0,1.0002832E0,3.7596278E0,3.082975E0,1.017308E1,5.537522E0,2.690604E0,1.0003929E0],"tree_param":{"num_deleted":"0","num_feature":"3","num_nodes":"35","size_leaf_vector":"0"}},{"base_weights":[-7.293523E-2,-7.679966E-1,-3.5735269E-3,4.9639758E-1,-1.00963704E-1,-7.614289E-2,6.426936E-1,-4.7266352E-1,7.427065E-2,9.0141374E-1,1.4007938E-1,-7.244638E-1,2.8866093E-4,1.6089527E-1,-5.96605E-1,2.4771334E-1,1.064787E0,-1.3962515E-1,3.7623268E-1,-2.4197568E-1,-1.04685E0,6.917629E-1,-6.8628204E-1,-1.2009582E-2,8.044011E-1,-6.975172E-1,-1.8505417E-1,-7.1008074E-1,6.977E-1,2.7102062E-1,-3.5316616E-1,1.0101024E0,1.0765675E-2],"categories":[],"categories_nodes":[],"categories_segments":[],"categories_sizes":[],"default_left":[1,0,1,1,1,0,1,1,1,1,1,1,1,1,1,0,0,0,0,1,0,0,0,1,1,0,0,0,0,0,0,0,0],"id":29,"left_children":[1,-1,3,5,7,-1,9,11,13,15,17,19,21,23,25,-1,-1,-1,-1,27,-1,-1,-1,29,31,-1,-1,-1,-1,-1,-1,-1,-1],"loss_changes":[2.2838876E0,0E0,2.1989582E0,6.657373E-1,2.4950526E0,0E0,6.5019345E-1,1.4574077E0,1.6378224E0,1.3758111E-1,2.6476857E-1,9.8879004E-1,2.9675417E0,2.7116957E0,5.7452917E-3,0E0,0E0,0E0,0E0,2.4744334E0,0E0,0E0,0E0,2.0391061E0,8.311565E-1,0E0,0E0,0E0,0E0,0E0,0E0,0E0,0E0],"parents":[2147483647,0,0,2,2,3,3,4,4,6,6,7,7,8,8,9,9,10,10,11,11,12,12,13,13,14,14,19,19,23,23,24,24],"right_children":[2,-1,4,6,8,-1,10,12,14,16,18,20,22,24,26,-1,-1,-1,-1,28,-1,-1,-1,30,32,-1,-1,-1,-1,-1,-1,-1,-1],"split_conditions":[-2.2712711E-6,-2.30399E-1,3.9005165E-5,9.75E1,5.9984713E0,-2.284287E-2,3.23E2,1.6993101E1,5.815254E2,1.385E2,4.0787E4,4.000146E0,1.8017206E1,1.2250337E4,1.3047544E3,7.4314006E-2,3.1943613E-1,-4.1887544E-2,1.1286981E-1,2.8932288E2,-3.14055E-1,2.0752889E-1,-2.0588462E-1,8.568318E3,3.6012698E2,-2.0925517E-1,-5.5516254E-2,-2.1302423E-1,2.0931001E-1,8.130619E-2,-1.0594986E-1,3.0303073E-1,3.2297028E-3],"split_indices":[2,0,2,1,2,0,1,0,0,1,1,0,0,1,0,0,0,0,0,1,0,0,0,1,0,0,0,0,0,0,0,0,0],"split_type":[0,0,0,0,0,0,0,0,0,0,0,0,0,0,0,0,0,0,0,0,0,0,0,0,0,0,0,0,0,0,0,0,0],"sum_hessian":[4.6430027E1,3.2989986E0,4.3131027E1,6.363872E0,3.6767155E1,1.3927537E0,4.9711185E0,1.1236159E1,2.5530996E1,2.7579935E0,2.213125E0,6.9853563E0,4.250803E0,2.3284616E1,2.246379E0,1.0545791E0,1.7034142E0,1.2002627E0,1.0128622E0,3.4991102E0,3.486246E0,2.1140707E0,2.136732E0,1.912675E1,4.157867E0,1.2460071E0,1.0003717E0,2.4987013E0,1.0004089E0,1.0566312E1,8.560438E0,3.0854099E0,1.0724571E0],"tree_param":{"num_deleted":"0","num_feature":"3","num_nodes":"33","size_leaf_vector":"0"}},{"base_weights":[-6.2369093E-2,-7.2428805E-1,-2.2919422E-3,4.2295927E-1,-8.982961E-2,9.785745E-2,8.1834817E-1,-4.430459E-1,5.516319E-2,3.801205E-1,-5.0970685E-1,-6.736367E-1,-2.690958E-4,1.7628813E-1,-4.099385E-1,-6.367645E-2,6.314641E-1,-2.0473814E-1,-9.8804665E-1,6.353444E-1,-6.3943696E-1,6.081311E-1,5.9298314E-2,-1.5621158E-1,-7.418148E-1,-6.560324E-1,5.656745E-1,-1.3322167E-1,4.2865592E-1,-5.816643E-1,4.590083E-1],"categories":[],"categories_nodes":[],"categories_segments":[],"categories_sizes":[],"default_left":[1,0,1,1,1,1,0,1,1,1,0,1,1,1,1,0,0,1,0,0,0,0,1,1,0,0,0,0,0,0,0],"id":30,"left_children":[1,-1,3,5,7,9,-1,11,13,15,-1,17,19,21,23,-1,-1,25,-1,-1,-1,-1,27,29,-1,-1,-1,-1,-1,-1,-1],"loss_changes":[1.73033E0,0E0,1.5617584E0,8.406459E-1,1.8051689E0,1.062643E0,0E0,1.0442946E0,1.5111063E0,4.8999012E-1,0E0,7.8934836E-1,2.2359002E0,1.023001E0,3.5380858E-1,0E0,0E0,1.7483559E0,0E0,0E0,0E0,0E0,1.308785E0,1.4259698E0,0E0,0E0,0E0,0E0,0E0,0E0,0E0],"parents":[2147483647,0,0,2,2,3,3,4,4,5,5,7,7,8,8,9,9,11,11,12,12,13,13,14,14,17,17,22,22,23,23],"right_children":[2,-1,4,6,8,10,-1,12,14,16,-1,18,20,22,24,-1,-1,26,-1,-1,-1,-1,28,30,-1,-1,-1,-1,-1,-1,-1],"split_conditions":[-2.2712711E-6,-2.1728642E-1,3.9005165E-5,6.5E0,5.9984713E0,2.5E0,2.4550445E-1,1.6993101E1,6.000982E0,9.75E1,-1.5291207E-1,4.000146E0,1.8017206E1,1.15E1,4.300651E1,-1.9102935E-2,1.8943925E-1,2.8912622E2,-2.9641402E-1,1.9060333E-1,-1.918311E-1,1.8243934E-1,1.1044E4,2.7996399E1,-2.2254445E-1,-1.9680972E-1,1.6970235E-1,-3.99665E-2,1.2859678E-1,-1.744993E-1,1.377025E-1],"split_indices":[2,0,2,0,2,0,0,0,2,1,0,0,0,0,2,0,0,1,0,0,0,0,1,2,0,0,0,0,0,0,0],"split_type":[0,0,0,0,0,0,0,0,0,0,0,0,0,0,0,0,0,0,0,0,0,0,0,0,0,0,0,0,0,0,0],"sum_hessian":[4.2554317E1,2.6209717E0,3.9933346E1,6.162869E0,3.3770477E1,4.0666404E0,2.0962286E0,9.229906E0,2.4540573E1,3.0322614E0,1.0343786E0,5.726335E0,3.5035708E0,1.9962715E1,4.577857E0,1.3663522E0,1.6659093E0,2.9612405E0,2.7650945E0,1.7596691E0,1.7439018E0,3.3603916E0,1.6602324E1,3.4278672E0,1.14999E0,1.9609919E0,1.0002487E0,1.1334018E1,5.268306E0,2.0587142E0,1.369153E0],"tree_param":{"num_deleted":"0","num_feature":"3","num_nodes":"31","size_leaf_vector":"0"}},{"base_weights":[-5.87306E-2,-6.787618E-1,-6.8147187E-3,6.2520705E-2,-4.6309298E-1,-5.2578E-2,6.832428E-1,-8.502496E-1,-1.1146723E-1,4.509092E-2,-4.7068712E-1,3.286493E-1,1.113339E0,3.0198056E-1,-5.34119E-1,-5.148162E-2,1.0455575E0,-1.3083449E-1,-5.9878814E-1,5.967138E-1,7.142748E-2,6.319251E-2,-6.597636E-1,-7.421891E-1,-1.0413706E-1,-1.567513E-1,2.5365317E-1],"categories":[],"categories_nodes":[],"categories_segments":[],"categories_sizes":[],"default_left":[1,0,1,1,1,1,1,0,1,1,1,1,0,0,0,1,0,0,1,0,1,0,0,0,0,0,0],"id":31,"left_children":[1,-1,3,5,7,9,11,-1,13,15,17,19,-1,-1,-1,21,-1,-1,23,-1,25,-1,-1,-1,-1,-1,-1],"loss_changes":[1.2951524E0,0E0,1.2396522E0,2.4723306E0,6.086559E-1,1.2339134E0,4.5853543E-1,0E0,8.355847E-1,2.4678748E0,1.7028022E-1,2.5951198E-1,0E0,0E0,0E0,1.6975995E0,0E0,0E0,1.970737E-1,0E0,1.7997245E-1,0E0,0E0,0E0,0E0,0E0,0E0],"parents":[2147483647,0,0,2,2,3,3,4,4,5,5,6,6,8,8,9,9,10,10,11,11,15,15,18,18,20,20],"right_children":[2,-1,4,6,8,10,12,-1,14,16,18,20,-1,-1,-1,22,-1,-1,24,-1,26,-1,-1,-1,-1,-1,-1],"split_conditions":[-2.2712711E-6,-2.0362854E-1,4.410033E2,2.2699847E2,3.716075E4,9.52483E3,2.3067176E4,-2.550749E-1,1.3311733E3,9.497709E3,1.9401242E2,2.4002295E2,3.340017E-1,9.059417E-2,-1.602357E-1,1.810015E2,3.1366727E-1,-3.9250348E-2,2.1599286E2,1.7901415E-1,1.4782061E4,1.8957753E-2,-1.9792908E-1,-2.2265674E-1,-3.124112E-2,-4.7025394E-2,7.609595E-2],"split_indices":[2,0,0,0,1,1,1,0,0,1,0,0,0,0,0,0,0,0,0,0,1,0,0,0,0,0,0],"split_type":[0,0,0,0,0,0,0,0,0,0,0,0,0,0,0,0,0,0,0,0,0,0,0,0,0,0,0],"sum_hessian":[3.9378986E1,2.1096137E0,3.726937E1,3.3102184E1,4.1671863E0,2.8696392E1,4.405793E0,1.3084588E0,2.8587277E0,2.3985592E1,4.7108E0,3.3817956E0,1.0239977E0,1.5894251E0,1.2693026E0,2.2739178E1,1.2464138E0,1.8429043E0,2.8678958E0,1.0096966E0,2.3720992E0,1.98863E1,2.8528786E0,1.8353828E0,1.0325131E0,1.1153187E0,1.2567804E0],"tree_param":{"num_deleted":"0","num_feature":"3","num_nodes":"27","size_leaf_vector":"0"}},{"base_weights":[-4.86936E-2,-4.616418E-1,1.4815461E-2,-1.3709137E-1,-7.495475E-1,6.3091403E-1,-5.759735E-2,-5.1738876E-1,2.157582E-1,-5.5551463E-1,8.894802E-3,-9.692342E-2,-6.987989E-1,1.3193595E0,-8.406556E-2,-3.3688328E-1,3.0214634E-2,-7.204005E-1,-3.0520689E-3,1.3665031E-1,-4.7323763E-1],"categories":[],"categories_nodes":[],"categories_segments":[],"categories_sizes":[],"default_left":[1,1,1,1,0,0,1,0,0,1,1,0,0,0,1,1,1,0,0,0,0],"id":32,"left_children":[1,3,5,7,-1,-1,9,-1,-1,11,13,-1,-1,-1,15,17,19,-1,-1,-1,-1],"loss_changes":[1.034242E0,3.8807452E-1,1.5943352E0,6.0720575E-1,0E0,0E0,1.0698673E0,0E0,0E0,1.823014E-1,3.6876428E0,0E0,0E0,0E0,8.294359E-1,1.138506E0,1.1602793E0,0E0,0E0,0E0,0E0],"parents":[2147483647,0,0,1,1,2,2,3,3,6,6,9,9,10,10,14,14,15,15,16,16],"right_children":[2,4,6,8,-1,-1,10,-1,-1,12,14,-1,-1,-1,16,18,20,-1,-1,-1,-1],"split_conditions":[5.356067E1,1.0000038E0,3.0030437E0,9.9999714E-1,-2.2486426E-1,1.8927422E-1,3.2134195E2,-1.5521663E-1,6.472746E-2,2.7800302E2,5.460001E2,-2.9077027E-2,-2.0963968E-1,3.958079E-1,5.9984713E0,1.6993101E1,6.000982E0,-2.1612017E-1,-9.156207E-4,4.0995095E-2,-1.4197129E-1],"split_indices":[1,0,0,0,0,0,1,0,0,1,1,0,0,0,2,0,2,0,0,0,0],"split_type":[0,0,0,0,0,0,0,0,0,0,0,0,0,0,0,0,0,0,0,0,0],"sum_hessian":[3.8175037E1,4.2529063E0,3.392213E1,2.6931448E0,1.5597616E0,2.7565205E0,3.1165611E1,1.0717303E0,1.6214145E0,2.8051374E0,2.8360474E1,1.0668977E0,1.7382398E0,1.0046854E0,2.735579E1,7.9096656E0,1.9446123E1,3.142021E0,4.767645E0,1.6653873E1,2.7922497E0],"tree_param":{"num_deleted":"0","num_feature":"3","num_nodes":"21","size_leaf_vector":"0"}},{"base_weights":[-4.6293214E-2,-3.2942024E-1,3.904679E-2,1.7307854E-1,-7.52672E-1,8.9539254E-1,-1.0439807E-1,-1.2785369E-1,5.664105E-1,3.5612103E-2,1.1636362E0,-4.8655117E-1,-5.051246E-3,-2.2722311E-1,6.4638905E-2,1.4666202E0,2.723825E-1,-8.687052E-1,-1.5255469E-2,1.2350183E-1,-3.7527117E-1,-4.2190403E-1,4.8998907E-1,-7.9951026E-2,7.2572076E-1,-4.916173E-1,-3.840736E-2,5.2003783E-1,-2.0520625E-1,2.360572E-1,1.1534674E0,-4.9790543E-2,-6.421832E-1],"categories":[],"categories_nodes":[],"categories_segments":[],"categories_sizes":[],"default_left":[1,1,1,1,0,1,1,1,0,0,1,1,1,0,0,0,0,0,1,1,1,0,0,1,1,1,0,0,0,0,0,0,0],"id":33,"left_children":[1,3,5,7,-1,9,11,13,-1,-1,15,17,19,-1,-1,-1,-1,-1,21,23,25,-1,-1,27,29,31,-1,-1,-1,-1,-1,-1,-1],"loss_changes":[9.3269753E-1,2.0280788E0,3.7965918E0,6.515473E-1,0E0,9.801724E-1,1.011856E0,8.331394E-2,0E0,0E0,5.037093E-1,9.776782E-1,1.1036087E0,0E0,0E0,0E0,0E0,0E0,9.2202365E-1,2.170505E0,2.1522456E-1,0E0,0E0,1.1429329E0,6.604383E-1,2.5774014E-1,0E0,0E0,0E0,0E0,0E0,0E0,0E0],"parents":[2147483647,0,0,1,1,2,2,3,3,5,5,6,6,7,7,10,10,11,11,12,12,18,18,19,19,20,20,23,23,24,24,25,25],"right_children":[2,4,6,8,-1,10,12,14,-1,-1,16,18,20,-1,-1,-1,-1,-1,22,24,26,-1,-1,28,30,32,-1,-1,-1,-1,-1,-1,-1],"split_conditions":[2.8899976E2,1.0000038E0,8.001184E0,5.356067E1,-2.2580162E-1,3.2134195E2,1.6993101E1,5.5500478E-2,1.6992316E-1,1.06836315E-2,2.209725E3,5.8951426E0,3.3618243E2,-6.8166934E-2,1.9391673E-2,4.3998608E-1,8.171475E-2,-2.6061156E-1,8.906641E2,2.2699847E2,1.2385E3,-1.2657121E-1,1.4699672E-1,2.0022978E1,1.5467176E4,2.5981035E4,-1.1522208E-2,1.5601136E-1,-6.1561875E-2,7.0817165E-2,3.4604025E-1,-1.4937163E-2,-1.9265497E-1],"split_indices":[1,0,0,1,0,1,0,2,0,0,1,2,0,0,0,0,0,0,1,0,0,0,0,0,1,1,0,0,0,0,0,0,0],"split_type":[0,0,0,0,0,0,0,0,0,0,0,0,0,0,0,0,0,0,0,0,0,0,0,0,0,0,0,0,0,0,0,0,0],"sum_hessian":[3.706938E1,7.923154E0,2.9146227E1,3.8926923E0,4.0304613E0,3.4296472E0,2.571658E1,2.5877736E0,1.3049189E0,1.0849385E0,2.3447087E0,4.501883E0,2.1214697E1,1.5877254E0,1.0000482E0,1.2680588E0,1.0766499E0,2.0203984E0,2.4814847E0,1.62415E1,4.973197E0,1.466287E0,1.0151975E0,1.2788342E1,3.4531577E0,3.3550384E0,1.6181588E0,1.6643006E0,1.1124042E1,2.3336132E0,1.1195446E0,1.1909512E0,2.164087E0],"tree_param":{"num_deleted":"0","num_feature":"3","num_nodes":"33","size_leaf_vector":"0"}},{"base_weights":[-2.4813825E-2,-5.863702E-1,1.4515564E-2,6.3524276E-2,-3.7881115E-1,-8.380632E-3,6.8363035E-1,-6.119158E-1,3.1300772E-3,1.9458984E-1,-1.1920107E-1,-4.26528E-3,1.0991399E0,-1.7519279E-1,9.6605694E-1,-2.953434E-2,-6.4756256E-1,2.5986856E-1,-5.08286E-1,3.4955436E-1,1.303536E0,-4.0302888E-1,8.628142E-2],"categories":[],"categories_nodes":[],"categories_segments":[],"categories_sizes":[],"default_left":[1,0,1,1,1,1,1,0,0,1,1,0,0,1,1,1,0,0,0,0,0,0,0],"id":34,"left_children":[1,-1,3,5,7,9,11,-1,-1,13,15,-1,-1,17,19,21,-1,-1,-1,-1,-1,-1,-1],"loss_changes":[8.155819E-1,0E0,7.011822E-1,1.4366359E0,3.6120456E-1,6.9224966E-1,9.6124387E-1,0E0,0E0,3.274376E0,9.217687E-1,0E0,0E0,1.3210315E0,3.1005788E-1,8.145319E-1,0E0,0E0,0E0,0E0,0E0,0E0,0E0],"parents":[2147483647,0,0,2,2,3,3,4,4,5,5,6,6,9,9,10,10,13,13,14,14,15,15],"right_children":[2,-1,4,6,8,10,12,-1,-1,14,16,-1,-1,18,20,22,-1,-1,-1,-1,-1,-1,-1],"split_conditions":[-2.2712711E-6,-1.7591107E-1,5.815254E2,2.3617E4,6.126295E4,8.001184E0,5.6952653E0,-1.8357475E-1,9.3902316E-4,3.0274078E2,6.000982E0,-1.279584E-3,3.2974198E-1,1.0000038E0,5.586487E0,5.9984713E0,-1.9426878E-1,7.796057E-2,-1.524858E-1,1.0486631E-1,3.9106083E-1,-1.2090867E-1,2.5884427E-2],"split_indices":[2,0,0,1,1,0,2,0,0,1,2,0,0,0,0,2,0,0,0,0,0,0,0],"split_type":[0,0,0,0,0,0,0,0,0,0,0,0,0,0,0,0,0,0,0,0,0,0,0],"sum_hessian":[3.5542717E1,1.4159638E0,3.4126755E1,3.109126E1,3.0354922E0,2.8744638E1,2.346623E0,1.5111148E0,1.5243773E0,9.884685E0,1.8859955E1,1.256373E0,1.0902499E0,7.204368E0,2.6803162E0,1.7026358E1,1.8335968E0,3.2193398E0,3.985028E0,1.6683592E0,1.011957E0,3.4430244E0,1.3583333E1],"tree_param":{"num_deleted":"0","num_feature":"3","num_nodes":"23","size_leaf_vector":"0"}},{"base_weights":[-1.7710464E-2,1.6859787E-2,-5.638764E-1,-4.876428E-2,7.1055204E-1,-3.6111036E-3,-5.804763E-1,-6.973065E-2,3.299833E-1,1.3563242E-2,-5.7934946E-1,5.492179E-1,3.8614266E-2,-7.150927E-2,9.5279145E-1,-7.137005E-1,-1.0994997E-1,-1.8393432E-1,2.2710173E-1],"categories":[],"categories_nodes":[],"categories_segments":[],"categories_sizes":[],"default_left":[1,1,0,1,0,1,0,1,1,1,1,0,1,0,0,0,0,0,0],"id":35,"left_children":[1,3,-1,5,-1,7,-1,9,11,13,15,-1,17,-1,-1,-1,-1,-1,-1],"loss_changes":[6.854884E-1,1.6116437E0,0E0,7.801874E-1,0E0,7.076506E-1,0E0,1.1425195E0,3.1791574E-1,1.9819978E0,1.5978885E-1,0E0,1.8250929E-1,0E0,0E0,0E0,0E0,0E0,0E0],"parents":[2147483647,0,0,1,1,3,3,5,5,7,7,8,8,9,9,10,10,12,12],"right_children":[2,4,-1,6,-1,8,-1,10,12,14,16,-1,18,-1,-1,-1,-1,-1,-1],"split_conditions":[1.7559967E5,4.0845215E4,-1.6916293E-1,4.410033E2,2.1316563E-1,2.1797592E2,-1.741429E-1,9.52483E3,2.3600983E2,9.497709E3,1.389277E4,1.6476537E-1,1.4782061E4,-2.1452783E-2,2.8583744E-1,-2.1411015E-1,-3.298499E-2,-5.5180296E-2,6.813052E-2],"split_indices":[1,1,0,0,0,0,0,1,0,1,1,0,1,0,0,0,0,0,0],"split_type":[0,0,0,0,0,0,0,0,0,0,0,0,0,0,0,0,0,0,0],"sum_hessian":[3.4802036E1,3.364177E1,1.1602671E0,3.1583626E1,2.0581436E0,3.0039455E1,1.5441701E0,2.5730547E1,4.30891E0,2.2952496E1,2.7780511E0,1.953833E0,2.355077E0,2.1893326E1,1.0591689E0,1.7552197E0,1.0228313E0,1.0910373E0,1.2640398E0],"tree_param":{"num_deleted":"0","num_feature":"3","num_nodes":"19","size_leaf_vector":"0"}},{"base_weights":[-1.2079895E-2,-1.8510686E-1,1.00875266E-1,4.5967124E-2,-3.9191833E-1,1.693409E-1,-4.1354102E-1,-5.401879E-1,2.350319E-1,-7.424843E-1,-2.3861386E-2,7.24556E-2,1.0145166E0,5.346044E-1,-1.5484826E-1,3.3521724E-1,-5.7166547E-1,4.531765E-1,-5.665546E-2,-9.042578E-2,9.0338665E-1,-2.9371345E-1,6.2057354E-2,7.615866E-2,4.7259843E-1,2.2521723E-2,8.442199E-1,3.1951606E-2,-5.667394E-1,1.9843452E-1,-1.9534233E-1,-1.6620265E-1,2.655283E-1],"categories":[],"categories_nodes":[],"categories_segments":[],"categories_sizes":[],"default_left":[1,1,1,1,1,1,0,0,1,0,1,1,0,1,1,1,0,1,1,0,0,0,0,0,0,1,0,1,0,0,0,0,0],"id":36,"left_children":[1,3,5,7,9,11,-1,-1,13,-1,15,17,-1,19,21,23,-1,25,27,-1,-1,-1,-1,-1,-1,29,-1,31,-1,-1,-1,-1,-1],"loss_changes":[7.1098924E-1,7.034894E-1,8.4765244E-1,9.769117E-1,9.7248185E-1,1.580176E0,0E0,0E0,8.414848E-1,0E0,1.1312805E0,9.69217E-1,0E0,9.8017156E-1,1.2659861E-1,8.913723E-2,0E0,8.183198E-1,7.061421E-1,0E0,0E0,0E0,0E0,0E0,0E0,1.6882405E-1,0E0,6.8825E-1,0E0,0E0,0E0,0E0,0E0],"parents":[2147483647,0,0,1,1,2,2,3,3,4,4,5,5,8,8,10,10,11,11,13,13,14,14,15,15,17,17,18,18,25,25,27,27],"right_children":[2,4,6,8,10,12,-1,-1,14,-1,16,18,-1,20,22,24,-1,26,28,-1,-1,-1,-1,-1,-1,30,-1,32,-1,-1,-1,-1,-1],"split_conditions":[5.9984713E0,3.9005165E-5,5.815254E2,-2.2712711E-6,2.203932E3,2.1211348E4,-1.2406231E-1,-1.6205637E-1,3.23E2,-2.2274528E-1,9.530984E3,1.1000247E1,3.04355E-1,9.75E1,4.0787E4,8.970832E3,-1.7149964E-1,2.8598297E2,6.000982E0,-2.7127735E-2,2.71016E-1,-8.811404E-2,1.8617207E-2,2.2847598E-2,1.4177954E-1,1.3802933E2,2.5326598E-1,9.2725E3,-1.7002182E-1,5.953036E-2,-5.8602702E-2,-4.9860798E-2,7.965849E-2],"split_indices":[2,2,0,2,1,1,0,0,1,0,1,0,0,1,1,1,0,1,2,0,0,0,0,0,0,1,0,1,0,0,0,0,0],"split_type":[0,0,0,0,0,0,0,0,0,0,0,0,0,0,0,0,0,0,0,0,0,0,0,0,0,0,0,0,0,0,0,0,0],"sum_hessian":[3.442296E1,1.3343839E1,2.107912E1,6.66956E0,6.6742787E0,1.9195171E1,1.8839492E0,1.1736745E0,5.4958854E0,2.8973296E0,3.7769492E0,1.8195131E1,1.0000399E0,2.8979692E0,2.597916E0,2.5158875E0,1.2610614E0,3.9721467E0,1.4222984E1,1.3554633E0,1.5425061E0,1.3680009E0,1.2299151E0,1.4104929E0,1.1053947E0,2.393637E0,1.5785098E0,1.2916594E1,1.3063912E0,1.3736638E0,1.0199732E0,7.144239E0,5.772354E0],"tree_param":{"num_deleted":"0","num_feature":"3","num_nodes":"33","size_leaf_vector":"0"}},{"base_weights":[-8.596993E-3,4.4981662E-2,-2.943702E-1,-4.4301517E-2,6.0394454E-1,-3.9713508E-1,-3.289872E-2,3.1871587E-2,-3.942357E-1,1.569203E-1,9.544846E-1,-1.184516E-1,-4.5689675E-1,-5.0887667E-2,7.029937E-1,-4.645333E-2,-5.193631E-1,5.33365E-2,-7.506686E-1,-1.0641093E-1,-6.6644514E-1,-2.8412117E-2,7.0730186E-1],"categories":[],"categories_nodes":[],"categories_segments":[],"categories_sizes":[],"default_left":[1,1,1,1,1,1,0,1,1,0,0,0,0,1,0,0,1,1,0,0,0,0,0],"id":37,"left_children":[1,3,5,7,9,11,-1,13,15,-1,-1,-1,-1,17,-1,-1,19,21,-1,-1,-1,-1,-1],"loss_changes":[5.282775E-1,1.4837177E0,1.3320008E-1,7.084054E-1,4.910084E-1,9.455562E-3,0E0,1.2778741E0,1.8220747E-1,0E0,0E0,0E0,0E0,1.5600523E0,0E0,0E0,1.3490355E-1,1.0397507E0,0E0,0E0,0E0,0E0,0E0],"parents":[2147483647,0,0,1,1,2,2,3,3,4,4,5,5,7,7,8,8,13,13,16,16,17,17],"right_children":[2,4,6,8,10,12,-1,14,16,-1,-1,-1,-1,18,-1,-1,20,22,-1,-1,-1,-1,-1],"split_conditions":[3.3618243E2,2.2699847E2,1.2385E3,9.52483E3,1.4782061E4,2.5981035E4,-9.8696165E-3,9.302911E3,1.9401242E2,4.707609E-2,2.863454E-1,-3.553548E-2,-1.3706903E-1,1.810015E2,2.1089812E-1,-1.3936E-2,1.022821E4,1.769642E2,-2.2520058E-1,-3.192328E-2,-1.9993354E-1,-8.523636E-3,2.1219057E-1],"split_indices":[0,0,0,1,1,1,0,1,0,0,0,0,0,0,0,0,1,0,0,0,0,0,0],"split_type":[0,0,0,0,0,0,0,0,0,0,0,0,0,0,0,0,0,0,0,0,0,0,0],"sum_hessian":[3.263756E1,2.8194134E1,4.4434266E0,2.5104874E1,3.0892596E0,2.8173072E0,1.6261194E0,2.1363438E1,3.741437E0,1.9940329E0,1.0952268E0,1.0240369E0,1.7932705E0,1.9840933E1,1.5225044E0,1.3527676E0,2.3886693E0,1.8072958E1,1.7679743E0,1.0799756E0,1.3086938E0,1.6915054E1,1.157904E0],"tree_param":{"num_deleted":"0","num_feature":"3","num_nodes":"23","size_leaf_vector":"0"}},{"base_weights":[-5.214507E-3,-1.7141828E-1,9.6367724E-2,2.7786463E-2,-3.627358E-1,3.0312365E-2,5.302578E-1,-2.3883736E-1,3.6935416E-1,-6.9399583E-1,-2.8535258E-2,3.9942193E-1,-8.299269E-2,1.0157172E-1,-5.330659E-1,6.7272335E-1,-5.4451577E-2,2.7930376E-1,-5.1907545E-1,2.25369E-2,7.7154195E-1,1.8826331E-3,-5.714465E-1,3.8110796E-1,6.90955E-2,1.7135543E-1,-1.5921621E-1,7.005101E-2,-4.485918E-1,-5.5511147E-2,6.8214005E-1],"categories":[],"categories_nodes":[],"categories_segments":[],"categories_sizes":[],"default_left":[1,1,1,1,1,1,0,1,1,0,1,1,1,0,0,0,0,1,0,1,0,1,0,0,0,0,0,1,0,0,0],"id":38,"left_children":[1,3,5,7,9,11,-1,13,15,-1,17,19,21,-1,-1,-1,-1,23,-1,25,-1,27,-1,-1,-1,-1,-1,29,-1,-1,-1],"loss_changes":[5.76177E-1,5.0302887E-1,5.919374E-1,7.4988174E-1,7.1850306E-1,8.4749705E-1,0E0,5.236524E-1,4.9662602E-1,0E0,8.037714E-1,6.481351E-1,6.530551E-1,0E0,0E0,0E0,0E0,4.494348E-2,0E0,1.1891348E-1,0E0,4.734668E-1,0E0,0E0,0E0,0E0,0E0,1.0652586E0,0E0,0E0,0E0],"parents":[2147483647,0,0,1,1,2,2,3,3,4,4,5,5,7,7,8,8,10,10,11,11,12,12,17,17,19,19,21,21,27,27],"right_children":[2,4,6,8,10,12,-1,14,16,-1,18,20,22,-1,-1,-1,-1,24,-1,26,-1,28,-1,-1,-1,-1,-1,30,-1,-1,-1],"split_conditions":[5.9984713E0,3.9005165E-5,3.589247E4,6.9987545E0,2.203932E3,1.1000247E1,1.5907735E-1,1.0000103E0,3.2584893E4,-2.0819876E-1,9.530984E3,2.8598297E2,6.000982E0,3.0471517E-2,-1.5991978E-1,2.0181702E-1,-1.6335474E-2,5.114055E3,-1.5572265E-1,1.3802933E2,2.314626E-1,2.0235E4,-1.7143396E-1,1.1433239E-1,2.0728651E-2,5.140663E-2,-4.7764864E-2,1.11775E4,-1.3457754E-1,-1.6653344E-2,2.0464203E-1],"split_indices":[2,2,1,0,1,0,0,0,1,0,1,1,2,0,0,0,0,1,0,1,0,1,0,0,0,0,0,1,0,0,0],"split_type":[0,0,0,0,0,0,0,0,0,0,0,0,0,0,0,0,0,0,0,0,0,0,0,0,0,0,0,0,0,0,0],"sum_hessian":[3.2148502E1,1.1934458E1,2.0214046E1,6.265461E0,5.668997E0,1.847177E1,1.7422775E0,3.6876695E0,2.5777912E0,2.3063524E0,3.3626444E0,3.7453837E0,1.4726385E1,2.0132346E0,1.6744348E0,1.160058E0,1.4177333E0,2.3306577E0,1.0319867E0,2.3876865E0,1.3576974E0,1.3394976E1,1.331409E0,1.0224714E0,1.3081863E0,1.3442385E0,1.043448E0,1.2367891E1,1.0270851E0,1.101717E1,1.3507212E0],"tree_param":{"num_deleted":"0","num_feature":"3","num_nodes":"31","size_leaf_vector":"0"}},{"base_weights":[-2.7793034E-3,3.1151587E-2,-4.8411798E-1,-2.9192753E-2,6.285818E-1,1.5690285E-1,-1.2455865E-1,-1.7714034E-1,8.3897686E-1,-5.621027E-2,-5.877588E-1,1.5012231E-1,-4.2476866E-1,1.177588E0,2.4183658E-1,-3.8094044E-1,4.7376506E-2,-2.4168672E-2,3.412085E-1,-6.187953E-1,-1.1684613E-1,-7.533893E-1,2.7044814E-2,1.0389061E-1,-3.4965408E-1],"categories":[],"categories_nodes":[],"categories_segments":[],"categories_sizes":[],"default_left":[1,1,0,1,0,1,1,1,1,1,0,1,1,0,0,1,1,0,0,0,0,0,0,0,0],"id":39,"left_children":[1,3,-1,5,-1,7,9,11,13,15,-1,17,19,-1,-1,21,23,-1,-1,-1,-1,-1,-1,-1,-1],"loss_changes":[5.366457E-1,1.1277016E0,0E0,5.325067E-1,0E0,2.4807832E0,5.8963203E-1,6.874929E-1,4.3086147E-1,6.317619E-1,0E0,1.4326614E-1,2.0506173E-1,0E0,0E0,7.076684E-1,3.6665013E-1,0E0,0E0,0E0,0E0,0E0,0E0,0E0,0E0],"parents":[2147483647,0,0,1,1,3,3,5,5,6,6,7,7,8,8,9,9,11,11,12,12,15,15,16,16],"right_children":[2,4,-1,6,-1,8,10,12,14,16,-1,18,20,-1,-1,22,24,-1,-1,-1,-1,-1,-1,-1,-1],"split_conditions":[1.3311733E3,4.0845215E4,-1.452354E-1,8.001184E0,1.8857455E-1,3.0274078E2,6.000982E0,1.0000038E0,5.0002167E2,5.9984713E0,-1.7632765E-1,4.632156E1,5.9143567E0,3.532764E-1,7.2550975E-2,1.6993101E1,4.505E2,-7.250602E-3,1.0236255E-1,-1.8563859E-1,-3.505384E-2,-2.260168E-1,8.113445E-3,3.1167185E-2,-1.04896225E-1],"split_indices":[0,1,0,0,0,1,2,0,1,2,0,1,2,0,0,0,0,0,0,0,0,0,0,0,0],"split_type":[0,0,0,0,0,0,0,0,0,0,0,0,0,0,0,0,0,0,0,0,0,0,0,0,0],"sum_hessian":[3.093465E1,2.9771273E1,1.1633778E0,2.790393E1,1.8673425E0,9.235887E0,1.8668043E1,6.6965623E0,2.5393245E0,1.7244806E1,1.4232384E0,3.0540826E0,3.6424797E0,1.000143E0,1.5391815E0,3.5230455E0,1.372176E1,2.0540705E0,1.0000122E0,1.6151614E0,2.0273182E0,1.3991529E0,2.1238925E0,1.2658286E1,1.0634743E0],"tree_param":{"num_deleted":"0","num_feature":"3","num_nodes":"25","size_leaf_vector":"0"}},{"base_weights":[-9.9861175E-3,-1.5948035E-1,7.9416096E-2,2.1142067E-2,-3.3781552E-1,1.3639818E-1,-3.3220196E-1,-3.23749E-1,5.068841E-1,-7.215833E-1,-6.5129794E-2,2.2294706E-2,6.0528815E-1,-5.2194946E-2,-5.739948E-1,8.272341E-1,-1.09894395E-1,3.191187E-1,-2.548739E-1,2.1900232E-1,-2.3097432E-1,7.934618E-1,8.463452E-2,2.894762E-1,-9.11619E-2,-5.3816986E-1,7.804765E-3,6.513962E-1,1.1938781E-1,-1.6947725E-1,-6.38263E-1,3.4816575E-1,-4.9465206E-1],"categories":[],"categories_nodes":[],"categories_segments":[],"categories_sizes":[],"default_left":[1,1,1,1,1,1,0,1,1,0,1,1,1,0,0,0,0,0,0,1,1,0,0,1,0,1,1,0,0,0,0,0,0],"id":40,"left_children":[1,3,5,7,9,11,-1,13,15,-1,17,19,21,-1,-1,-1,-1,-1,-1,23,25,-1,-1,27,-1,29,31,-1,-1,-1,-1,-1,-1],"loss_changes":[4.3503848E-1,3.988027E-1,5.248127E-1,1.3337693E0,5.994331E-1,9.852022E-1,0E0,2.8896508E-1,7.407165E-1,0E0,4.2476824E-1,8.502622E-1,2.8703618E-1,0E0,0E0,0E0,0E0,0E0,0E0,2.350896E-1,5.546007E-1,0E0,0E0,4.1590226E-1,0E0,1.3460994E-2,1.0628119E0,0E0,0E0,0E0,0E0,0E0,0E0],"parents":[2147483647,0,0,1,1,2,2,3,3,4,4,5,5,7,7,8,8,10,10,11,11,12,12,19,19,20,20,23,23,25,25,26,26],"right_children":[2,4,6,8,10,12,-1,14,16,-1,18,20,22,-1,-1,-1,-1,-1,-1,24,26,-1,-1,28,-1,30,32,-1,-1,-1,-1,-1,-1],"split_conditions":[5.9984713E0,7.0017495E0,5.815254E2,3.0274078E2,1.6993101E1,1.1231911E4,-9.966059E-2,1.0000038E0,1.0036228E0,-2.16475E-1,2.8708344E1,8.568318E3,3.3618243E2,-1.5658485E-2,-1.7219844E-1,2.4817024E-1,-3.296832E-2,9.573562E-2,-7.646217E-2,6.0026226E0,9.302911E3,2.3803855E-1,2.5390357E-2,2.8E2,-2.734857E-2,1.820213E2,1.0549239E4,1.9541888E-1,3.5816345E-2,-5.084318E-2,-1.9147891E-1,1.0444973E-1,-1.4839563E-1],"split_indices":[2,0,0,1,0,1,0,0,2,0,0,1,0,0,0,0,0,0,0,2,1,0,0,1,0,0,1,0,0,0,0,0,0],"split_type":[0,0,0,0,0,0,0,0,0,0,0,0,0,0,0,0,0,0,0,0,0,0,0,0,0,0,0,0,0,0,0,0,0],"sum_hessian":[3.0602661E1,1.1159093E1,1.9443567E1,5.9819098E0,5.177183E0,1.766654E1,1.7770274E0,3.6931567E0,2.2887533E0,1.4667397E0,3.7104433E0,1.5051367E1,2.6151738E0,2.3507822E0,1.3423746E0,1.2817861E0,1.0069671E0,1.001163E0,2.7092805E0,8.547803E0,6.503564E0,1.5360464E0,1.0791274E0,7.019557E0,1.5282464E0,2.2959387E0,4.207625E0,1.3395226E0,5.680034E0,1.0652586E0,1.2306801E0,2.6914961E0,1.5161289E0],"tree_param":{"num_deleted":"0","num_feature":"3","num_nodes":"33","size_leaf_vector":"0"}},{"base_weights":[-1.26880435E-2,-2.9930153E-1,2.6922066E-2,6.283862E-1,-3.3439364E-2,3.3864534E-1,-9.2455514E-2,-2.4586225E-1,9.768452E-1,-6.394365E-1,-3.749541E-2,-2.7283603E-1,5.950645E-2,-5.1134884E-1,-4.3827593E-2,-1.5318219E-2,4.5962122E-1],"categories":[],"categories_nodes":[],"categories_segments":[],"categories_sizes":[],"default_left":[1,0,1,0,1,1,1,0,0,0,1,1,1,0,0,0,0],"id":41,"left_children":[1,-1,3,-1,5,7,9,-1,-1,-1,11,13,15,-1,-1,-1,-1],"loss_changes":[3.5673177E-1,0E0,1.0339642E0,0E0,6.0895777E-1,1.6635225E0,6.821872E-1,0E0,0E0,0E0,5.27768E-1,3.4460372E-1,5.066657E-1,0E0,0E0,0E0,0E0],"parents":[2147483647,0,0,2,2,4,4,5,5,6,6,10,10,11,11,12,12],"right_children":[2,-1,4,-1,6,8,10,-1,-1,-1,12,14,16,-1,-1,-1,-1],"split_conditions":[5.356067E1,-8.979046E-2,3.0030437E0,1.8851587E-1,4.480454E2,3.2134195E2,8.339564E2,-7.375868E-2,2.9305357E-1,-1.9183095E-1,5.9984713E0,1.6993101E1,3.589247E4,-1.5340465E-1,-1.3148279E-2,-4.595466E-3,1.3788638E-1],"split_indices":[1,0,0,0,1,1,1,0,0,0,2,0,1,0,0,0,0],"split_type":[0,0,0,0,0,0,0,0,0,0,0,0,0,0,0,0,0],"sum_hessian":[2.9712624E1,2.8116567E0,2.6900967E1,1.5952178E0,2.5305748E1,2.8156257E0,2.2490122E1,1.7905096E0,1.025116E0,1.0824699E0,2.1407652E1,5.719245E0,1.5688408E1,2.197579E0,3.5216658E0,1.4026968E1,1.6614399E0],"tree_param":{"num_deleted":"0","num_feature":"3","num_nodes":"17","size_leaf_vector":"0"}},{"base_weights":[-7.7741486E-3,2.165281E-2,-4.2409328E-1,-2.9626682E-2,5.027622E-1,3.494715E-2,-2.4963264E-1,-2.2679472E-2,5.6608284E-1,-4.5125538E-1,-7.200668E-2,7.420872E-2,-4.48939E-1,1.585227E-1,-3.7359324E-1,-8.129658E-3,5.31433E-1,-6.6633415E-1,-9.000231E-2,1.3837898E-2,2.4285647E-1],"categories":[],"categories_nodes":[],"categories_segments":[],"categories_sizes":[],"default_left":[1,1,0,1,0,1,1,1,0,0,1,1,1,1,0,0,0,0,0,0,0],"id":42,"left_children":[1,3,-1,5,-1,7,9,11,-1,-1,13,15,17,19,-1,-1,-1,-1,-1,-1,-1],"loss_changes":[3.8309255E-1,7.4163663E-1,0E0,4.0031973E-1,0E0,6.919252E-1,1.9590327E-1,8.9964604E-1,0E0,0E0,3.7766856E-1,6.800851E-1,2.5424397E-1,3.688191E-2,0E0,0E0,0E0,0E0,0E0,0E0,0E0],"parents":[2147483647,0,0,1,1,3,3,5,5,6,6,7,7,10,10,11,11,12,12,13,13],"right_children":[2,4,-1,6,-1,8,10,12,-1,-1,14,16,18,20,-1,-1,-1,-1,-1,-1,-1],"split_conditions":[1.3311733E3,4.0845215E4,-1.2722799E-1,1.0549239E4,1.5082866E-1,2.0191956E2,2.3390263E2,1.810015E2,1.6982485E-1,-1.3537662E-1,4.410033E2,8.567936E3,1.9297379E2,1.5467176E4,-1.12077974E-1,-2.4388975E-3,1.5942991E-1,-1.9990025E-1,-2.7000695E-2,4.1513694E-3,7.285695E-2],"split_indices":[0,1,0,1,0,0,0,0,0,0,0,1,0,1,0,0,0,0,0,0,0],"split_type":[0,0,0,0,0,0,0,0,0,0,0,0,0,0,0,0,0,0,0,0,0],"sum_hessian":[2.9520737E1,2.8457264E1,1.0634735E0,2.6564302E1,1.8929608E0,2.11869E1,5.3774023E0,1.997678E1,1.2101203E0,1.7970709E0,3.5803316E0,1.694998E1,3.0267994E0,2.2980776E0,1.2822539E0,1.5195708E1,1.7542715E0,1.3517072E0,1.6750923E0,1.2749065E0,1.0231712E0],"tree_param":{"num_deleted":"0","num_feature":"3","num_nodes":"21","size_leaf_vector":"0"}},{"base_weights":[-8.562094E-3,2.1220386E-2,-3.823697E-1,-2.4819143E-2,4.7537634E-1,4.220638E-2,-1.9080439E-1,-2.2783449E-2,5.254544E-1,-5.504411E-1,3.7087865E-2,4.80255E-2,-5.9207577E-1,4.6086195E-1,-2.695982E-1,-1.8801644E-2,4.9159327E-1,-3.395247E-1,-4.8148066E-2],"categories":[],"categories_nodes":[],"categories_segments":[],"categories_sizes":[],"default_left":[1,1,0,1,0,1,1,1,0,0,1,1,0,0,1,0,0,0,0],"id":43,"left_children":[1,3,-1,5,-1,7,9,11,-1,-1,13,15,-1,-1,17,-1,-1,-1,-1],"loss_changes":[3.4538656E-1,6.183074E-1,0E0,3.1163228E-1,0E0,6.481686E-1,6.785697E-1,7.86852E-1,0E0,0E0,8.848574E-1,5.326641E-1,0E0,0E0,4.5998663E-2,0E0,0E0,0E0,0E0],"parents":[2147483647,0,0,1,1,3,3,5,5,6,6,7,7,10,10,11,11,14,14],"right_children":[2,4,-1,6,-1,8,10,12,-1,-1,14,16,-1,-1,18,-1,-1,-1,-1],"split_conditions":[9.452647E4,4.0845215E4,-1.1471091E-1,9.52483E3,1.426129E-1,9.302911E3,2.1797592E2,1.810015E2,1.5763633E-1,-1.6513233E-1,2.3600983E2,1.769642E2,-1.7762274E-1,1.3825859E-1,2.3617E4,-5.6404937E-3,1.4747798E-1,-1.0185741E-1,-1.444442E-2],"split_indices":[1,1,0,1,0,1,0,0,0,0,0,0,0,0,1,0,0,0,0],"split_type":[0,0,0,0,0,0,0,0,0,0,0,0,0,0,0,0,0,0,0],"sum_hessian":[2.9295074E1,2.8006905E1,1.2881702E0,2.6287401E1,1.7195035E0,1.9257048E1,7.030353E0,1.7814156E1,1.4428915E0,2.1779592E0,4.8523936E0,1.6657879E1,1.1562777E0,1.8262264E0,3.0261674E0,1.5309055E1,1.3488228E0,1.8946975E0,1.1314698E0],"tree_param":{"num_deleted":"0","num_feature":"3","num_nodes":"19","size_leaf_vector":"0"}},{"base_weights":[-7.7012004E-3,3.1710487E-2,-2.8880167E-1,-2.5808018E-2,5.447163E-1,-4.6673903E-1,1.00458674E-1,2.786278E-2,-2.6964256E-1,-2.0718334E-2,4.6094817E-1,-4.1198868E-1,-4.8229773E-2,5.1987786E-2,-3.76404E-1,-1.1374082E-1,1.9888292E-1,-5.85964E-1,-6.1174925E-2],"categories":[],"categories_nodes":[],"categories_segments":[],"categories_sizes":[],"default_left":[1,1,1,1,0,0,0,1,1,1,0,0,0,1,1,0,0,0,0],"id":44,"left_children":[1,3,5,7,-1,-1,-1,9,11,13,-1,-1,-1,15,17,-1,-1,-1,-1],"loss_changes":[3.4286246E-1,8.201572E-1,3.1028554E-1,3.4147742E-1,0E0,0E0,0E0,4.6867585E-1,1.2817866E-1,5.5172193E-1,0E0,0E0,0E0,4.5995063E-1,2.0287919E-1,0E0,0E0,0E0,0E0],"parents":[2147483647,0,0,1,1,2,2,3,3,7,7,8,8,9,9,13,13,14,14],"right_children":[2,4,6,8,-1,-1,-1,10,12,14,-1,-1,-1,16,18,-1,-1,-1,-1],"split_conditions":[5.815254E2,2.3617E4,9.303184E4,1.0549239E4,1.634149E-1,-1.4002171E-1,3.0137604E-2,2.0191956E2,1.2250337E4,1.810015E2,1.3828446E-1,-1.2359661E-1,-1.44689325E-2,6.9987545E0,1.9297379E2,-3.4122247E-2,5.966488E-2,-1.757892E-1,-1.8352479E-2],"split_indices":[0,1,1,1,0,0,0,0,1,0,0,0,0,0,0,0,0,0,0],"split_type":[0,0,0,0,0,0,0,0,0,0,0,0,0,0,0,0,0,0,0],"sum_hessian":[2.9121416E1,2.6318607E1,2.8028083E0,2.4519194E1,1.7994134E0,1.7869315E0,1.0158768E0,2.0821806E1,3.6973884E0,1.9577833E1,1.2439716E0,1.7266196E0,1.9707689E0,1.6964033E1,2.6138E0,8.077085E0,8.886949E0,1.0541583E0,1.5596417E0],"tree_param":{"num_deleted":"0","num_feature":"3","num_nodes":"19","size_leaf_vector":"0"}},{"base_weights":[-1.059626E-2,-1.4865007E-1,6.902533E-2,1.3574883E-1,-2.9501024E-1,3.57766E-1,-1.3101203E-2,-2.4646263E-1,7.036996E-1,4.2635426E-1,-4.7464082E-1,1.1506204E-2,6.9637716E-1,-8.276632E-2,3.7470153E-1,-7.672728E-1,-1.289633E-1,1.3657059E-1,-1.2972611E-1,-4.6566325E-1,-2.0127665E-2,6.178964E-2,-2.5243625E-1,4.5176873E-1,-9.84374E-2,-4.1883492E-1,-7.760331E-3],"categories":[],"categories_nodes":[],"categories_segments":[],"categories_sizes":[],"default_left":[1,1,1,1,1,1,1,0,0,0,1,1,0,1,0,0,1,0,0,0,1,0,0,0,1,0,0],"id":45,"left_children":[1,3,5,7,9,11,13,-1,-1,-1,15,17,-1,19,-1,-1,21,-1,-1,-1,23,-1,-1,-1,25,-1,-1],"loss_changes":[3.3847558E-1,5.078696E-1,4.6994635E-1,1.1510624E0,1.2047212E0,5.055444E-1,4.6976018E-1,0E0,0E0,0E0,5.754049E-1,7.392792E-2,0E0,3.404615E-1,0E0,0E0,1.1589222E-1,0E0,0E0,0E0,5.463278E-1,0E0,0E0,0E0,3.5900074E-1,0E0,0E0],"parents":[2147483647,0,0,1,1,2,2,3,3,4,4,5,5,6,6,10,10,11,11,13,13,16,16,20,20,24,24],"right_children":[2,4,6,8,10,12,14,-1,-1,-1,16,18,-1,20,-1,-1,22,-1,-1,-1,24,-1,-1,-1,26,-1,-1],"split_conditions":[5.9984713E0,3.2267676E2,1.1000247E1,1.389628E2,4.002469E0,2.8598297E2,3.589247E4,-7.3938794E-2,2.1110989E-1,1.2790628E-1,8.97084E3,1.3802933E2,2.0891316E-1,8.983976E2,1.1241046E-1,-2.3018184E-1,3.2584748E4,4.097118E-2,-3.8917836E-2,-1.3969898E-1,4.517501E1,1.8536892E-2,-7.5730875E-2,1.3553062E-1,1.6998645E2,-1.2565048E-1,-2.3280995E-3],"split_indices":[2,1,0,1,0,1,1,0,0,0,1,1,0,1,0,0,1,0,0,0,0,0,0,0,0,0,0],"split_type":[0,0,0,0,0,0,0,0,0,0,0,0,0,0,0,0,0,0,0,0,0,0,0,0,0,0,0],"sum_hessian":[2.8859268E1,1.0239064E1,1.8620205E1,3.5035882E0,6.735476E0,3.3801138E0,1.524009E1,2.4325883E0,1.0709997E0,1.0690111E0,5.666465E0,2.1823988E0,1.1977149E0,1.3586059E1,1.6540315E0,2.4081957E0,3.258269E0,1.1749562E0,1.0074426E0,1.005504E0,1.2580555E1,1.4766173E0,1.7816517E0,1.1118032E0,1.1468752E1,1.7315468E0,9.7372055E0],"tree_param":{"num_deleted":"0","num_feature":"3","num_nodes":"27","size_leaf_vector":"0"}},{"base_weights":[-3.818531E-3,2.6934423E-2,-3.849856E-1,-1.4437754E-2,4.1025952E-1,1.4388026E-1,-9.885336E-2,-7.1365505E-2,9.845582E-1,-3.0690012E-2,-5.536734E-1,-2.1167092E-1,4.8809496E-1,-1.7395678E-1,8.899605E-2,2.048942E-1,-4.5911792E-1,-3.0600961E-2,-4.2704093E-1,4.1221607E-1,-8.346028E-2],"categories":[],"categories_nodes":[],"categories_segments":[],"categories_sizes":[],"default_left":[1,1,0,1,0,1,1,1,0,1,0,1,0,1,1,0,0,0,0,0,0],"id":46,"left_children":[1,3,-1,5,-1,7,9,11,-1,13,-1,15,-1,17,19,-1,-1,-1,-1,-1,-1],"loss_changes":[3.5147113E-1,4.4777665E-1,0E0,3.632138E-1,0E0,1.7872607E0,5.294059E-1,7.6949406E-1,0E0,2.9645538E-1,0E0,8.653735E-1,0E0,2.698084E-1,5.6892705E-1,0E0,0E0,0E0,0E0,0E0,0E0],"parents":[2147483647,0,0,1,1,3,3,5,5,6,6,7,7,9,9,11,11,13,13,14,14],"right_children":[2,4,-1,6,-1,8,10,12,-1,14,-1,16,-1,18,20,-1,-1,-1,-1,-1,-1],"split_conditions":[9.452647E4,4.0845215E4,-1.1549568E-1,8.001184E0,1.2307786E-1,6.3062496E0,6.000982E0,1.2278848E3,2.9536748E-1,8.9755E3,-1.6610202E-1,1.0000038E0,1.464285E-1,8.403699E3,9.539984E3,6.1468262E-2,-1.3773538E-1,-9.180289E-3,-1.2811229E-1,1.23664826E-1,-2.5038084E-2],"split_indices":[1,1,0,0,0,0,2,1,0,1,0,0,0,1,1,0,0,0,0,0,0],"split_type":[0,0,0,0,0,0,0,0,0,0,0,0,0,0,0,0,0,0,0,0,0],"sum_hessian":[2.8099243E1,2.6861378E1,1.2378668E0,2.5113247E1,1.7481307E0,8.488668E0,1.6624578E1,7.486856E0,1.0018123E0,1.538615E1,1.2384272E0,6.4827247E0,1.0041313E0,6.7967973E0,8.589354E0,2.4799001E0,4.002825E0,5.054603E0,1.7421942E0,2.5047164E0,6.084637E0],"tree_param":{"num_deleted":"0","num_feature":"3","num_nodes":"21","size_leaf_vector":"0"}},{"base_weights":[2.9777864E-4,-1.5127516E-1,8.401695E-2,1.0900068E-1,-2.911248E-1,1.455252E-1,-3.3713338E-1,-2.1363972E-1,5.533339E-1,3.4679288E-1,-4.4989237E-1,3.5068225E-2,5.8588797E-1,-7.272012E-1,-1.291761E-1,3.4907058E-1,-8.4400564E-2,7.4847317E-1,9.995596E-2,2.4939455E-2,-2.4999405E-1,6.1990514E-2,6.2201434E-1,-1.4910169E-1,1.9711916E-1,1.608861E-1,-7.282689E-2,-7.44165E-3,-6.2923515E-1],"categories":[],"categories_nodes":[],"categories_segments":[],"categories_sizes":[],"default_left":[1,1,1,1,1,1,0,0,0,0,1,1,1,0,1,1,1,0,0,0,0,1,0,1,0,0,0,0,0],"id":47,"left_children":[1,3,5,7,9,11,-1,-1,-1,-1,13,15,17,-1,19,21,23,-1,-1,-1,-1,25,-1,27,-1,-1,-1,-1,-1],"loss_changes":[3.800004E-1,4.1959614E-1,5.4871714E-1,7.564404E-1,8.8562715E-1,8.320848E-1,0E0,0E0,0E0,0E0,4.5778668E-1,5.95073E-1,1.9786942E-1,0E0,8.24389E-2,3.0231023E-1,2.4299976E-1,0E0,0E0,0E0,0E0,5.479392E-2,0E0,6.8262213E-1,0E0,0E0,0E0,0E0,0E0],"parents":[2147483647,0,0,1,1,2,2,3,3,4,4,5,5,10,10,11,11,12,12,14,14,15,15,16,16,21,21,23,23],"right_children":[2,4,6,8,10,12,-1,-1,-1,-1,14,16,18,-1,20,22,24,-1,-1,-1,-1,26,-1,28,-1,-1,-1,-1,-1],"split_conditions":[5.9984713E0,3.2267676E2,5.815254E2,1.389628E2,4.228223E0,1.1231911E4,-1.01140015E-1,-6.409192E-2,1.6600017E-1,1.04037866E-1,1.6993101E1,1.1000247E1,3.3618243E2,-2.1816038E-1,4.1655773E4,2.8598297E2,2.1794972E2,2.2454196E-1,2.998679E-2,7.4818367E-3,-7.499822E-2,3.0430367E0,1.866043E-1,9.52483E3,5.913575E-2,4.826583E-2,-2.1848068E-2,-2.2324952E-3,-1.8877055E-1],"split_indices":[2,1,0,1,0,1,0,0,0,0,0,0,0,0,1,1,0,0,0,0,0,0,0,1,0,0,0,0,0],"split_type":[0,0,0,0,0,0,0,0,0,0,0,0,0,0,0,0,0,0,0,0,0,0,0,0,0,0,0,0,0],"sum_hessian":[2.7944319E1,9.655739E0,1.828858E1,3.4519181E0,6.2038207E0,1.6529005E1,1.7595742E0,2.3005946E0,1.1513236E0,1.0003202E0,5.2035003E0,1.4077544E1,2.4514608E0,2.1108851E0,3.0926151E0,3.350224E0,1.0727321E1,1.4320394E0,1.0194215E0,1.7077656E0,1.3848497E0,2.2308998E0,1.1193244E0,9.105085E0,1.6222348E0,1.1753538E0,1.055546E0,7.8148637E0,1.2902219E0],"tree_param":{"num_deleted":"0","num_feature":"3","num_nodes":"29","size_leaf_vector":"0"}},{"base_weights":[3.4832926E-3,-1.238443E-1,7.196262E-2,9.716857E-2,-2.504461E-1,1.3077001E-1,-2.391512E-1,-2.2665478E-1,3.9418012E-1,2.9880705E-1,-3.9851096E-1,4.090648E-2,7.557979E-1,-6.75729E-1,-1.08673185E-1,3.3450285E-1,-4.959796E-2,3.7259527E-2,-1.9979921E-1,1.1110926E-1,3.8684258E-1,-3.4793526E-1,2.0435642E-2,3.2074237E-1,-1.0053004E-1],"categories":[],"categories_nodes":[],"categories_segments":[],"categories_sizes":[],"default_left":[1,1,1,1,1,1,0,0,0,0,1,1,0,0,1,1,1,0,0,0,0,0,1,0,0],"id":48,"left_children":[1,3,5,7,9,11,-1,-1,-1,-1,13,15,-1,-1,17,19,21,-1,-1,-1,-1,-1,23,-1,-1],"loss_changes":[2.5432083E-1,3.1003976E-1,3.7769815E-1,5.163071E-1,6.697732E-1,8.998323E-1,0E0,0E0,0E0,0E0,3.895499E-1,4.2965543E-1,0E0,0E0,6.0752273E-2,1.3556778E-3,2.7357182E-1,0E0,0E0,0E0,0E0,0E0,4.41762E-1,0E0,0E0],"parents":[2147483647,0,0,1,1,2,2,3,3,4,4,5,5,10,10,11,11,14,14,15,15,16,16,22,22],"right_children":[2,4,6,8,10,12,-1,-1,-1,-1,14,16,-1,-1,18,20,22,-1,-1,-1,-1,-1,24,-1,-1],"split_conditions":[5.9984713E0,3.2267676E2,4.410033E2,9.785384E1,4.002469E0,1.5130283E4,-7.174536E-2,-6.7996435E-2,1.1825404E-1,8.964212E-2,8.97084E3,8.112881E0,2.2673939E-1,-2.027187E-1,3.2584748E4,1.3882822E2,8.983976E2,1.1177858E-2,-5.9939764E-2,3.333278E-2,1.1605278E-1,-1.04380585E-1,8.0812104E3,9.622271E-2,-3.0159013E-2],"split_indices":[2,1,0,1,0,1,0,0,0,0,1,0,0,0,1,1,1,0,0,0,0,0,1,0,0],"split_type":[0,0,0,0,0,0,0,0,0,0,0,0,0,0,0,0,0,0,0,0,0,0,0,0,0],"sum_hessian":[2.714543E1,9.210787E0,1.7934643E1,3.439255E0,5.7715316E0,1.5571043E1,2.3636003E0,1.7586886E0,1.6805665E0,1.0093225E0,4.7622094E0,1.4545245E1,1.0257986E0,1.7535785E0,3.0086308E0,2.7920034E0,1.1753242E1,1.3837545E0,1.6248763E0,1.1227576E0,1.669246E0,1.4800848E0,1.0273156E1,2.4756494E0,7.7975073E0],"tree_param":{"num_deleted":"0","num_feature":"3","num_nodes":"25","size_leaf_vector":"0"}},{"base_weights":[6.9311913E-3,-1.05513014E-1,6.554537E-2,-5.109458E-3,-3.9061692E-1,3.5366532E-1,1.3879131E-2,-2.2026898E-1,1.3887808E-1,-4.3961614E-2,4.680649E-1,-7.348565E-2,-2.5810006E-1,5.687338E-1,-1.4946915E-1,-6.644323E-1,4.3971952E-2,-2.6045603E-1,2.1341495E-2,3.6749494E-1,-3.397466E-2,-3.696078E-1,4.5884147E-2],"categories":[],"categories_nodes":[],"categories_segments":[],"categories_sizes":[],"default_left":[1,1,1,1,0,0,1,1,1,1,0,0,0,0,1,0,1,0,0,0,1,0,0],"id":49,"left_children":[1,3,5,7,-1,-1,9,11,13,15,-1,-1,-1,-1,17,-1,19,-1,-1,-1,21,-1,-1],"loss_changes":[1.8883386E-1,2.79709E-1,2.7436364E-1,2.8745618E-1,0E0,0E0,4.6583024E-1,1.6392022E-3,7.7669555E-1,8.993621E-1,0E0,0E0,0E0,0E0,8.388979E-2,0E0,3.8839388E-1,0E0,0E0,0E0,3.634673E-1,0E0,0E0],"parents":[2147483647,0,0,1,1,2,2,3,3,6,6,7,7,8,8,9,9,14,14,16,16,20,20],"right_children":[2,4,6,8,-1,-1,10,12,14,16,-1,-1,-1,-1,18,-1,20,-1,-1,-1,22,-1,-1],"split_conditions":[5.9984713E0,2.0010378E0,2.8001654E2,3.1983685E2,-1.1718508E-1,1.060996E-1,3.5435204E1,4.600003E1,7.0017495E0,8.3374005E2,1.4041948E-1,-2.2045696E-2,-7.7430025E-2,1.7062014E-1,3.196334E4,-1.9932969E-1,4.6715977E1,-7.813681E-2,6.4024488E-3,1.1024848E-1,1.6998645E2,-1.1088235E-1,1.3765245E-2],"split_indices":[2,2,1,1,0,0,2,1,0,1,0,0,0,0,1,0,0,0,0,0,0,0,0],"split_type":[0,0,0,0,0,0,0,0,0,0,0,0,0,0,0,0,0,0,0,0,0,0,0],"sum_hessian":[2.66017E1,8.8410635E0,1.7760637E1,7.2912593E0,1.5498036E0,1.8118049E0,1.5948832E1,2.710781E0,4.580478E0,1.49483595E1,1.0004718E0,1.1584606E0,1.5523205E0,1.4485902E0,3.1318882E0,1.041727E0,1.3906632E1,1.580264E0,1.5516243E0,1.9787962E0,1.1927836E1,1.5952024E0,1.0332634E1],"tree_param":{"num_deleted":"0","num_feature":"3","num_nodes":"23","size_leaf_vector":"0"}},{"base_weights":[2.12193E-3,3.628238E-2,-2.1169132E-1,-8.861492E-2,1.1174404E-1,-4.491331E-1,8.8940546E-2,