{"learner":{"attributes":{"best_iteration":"99","best_ntree_limit":"100","scikit_learn":"{\"use_label_encoder\": null, \"n_estimators\": 100, \"objective\": \"binary:logistic\", \"max_depth\": null, \"max_leaves\": null, \"max_bin\": null, \"grow_policy\": null, \"learning_rate\": null, \"verbosity\": null, \"booster\": null, \"tree_method\": null, \"gamma\": null, \"min_child_weight\": null, \"max_delta_step\": null, \"subsample\": null, \"sampling_method\": null, \"colsample_bytree\": null, \"colsample_bylevel\": null, \"colsample_bynode\": null, \"reg_alpha\": null, \"reg_lambda\": null, \"scale_pos_weight\": null, \"base_score\": null, \"missing\": NaN, \"num_parallel_tree\": null, \"random_state\": null, \"n_jobs\": null, \"monotone_constraints\": null, \"interaction_constraints\": null, \"importance_type\": null, \"gpu_id\": null, \"validate_parameters\": null, \"predictor\": null, \"enable_categorical\": false, \"feature_types\": null, \"max_cat_to_onehot\": null, \"max_cat_threshold\": null, \"eval_metric\": null, \"early_stopping_rounds\": null, \"callbacks\": null, \"classes_\": [0, 1], \"n_classes_\": 2, \"_estimator_type\": \"classifier\"}"},"feature_names":[],"feature_types":[],"gradient_booster":{"model":{"gbtree_model_param":{"num_parallel_tree":"1","num_trees":"100","size_leaf_vector":"0"},"tree_info":[0,0,0,0,0,0,0,0,0,0,0,0,0,0,0,0,0,0,0,0,0,0,0,0,0,0,0,0,0,0,0,0,0,0,0,0,0,0,0,0,0,0,0,0,0,0,0,0,0,0,0,0,0,0,0,0,0,0,0,0,0,0,0,0,0,0,0,0,0,0,0,0,0,0,0,0,0,0,0,0,0,0,0,0,0,0,0,0,0,0,0,0,0,0,0,0,0,0,0,0],"trees":[{"base_weights":[-1.0614783E0,-1.9999444E0,-5.08028E-1,1.9999096E0,-1.934318E0,-1.9947039E0,-7.521142E-1,-1.9999448E0,-1.7543089E0,1.9946703E0,-1.4307363E0,-5.641026E-1,-1.99698E0,-1.7533E0,-5.8417606E-1,-1.4912719E0,1.9463087E0,-7.00361E-1,-1.9966358E0,1.9863248E0,-1.949091E0],"categories":[],"categories_nodes":[],"categories_segments":[],"categories_sizes":[],"default_left":[1,0,1,0,1,1,1,0,1,0,1,1,0,1,1,0,0,0,0,0,0],"id":0,"left_children":[1,-1,3,-1,5,7,9,-1,11,-1,13,15,-1,17,19,-1,-1,-1,-1,-1,-1],"loss_changes":[5.0383234E4,0E0,2.182797E5,0E0,2.7754844E3,4.3109375E1,3.5295962E3,0E0,2.2928638E2,0E0,4.1342725E2,3.2061664E2,0E0,2.800569E2,1.478325E3,0E0,0E0,0E0,0E0,0E0,0E0],"parents":[2147483647,0,0,2,2,4,4,5,5,6,6,8,8,10,10,11,11,13,13,14,14],"right_children":[2,-1,4,-1,6,8,10,-1,12,-1,14,16,-1,18,20,-1,-1,-1,-1,-1,-1],"split_conditions":[9.9999994E-1,-5.9998333E-1,1.0000032E0,5.999729E-1,3.999983E0,1.9990461E0,4.000205E0,-5.9998345E-1,3.0014184E0,5.984011E-1,5.999877E0,2.9979768E0,-5.9909403E-1,2.0002553E0,6.0002E0,-4.473816E-1,5.8389264E-1,-2.1010831E-1,-5.9899074E-1,5.9589744E-1,-5.847273E-1],"split_indices":[0,0,0,0,0,0,0,0,0,0,2,0,0,2,2,0,0,0,0,0,0],"split_type":[0,0,0,0,0,0,0,0,0,0,0,0,0,0,0,0,0,0,0,0,0],"sum_hessian":[9.700475E4,3.59845E4,6.102025E4,2.212175E4,3.88985E4,3.70075E4,1.891E3,3.621075E4,7.9675E2,3.7425E2,1.51675E3,1.355E2,6.6125E2,1.0975E3,4.1925E2,9.925E1,3.625E1,2.0675E2,8.9075E2,1.4525E2,2.74E2],"tree_param":{"num_deleted":"0","num_feature":"3","num_nodes":"21","size_leaf_vector":"0"}},{"base_weights":[-8.218089E-1,-1.5487736E0,-3.9324802E-1,1.5487499E0,-1.4970399E0,-1.5445328E0,-5.7613224E-1,-1.5453122E0,-4.312026E-1,1.5451803E0,-1.0942733E0,-1.548774E0,-1.383894E0,-1.4088656E0,3.1789687E-1,-1.3366556E0,-4.5028242E-1,-5.1344275E-1,-1.5467526E0,2.2187788E0,-1.3607012E0,-4.9745348E-1,-1.5462431E0,1.5394998E0,-1.5036404E0],"categories":[],"categories_nodes":[],"categories_segments":[],"categories_sizes":[],"default_left":[1,0,1,0,1,1,1,1,1,0,1,0,1,0,1,1,1,0,0,0,0,0,0,0,0],"id":1,"left_children":[1,-1,3,-1,5,7,9,11,13,-1,15,-1,17,-1,19,21,23,-1,-1,-1,-1,-1,-1,-1,-1],"loss_changes":[2.7663355E4,0E0,1.1975041E5,0E0,1.5569922E3,2.871875E1,1.9234988E3,1.6773438E1,1.8819546E1,0E0,2.1883508E2,0E0,1.0128003E2,0E0,5.0941284E1,1.7879004E2,8.1121497E2,0E0,0E0,0E0,0E0,0E0,0E0,0E0,0E0],"parents":[2147483647,0,0,2,2,4,4,5,5,6,6,7,7,8,8,10,10,12,12,14,14,15,15,16,16],"right_children":[2,-1,4,-1,6,8,10,12,14,-1,16,-1,18,-1,20,22,24,-1,-1,-1,-1,-1,-1,-1,-1],"split_conditions":[9.9999994E-1,-4.6463212E-1,1.0000032E0,4.64625E-1,3.999983E0,3.3988102E1,4.000205E0,1.9990461E0,1.9975004E0,4.635541E-1,5.999877E0,-4.646322E-1,3.0014184E0,-4.226597E-1,2.0107486E0,2.0002553E0,6.0002E0,-1.5403283E-1,-4.640258E-1,6.656337E-1,-4.0821037E-1,-1.4923605E-1,-4.6387294E-1,4.6184996E-1,-4.5109215E-1],"split_indices":[0,0,0,0,0,2,0,0,0,0,2,0,0,0,0,2,2,0,0,0,0,0,0,0,0],"split_type":[0,0,0,0,0,0,0,0,0,0,0,0,0,0,0,0,0,0,0,0,0,0,0,0,0],"sum_hessian":[8.8793984E4,3.2930906E4,5.586308E4,2.024459E4,3.561849E4,3.387102E4,1.7474663E3,3.3846938E4,2.408534E1,3.4264935E2,1.4048169E3,3.3127887E4,7.190478E2,1.0066555E1,1.4018785E1,1.0198826E3,3.8493427E2,1.1398268E2,6.050651E2,6.4232025E0,7.5955825E0,2.0448491E2,8.153977E2,1.3308208E2,2.5185217E2],"tree_param":{"num_deleted":"0","num_feature":"3","num_nodes":"25","size_leaf_vector":"0"}},{"base_weights":[-7.1304667E-1,-1.3448114E0,-3.4102032E-1,1.3447868E0,-1.2975333E0,-1.340207E0,-4.8762167E-1,-1.3448162E0,-1.1363529E0,1.3410867E0,-9.2276037E-1,2.066238E0,-1.2001969E0,-1.3635613E0,-6.1628056E-1,-5.609953E-1,-1.3427238E0,-1.6402278E0,-1.3431687E0,-1.5399479E0,-4.4338477E-1],"categories":[],"categories_nodes":[],"categories_segments":[],"categories_sizes":[],"default_left":[1,0,1,0,1,1,1,0,1,0,1,0,1,1,1,0,0,0,0,0,0],"id":2,"left_children":[1,-1,3,-1,5,7,9,-1,11,-1,13,-1,15,17,19,-1,-1,-1,-1,-1,-1],"loss_changes":[1.7404957E4,0E0,7.516031E4,0E0,1.0271523E3,2.5015625E1,1.1869072E3,0E0,1.3150653E2,0E0,1.6184448E2,0E0,5.5670654E1,5.786743E-1,1.1304733E2,0E0,0E0,0E0,0E0,0E0,0E0],"parents":[2147483647,0,0,2,2,4,4,5,5,6,6,8,8,10,10,12,12,13,13,14,14],"right_children":[2,-1,4,-1,6,8,10,-1,12,-1,14,-1,16,18,20,-1,-1,-1,-1,-1,-1],"split_conditions":[9.9999994E-1,-4.0344346E-1,1.0000032E0,4.0343603E-1,3.999983E0,1.9990461E0,4.000205E0,-4.034449E-1,2.0013566E0,4.0232605E-1,4.9991245E0,6.198714E-1,3.0014184E0,2.002212E0,1.999866E0,-1.6829859E-1,-4.0281716E-1,-4.9206835E-1,-4.0295064E-1,-4.6198437E-1,-1.3301544E-1],"split_indices":[0,0,0,0,0,0,0,0,0,0,0,0,0,2,2,0,0,0,0,0,0],"split_type":[0,0,0,0,0,0,0,0,0,0,0,0,0,0,0,0,0,0,0,0,0],"sum_hessian":[7.405415E4,2.7445074E4,4.6609074E4,1.6872215E4,2.973686E4,2.824784E4,1.4890181E3,2.7617799E4,6.300411E2,2.8580707E2,1.203211E3,1.1701429E1,6.1833966E2,4.9205444E2,7.1115656E2,1.136374E2,5.0470227E2,2.8325706E1,4.6372876E2,1.1088183E2,6.002747E2],"tree_param":{"num_deleted":"0","num_feature":"3","num_nodes":"21","size_leaf_vector":"0"}},{"base_weights":[-6.507312E-1,-1.230316E0,-3.1062943E-1,1.2302866E0,-1.1801282E0,-1.2248771E0,-4.0185884E-1,-1.230319E0,-9.942779E-1,1.2258757E0,-7.501332E-1,-2.1559706E-1,-1.2278205E0,-1.2402958E0,-4.6186584E-1,-1.0312986E0,1.7230668E0,-1.9868542E-1,-1.2332224E0],"categories":[],"categories_nodes":[],"categories_segments":[],"categories_sizes":[],"default_left":[1,0,1,0,1,1,1,0,1,0,1,1,0,0,1,0,0,0,0],"id":3,"left_children":[1,-1,3,-1,5,7,9,-1,11,-1,13,15,-1,-1,17,-1,-1,-1,-1],"loss_changes":[1.1676205E4,0E0,5.001995E4,0E0,8.306836E2,2.7097656E1,7.373892E2,0E0,9.530328E1,0E0,1.5072467E2,1.9543405E2,0E0,0E0,1.3695386E2,0E0,0E0,0E0,0E0],"parents":[2147483647,0,0,2,2,4,4,5,5,6,6,8,8,10,10,11,11,14,14],"right_children":[2,-1,4,-1,6,8,10,-1,12,-1,14,16,-1,-1,18,-1,-1,-1,-1],"split_conditions":[9.9999994E-1,-3.6909482E-1,1.0000032E0,3.69086E-1,3.999983E0,1.9990461E0,4.000205E0,-3.690957E-1,3.0014184E0,3.6776274E-1,4.9991245E0,2.9979768E0,-3.6834615E-1,-3.7208873E-1,6.0002E0,-3.093896E-1,5.169201E-1,-5.960563E-2,-3.6996672E-1],"split_indices":[0,0,0,0,0,0,0,0,0,0,0,0,0,0,2,0,0,0,0],"split_type":[0,0,0,0,0,0,0,0,0,0,0,0,0,0,0,0,0,0,0],"sum_hessian":[5.9235582E4,2.1904459E4,3.7331125E4,1.3466149E4,2.3864975E4,2.2566854E4,1.2981215E3,2.2042336E4,5.245168E2,2.2835162E2,1.0697699E3,1.2146147E2,4.030553E2,3.9493307E2,6.748368E2,8.582025E1,3.564122E1,5.0409976E2,1.7073706E2],"tree_param":{"num_deleted":"0","num_feature":"3","num_nodes":"19","size_leaf_vector":"0"}},{"base_weights":[-6.11392E-1,-1.1592021E0,-2.9128802E-1,1.159165E0,-1.1043581E0,-1.1531476E0,-3.3814868E-1,-1.1592044E0,-9.047662E-1,1.1536076E0,-6.2095284E-1,1.7817532E0,-9.8536694E-1,-8.727795E-1,-1.4550315E-2,-4.232812E-1,-1.1560514E0,8.654891E-2,-1.2114733E0,1.4093637E0,-1.1243149E0],"categories":[],"categories_nodes":[],"categories_segments":[],"categories_sizes":[],"default_left":[1,0,1,0,1,1,1,0,1,0,1,0,1,1,1,0,0,0,0,0,0],"id":4,"left_children":[1,-1,3,-1,5,7,9,-1,11,-1,13,-1,15,17,19,-1,-1,-1,-1,-1,-1],"loss_changes":[8.110793E3,0E0,3.443349E4,0E0,6.990332E2,2.5410156E1,4.738306E2,0E0,9.340497E1,0E0,1.4404999E2,0E0,3.8996216E1,2.1668076E2,4.4061478E2,0E0,0E0,0E0,0E0,0E0,0E0],"parents":[2147483647,0,0,2,2,4,4,5,5,6,6,8,8,10,10,12,12,13,13,14,14],"right_children":[2,-1,4,-1,6,8,10,-1,12,-1,14,-1,16,18,20,-1,-1,-1,-1,-1,-1],"split_conditions":[9.9999994E-1,-3.4776065E-1,1.0000032E0,3.4774953E-1,3.999983E0,1.9990461E0,4.000205E0,-3.4776133E-1,2.0013566E0,3.460823E-1,5.999877E0,5.34526E-1,3.0014184E0,2.0002553E0,6.0002E0,-1.2698436E-1,-3.4681544E-1,2.5964674E-2,-3.63442E-1,4.2280915E-1,-3.372945E-1],"split_indices":[0,0,0,0,0,0,0,0,0,0,2,0,0,2,2,0,0,0,0,0,0],"split_type":[0,0,0,0,0,0,0,0,0,0,0,0,0,0,0,0,0,0,0,0,0],"sum_hessian":[4.6254156E4,1.7058484E4,2.919567E4,1.0487094E4,1.8708576E4,1.758812E4,1.1204563E3,1.7165867E4,4.2225302E2,1.7807166E2,9.4238464E2,1.1684624E1,4.105684E2,6.6555426E2,2.7683038E2,9.644442E1,3.14124E2,1.738578E2,4.9169644E2,1.21134926E2,1.5569547E2],"tree_param":{"num_deleted":"0","num_feature":"3","num_nodes":"21","size_leaf_vector":"0"}},{"base_weights":[-5.854089E-1,-1.1124023E0,-2.7852806E-1,1.1123542E0,-1.0540147E0,-1.1047635E0,-3.0477402E-1,-1.112404E0,-8.1114155E-1,1.1051748E0,-5.5354774E-1,-1.1953042E-1,-1.1083238E0,-1.1229836E0,-2.9944894E-1,-8.590769E-1,1.4771672E0,-1.245439E0,-9.265662E-2],"categories":[],"categories_nodes":[],"categories_segments":[],"categories_sizes":[],"default_left":[1,0,1,0,1,1,1,0,1,0,1,1,0,0,1,0,0,0,0],"id":5,"left_children":[1,-1,3,-1,5,7,9,-1,11,-1,13,15,-1,-1,17,-1,-1,-1,-1],"loss_changes":[5.7493115E3,0E0,2.423707E4,0E0,5.482119E2,2.9410156E1,3.221057E2,0E0,7.105618E1,0E0,1.1249075E2,1.2551505E2,0E0,0E0,1.056264E2,0E0,0E0,0E0,0E0],"parents":[2147483647,0,0,2,2,4,4,5,5,6,6,8,8,10,10,11,11,14,14],"right_children":[2,-1,4,-1,6,8,10,-1,12,-1,14,16,-1,-1,18,-1,-1,-1,-1],"split_conditions":[9.9999994E-1,-3.337207E-1,1.0000032E0,3.3370626E-1,3.999983E0,1.9990461E0,4.000205E0,-3.3372122E-1,3.0014184E0,3.3155245E-1,4.9991245E0,2.9979768E0,-3.3249715E-1,-3.3689508E-1,1.999866E0,-2.577231E-1,4.431502E-1,-3.7363172E-1,-2.7796987E-2],"split_indices":[0,0,0,0,0,0,0,0,0,0,0,0,0,0,2,0,0,0,0],"split_type":[0,0,0,0,0,0,0,0,0,0,0,0,0,0,0,0,0,0,0],"sum_hessian":[3.5551008E4,1.3082449E4,2.2468559E4,8.0428267E3,1.4425731E4,1.3510163E4,9.1556854E2,1.3164805E4,3.453585E2,1.3679984E2,7.787687E2,1.0421907E2,2.4113942E2,2.3923137E2,5.395373E2,7.154388E1,3.2675194E1,9.588412E1,4.436532E2],"tree_param":{"num_deleted":"0","num_feature":"3","num_nodes":"19","size_leaf_vector":"0"}},{"base_weights":[-5.659028E-1,-1.0804608E0,-2.6839635E-1,1.0803974E0,-1.0120949E0,-1.0717325E0,-2.5179756E-1,-1.0804622E0,-7.5078285E-1,1.0710047E0,-4.4922936E-1,1.5833222E0,-8.5637903E-1,3.291131E-1,-6.7133343E-1,-2.4185193E-1,-1.0500239E0,-1.1033758E0,2.6937275E0,-1.1327926E0,2.8736373E-2],"categories":[],"categories_nodes":[],"categories_segments":[],"categories_sizes":[],"default_left":[1,0,1,0,1,1,1,0,1,0,1,0,1,1,1,0,0,0,0,0,0],"id":6,"left_children":[1,-1,3,-1,5,7,9,-1,11,-1,13,-1,15,17,19,-1,-1,-1,-1,-1,-1],"loss_changes":[4.1504326E3,0E0,1.7236156E4,0E0,5.0193066E2,2.7963867E1,2.1121234E2,0E0,6.918956E1,0E0,1.21717545E2,0E0,3.1156662E1,5.337527E2,1.7677855E2,0E0,0E0,0E0,0E0,0E0,0E0],"parents":[2147483647,0,0,2,2,4,4,5,5,6,6,8,8,10,10,12,12,13,13,14,14],"right_children":[2,-1,4,-1,6,8,10,-1,12,-1,14,-1,16,18,20,-1,-1,-1,-1,-1,-1],"split_conditions":[9.9999994E-1,-3.2413825E-1,1.0000032E0,3.241192E-1,3.999983E0,1.9990461E0,4.000205E0,-3.2413867E-1,2.0013566E0,3.2130143E-1,2.0002553E0,4.7499666E-1,2.0033016E0,1.999866E0,5.999877E0,-7.255558E-2,-3.1500718E-1,-3.3101276E-1,8.081183E-1,-3.398378E-1,8.620912E-3],"split_indices":[0,0,0,0,0,0,0,0,0,0,2,0,2,2,2,0,0,0,0,0,0],"split_type":[0,0,0,0,0,0,0,0,0,0,0,0,0,0,0,0,0,0,0,0,0],"sum_hessian":[2.711296E4,9.932092E3,1.718087E4,6.10614E3,1.10747295E4,1.0268834E4,8.058947E2,9.994616E3,2.7421774E2,1.04086395E2,7.0180835E2,1.1263113E1,2.6295465E2,1.5569795E2,5.461104E2,6.354503E1,1.994096E2,9.729176E1,5.8406193E1,3.2877585E2,2.1733452E2],"tree_param":{"num_deleted":"0","num_feature":"3","num_nodes":"21","size_leaf_vector":"0"}},{"base_weights":[-5.517682E-1,-1.0581225E0,-2.6125905E-1,1.0580386E0,-9.8001844E-1,-1.0556575E0,-3.116907E-1,-1.0570394E0,-1.10855205E-2,2.9401994E-1,-4.809199E-1,-1.0580852E0,-8.212084E-1,4.2042708E-1,-8.531583E-1,-9.743135E-1,1.5987669E0,-7.5601286E-1,4.562958E-2,8.199675E-1,-1.1561176E0,-7.4655306E-1,1.0494748E0,1.0686904E0,-1.1485084E0,1.2493343E0,1.7472581E0,-3.0834943E-1,-1.0918853E0,1.266213E0,-1.0297834E0],"categories":[],"categories_nodes":[],"categories_segments":[],"categories_sizes":[],"default_left":[1,0,1,0,1,1,1,1,1,1,1,0,1,1,0,1,1,1,1,0,0,0,0,0,0,0,0,0,0,0,0],"id":7,"left_children":[1,-1,3,-1,5,7,9,11,13,15,17,-1,19,21,-1,23,25,27,29,-1,-1,-1,-1,-1,-1,-1,-1,-1,-1,-1,-1],"loss_changes":[3.0217783E3,0E0,1.2381278E4,0E0,4.269292E2,1.0948242E1,8.8369156E1,1.0009766E0,4.370928E0,3.136359E2,9.75392E1,0E0,2.1801477E1,6.6345925E0,0E0,3.5480034E1,2.66008E0,6.615196E1,3.0575528E2,0E0,0E0,0E0,0E0,0E0,0E0,0E0,0E0,0E0,0E0,0E0,0E0],"parents":[2147483647,0,0,2,2,4,4,5,5,6,6,7,7,8,8,9,9,10,10,12,12,13,13,15,15,16,16,17,17,18,18],"right_children":[2,-1,4,-1,6,8,10,12,14,16,18,-1,20,22,-1,24,26,28,30,-1,-1,-1,-1,-1,-1,-1,-1,-1,-1,-1,-1],"split_conditions":[9.9999994E-1,-3.1743675E-1,1.0000032E0,3.174116E-1,2.9979768E0,3.3988102E1,2.0002553E0,1.6794586E2,2.0107486E0,1.999866E0,5.999877E0,-3.1742558E-1,2.0340734E0,1.9975004E0,-2.559475E-1,2.292481E-2,1.05E1,4.000205E0,6.0002E0,2.4599026E-1,-3.468353E-1,-2.2396593E-1,3.1484246E-1,3.2060713E-1,-3.4455255E-1,3.7480032E-1,5.2417743E-1,-9.250483E-2,-3.275656E-1,3.7986395E-1,-3.0893502E-1],"split_indices":[0,0,0,0,0,2,2,1,0,2,2,0,0,0,0,2,0,0,2,0,0,0,0,0,0,0,0,0,0,0,0],"split_type":[0,0,0,0,0,0,0,0,0,0,0,0,0,0,0,0,0,0,0,0,0,0,0,0,0,0,0,0,0,0,0],"sum_hessian":[2.054314E4,7.4883613E3,1.3054779E4,4.6038486E3,8.450931E3,7.5912046E3,8.5972577E2,7.5811626E3,1.0041891E1,1.875835E2,6.721423E2,7.5442227E3,3.6939957E1,6.9705954E0,3.0712955E0,9.524748E1,9.233601E1,4.4120255E2,2.3093973E2,6.015161E0,3.0924797E1,2.3759832E0,4.5946126E0,7.079712E0,8.816777E1,3.0343824E1,6.199219E1,1.899492E2,2.5125334E2,1.0808587E2,1.2285385E2],"tree_param":{"num_deleted":"0","num_feature":"3","num_nodes":"31","size_leaf_vector":"0"}},{"base_weights":[-5.409518E-1,-1.0422313E0,-2.5545272E-1,1.0421195E0,-9.5440996E-1,-1.0300124E0,-1.6693176E-1,-1.0422456E0,-6.7427164E-1,1.0492463E0,-3.7354797E-1,2.2099977E-2,-1.0456325E0,-1.0395272E0,-1.8744846E-1,-6.277596E-1,1.2209053E0,3.7332088E-2,-9.5697623E-1],"categories":[],"categories_nodes":[],"categories_segments":[],"categories_sizes":[],"default_left":[1,0,1,0,1,1,1,0,1,0,1,1,0,0,1,0,0,0,0],"id":8,"left_children":[1,-1,3,-1,5,7,9,-1,11,-1,13,15,-1,-1,17,-1,-1,-1,-1],"loss_changes":[2.216224E3,0E0,8.95153E3,0E0,3.817119E2,2.4766113E1,1.4188168E2,0E0,5.10701E1,0E0,5.9548454E1,5.501471E1,0E0,0E0,6.54167E1,0E0,0E0,0E0,0E0],"parents":[2147483647,0,0,2,2,4,4,5,5,6,6,8,8,10,10,11,11,14,14],"right_children":[2,-1,4,-1,6,8,10,-1,12,-1,14,16,-1,-1,18,-1,-1,-1,-1],"split_conditions":[9.9999994E-1,-3.126694E-1,1.0000032E0,3.1263587E-1,3.999983E0,1.9990461E0,4.000205E0,-3.126737E-1,3.0014184E0,3.1477392E-1,4.9991245E0,2.9979768E0,-3.1368977E-1,-3.1185818E-1,6.0002E0,-1.8832788E-1,3.6627162E-1,1.1199627E-2,-2.870929E-1],"split_indices":[0,0,0,0,0,0,0,0,0,0,0,0,0,0,2,0,0,0,0],"split_type":[0,0,0,0,0,0,0,0,0,0,0,0,0,0,0,0,0,0,0],"sum_hessian":[1.5486493E4,5.6186357E3,9.867857E3,3.454428E3,6.413429E3,5.851358E3,5.6207135E2,5.6549644E3,1.9639354E2,8.103099E1,4.8104037E2,6.863342E1,1.27760124E2,1.0406076E2,3.7697964E2,4.4815674E1,2.3817749E1,2.924933E2,8.448636E1],"tree_param":{"num_deleted":"0","num_feature":"3","num_nodes":"19","size_leaf_vector":"0"}},{"base_weights":[-5.309882E-1,-1.0307822E0,-2.4964249E-1,1.0306329E0,-9.269955E-1,-1.0165894E0,-1.3932125E-1,-1.0307933E0,-6.261993E-1,1.0285747E0,-3.0416128E-1,1.3321991E0,-7.61271E-1,-5.5420184E-1,1.71615E-1,-2.3506476E-1,-1.0357653E0,1.8650001E-1,-1.0615079E0,1.1751075E0,-9.026983E-1],"categories":[],"categories_nodes":[],"categories_segments":[],"categories_sizes":[],"default_left":[1,0,1,0,1,1,1,0,1,0,1,0,1,1,1,0,0,0,0,0,0],"id":9,"left_children":[1,-1,3,-1,5,7,9,-1,11,-1,13,-1,15,17,19,-1,-1,-1,-1,-1,-1],"loss_changes":[1.6404785E3,0E0,6.4763296E3,0E0,3.4451855E2,2.3669922E1,9.655982E1,0E0,4.2409203E1,0E0,5.2305622E1,0E0,2.09934E1,1.0838884E2,1.6487852E2,0E0,0E0,0E0,0E0,0E0,0E0],"parents":[2147483647,0,0,2,2,4,4,5,5,6,6,8,8,10,10,12,12,13,13,14,14],"right_children":[2,-1,4,-1,6,8,10,-1,12,-1,14,-1,16,18,20,-1,-1,-1,-1,-1,-1],"split_conditions":[9.9999994E-1,-3.0923468E-1,1.0000032E0,3.0918986E-1,3.999983E0,1.9990461E0,4.000205E0,-3.0923802E-1,2.0013566E0,3.085724E-1,5.999877E0,3.9965975E-1,2.2080002E3,2.0002553E0,6.0002E0,-7.051943E-2,-3.107296E-1,5.5950005E-2,-3.184524E-1,3.5253227E-1,-2.708095E-1],"split_indices":[0,0,0,0,0,0,0,0,0,0,2,0,1,2,2,0,0,0,0,0,0],"split_type":[0,0,0,0,0,0,0,0,0,0,0,0,0,0,0,0,0,0,0,0,0],"sum_hessian":[1.1667293E4,4.2012886E3,7.466005E3,2.5831091E3,4.8828955E3,4.383953E3,4.989427E2,4.2284644E3,1.554887E2,6.1063847E1,4.3787885E2,9.460365E0,1.4602834E2,2.8692352E2,1.509553E2,5.0697495E1,9.533083E1,1.16889366E2,1.7003416E2,7.8001755E1,7.295355E1],"tree_param":{"num_deleted":"0","num_feature":"3","num_nodes":"21","size_leaf_vector":"0"}},{"base_weights":[-5.2361757E-1,-1.0224482E0,-2.4537054E-1,1.0222481E0,-9.066888E-1,-1.0224572E0,-2.2972555E-1,-8.867786E-1,-9.866825E-2,4.2788306E-1,-1.0977676E0,1.3406876E0,-3.7250605E-1,-1.0873317E0,2.6046357E0,-6.83813E-1,1.7687291E-1],"categories":[],"categories_nodes":[],"categories_segments":[],"categories_sizes":[],"default_left":[1,0,1,0,1,0,1,1,1,1,0,0,1,0,0,0,0],"id":10,"left_children":[1,-1,3,-1,5,-1,7,9,11,13,-1,-1,15,-1,-1,-1,-1],"loss_changes":[1.2149951E3,0E0,4.713631E3,0E0,2.8933936E2,0E0,4.6488953E1,2.5383965E1,1.7868066E2,4.6174957E1,0E0,0E0,6.5211334E1,0E0,0E0,0E0,0E0],"parents":[2147483647,0,0,2,2,4,4,6,6,7,7,8,8,9,9,12,12],"right_children":[2,-1,4,-1,6,-1,8,10,12,14,-1,-1,16,-1,-1,-1,-1],"split_conditions":[9.9999994E-1,-3.0673447E-1,1.0000032E0,3.0667445E-1,1.9990461E0,-3.0673718E-1,1.999866E0,3.720499E-3,2.0002553E0,-6.9055776E-4,-3.293303E-1,4.022063E-1,5.999877E0,-3.261995E-1,7.813907E-1,-2.051439E-1,5.3061876E-2],"split_indices":[0,0,0,0,0,0,2,2,2,2,0,0,2,0,0,0,0],"split_type":[0,0,0,0,0,0,0,0,0,0,0,0,0,0,0,0,0],"sum_hessian":[8.754494E3,3.1337507E3,5.620743E3,1.9268329E3,3.6939102E3,3.1540254E3,5.398847E2,8.88202E1,4.5106448E2,1.2141176E1,7.667902E1,7.147566E1,3.7958884E2,7.4534135E0,4.6877627E0,2.4213673E2,1.3745209E2],"tree_param":{"num_deleted":"0","num_feature":"3","num_nodes":"17","size_leaf_vector":"0"}},{"base_weights":[-5.139073E-1,-1.016323E0,-2.3885393E-1,1.0160544E0,-8.752089E-1,-1.016331E0,-1.8634619E-1,-8.2881093E-1,-7.4948624E-2,3.3046705E-1,-1.0464206E0,1.2232734E0,-2.877385E-1,-1.0032375E0,1.8191848E0,-1.022193E0,-9.880032E-2],"categories":[],"categories_nodes":[],"categories_segments":[],"categories_sizes":[],"default_left":[1,0,1,0,1,0,1,1,1,1,0,0,1,0,0,0,0],"id":11,"left_children":[1,-1,3,-1,5,-1,7,9,11,13,-1,-1,15,-1,-1,-1,-1],"loss_changes":[9.1169446E2,0E0,3.407397E3,0E0,2.750232E2,0E0,3.4475586E1,1.8310162E1,1.1426807E2,2.5679934E1,0E0,0E0,4.9175762E1,0E0,0E0,0E0,0E0],"parents":[2147483647,0,0,2,2,4,4,6,6,7,7,8,8,9,9,12,12],"right_children":[2,-1,4,-1,6,-1,8,10,12,14,-1,-1,16,-1,-1,-1,-1],"split_conditions":[9.9999994E-1,-3.048969E-1,1.0000032E0,3.0481634E-1,1.9990461E0,-3.048993E-1,1.999866E0,3.720499E-3,2.0002553E0,-6.9055776E-4,-3.139262E-1,3.6698204E-1,2.9998856E0,-3.0097127E-1,5.4575545E-1,-3.066579E-1,-2.9640095E-2],"split_indices":[0,0,0,0,0,0,2,2,2,2,0,0,2,0,0,0,0],"split_type":[0,0,0,0,0,0,0,0,0,0,0,0,0,0,0,0,0],"sum_hessian":[6.5981006E3,2.333326E3,4.264775E3,1.4347716E3,2.8300032E3,2.348424E3,4.8157898E2,7.021085E1,4.1136813E2,1.1014477E1,5.9196377E1,5.726262E1,3.5410553E2,5.9817157E0,5.032761E0,7.155223E1,2.8255328E2],"tree_param":{"num_deleted":"0","num_feature":"3","num_nodes":"17","size_leaf_vector":"0"}},{"base_weights":[-5.036232E-1,-1.0117712E0,-2.319509E-1,1.0114105E0,-8.4038067E-1,-1.0117787E0,-1.512475E-1,-3.8751308E-2,-6.998577E-1,-2.9233623E-1,1.1167452E0,-1.0445282E0,8.50753E-1,2.2278216E-2,-9.473611E-1,2.9954252E-1,2.4882548E0],"categories":[],"categories_nodes":[],"categories_segments":[],"categories_sizes":[],"default_left":[1,0,1,0,1,0,1,1,1,1,0,0,1,0,0,0,0],"id":12,"left_children":[1,-1,3,-1,5,-1,7,9,11,13,-1,-1,15,-1,-1,-1,-1],"loss_changes":[6.8784753E2,0E0,2.4588489E3,0E0,2.5759607E2,0E0,2.6869778E1,1.06607185E2,4.049186E1,6.1480328E1,0E0,0E0,1.191546E1,0E0,0E0,0E0,0E0],"parents":[2147483647,0,0,2,2,4,4,6,6,7,7,8,8,9,9,12,12],"right_children":[2,-1,4,-1,6,-1,8,10,12,14,-1,-1,16,-1,-1,-1,-1],"split_conditions":[9.9999994E-1,-3.0353138E-1,1.0000032E0,3.0342317E-1,1.9990461E0,-3.035336E-1,6.0002E0,5.999877E0,8.494396E0,3.0000014E0,3.3502358E-1,-3.133585E-1,4.4799768E2,6.683465E-3,-2.8420836E-1,8.986276E-2,7.464765E-1],"split_indices":[0,0,0,0,0,0,2,2,2,2,0,0,1,0,0,0,0],"split_type":[0,0,0,0,0,0,0,0,0,0,0,0,0,0,0,0,0],"sum_hessian":[4.9833066E3,1.7351257E3,3.248181E3,1.067014E3,2.181167E3,1.7463536E3,4.348133E2,3.6171237E2,7.3100914E1,2.972295E2,6.4482895E1,6.007401E1,1.3026904E1,2.0144135E2,9.578814E1,1.0631193E1,2.395711E0],"tree_param":{"num_deleted":"0","num_feature":"3","num_nodes":"17","size_leaf_vector":"0"}},{"base_weights":[-4.9352822E-1,-1.008338E0,-2.2530895E-1,1.0078528E0,-8.060674E-1,-1.0083457E0,-1.2661934E-1,-7.815864E-1,-1.5031779E-2,2.6712626E-1,-1.0014664E0,1.1446545E0,-1.99064E-1,-9.342457E-1,1.429797E0,-5.0129783E-1,-1.0455195E0,-1.0084794E0,-7.760515E-3],"categories":[],"categories_nodes":[],"categories_segments":[],"categories_sizes":[],"default_left":[1,0,1,0,1,0,1,1,1,1,1,0,1,0,0,0,0,0,0],"id":13,"left_children":[1,-1,3,-1,5,-1,7,9,11,13,15,-1,17,-1,-1,-1,-1,-1,-1],"loss_changes":[5.199444E2,0E0,1.775493E3,0E0,2.3148108E2,0E0,2.8327156E1,1.3278549E1,7.115185E1,1.6098982E1,5.0829697E-1,0E0,4.4534546E1,0E0,0E0,0E0,0E0,0E0,0E0],"parents":[2147483647,0,0,2,2,4,4,6,6,7,7,8,8,9,9,10,10,12,12],"right_children":[2,-1,4,-1,6,-1,8,10,12,14,16,-1,18,-1,-1,-1,-1,-1,-1],"split_conditions":[9.9999994E-1,-3.025014E-1,1.0000032E0,3.0235586E-1,1.9990461E0,-3.0250373E-1,1.999866E0,3.720499E-3,2.0002553E0,-6.9055776E-4,1.0002953E0,3.4339637E-1,2.9998856E0,-2.8027374E-1,4.2893913E-1,-1.5038936E-1,-3.1365585E-1,-3.0254382E-1,-2.3281546E-3],"split_indices":[0,0,0,0,0,0,2,2,2,2,2,0,2,0,0,0,0,0,0],"split_type":[0,0,0,0,0,0,0,0,0,0,0,0,0,0,0,0,0,0,0],"sum_hessian":[3.7661243E3,1.2891053E3,2.4770188E3,7.928257E2,1.6841931E3,1.2974467E3,3.867465E2,5.542475E1,3.3132175E2,9.569302E0,4.585545E1,4.4662075E1,2.8665967E2,4.802947E0,4.7663546E0,4.7139387E0,4.114151E1,5.398301E1,2.3267667E2],"tree_param":{"num_deleted":"0","num_feature":"3","num_nodes":"19","size_leaf_vector":"0"}},{"base_weights":[-4.8139134E-1,-1.0056887E0,-2.173197E-1,1.0050362E0,-7.6517767E-1,-9.723994E-1,2.953198E-3,-1.0056975E0,-5.1676923E-1,1.0248129E0,-2.4745424E-1,1.0732158E0,-6.864238E-1,-5.092253E-1,1.2793155E-1,-2.1152185E-1,-9.9047315E-1,9.283189E-2,-1.0025795E0,1.0700951E0,-7.833563E-1],"categories":[],"categories_nodes":[],"categories_segments":[],"categories_sizes":[],"default_left":[1,0,1,0,1,1,1,0,1,0,1,0,1,1,1,0,0,0,0,0,0],"id":14,"left_children":[1,-1,3,-1,5,7,9,-1,11,-1,13,-1,15,17,19,-1,-1,-1,-1,-1,-1],"loss_changes":[3.9592346E2,0E0,1.2759048E3,0E0,2.0937592E2,1.5196838E1,7.201797E1,0E0,2.0322361E1,0E0,2.2279465E1,0E0,9.351776E0,3.9713192E1,8.126713E1,0E0,0E0,0E0,0E0,0E0,0E0],"parents":[2147483647,0,0,2,2,4,4,5,5,6,6,8,8,10,10,12,12,13,13,14,14],"right_children":[2,-1,4,-1,6,8,10,-1,12,-1,14,-1,16,18,20,-1,-1,-1,-1,-1,-1],"split_conditions":[9.9999994E-1,-3.017066E-1,1.0000032E0,3.0151087E-1,3.999983E0,1.9990461E0,4.000205E0,-3.0170926E-1,2.0013566E0,3.074439E-1,5.999877E0,3.2196477E-1,3.0014184E0,2.0002553E0,6.0002E0,-6.345656E-2,-2.9714197E-1,2.7849568E-2,-3.0077386E-1,3.2102853E-1,-2.350069E-1],"split_indices":[0,0,0,0,0,0,0,0,0,0,2,0,0,2,2,0,0,0,0,0,0],"split_type":[0,0,0,0,0,0,0,0,0,0,0,0,0,0,0,0,0,0,0,0,0],"sum_hessian":[2.8602222E3,9.571178E2,1.9031044E3,5.887276E2,1.3143768E3,1.0349171E3,2.7945963E2,9.633099E2,7.160727E1,5.439452E1,2.2506511E2,6.390477E0,6.521679E1,1.3238876E2,9.267635E1,2.611806E1,3.9098736E1,5.9991222E1,7.239754E1,4.548057E1,4.719578E1],"tree_param":{"num_deleted":"0","num_feature":"3","num_nodes":"21","size_leaf_vector":"0"}},{"base_weights":[-4.7409597E-1,-1.0035713E0,-2.1244302E-1,1.0026937E0,-7.4224627E-1,-9.8957956E-1,-4.9405027E-2,-9.948359E-1,2.717838E-1,1.087371E0,-2.2169715E-1,-1.0027928E0,-8.042645E-1,-4.8147775E-2,4.315022E-1,-7.396855E-1,-2.3775699E-2,1.4411986E-1,-1.0185931E0,-8.08897E-1,6.921203E-2,1.0074283E0,-3.547147E-1],"categories":[],"categories_nodes":[],"categories_segments":[],"categories_sizes":[],"default_left":[1,0,1,0,1,1,1,1,1,0,1,0,1,0,0,1,1,0,0,0,0,0,0],"id":15,"left_children":[1,-1,3,-1,5,7,9,11,13,-1,15,-1,17,-1,-1,19,21,-1,-1,-1,-1,-1,-1],"loss_changes":[2.9785736E2,0E0,9.28575E2,0E0,1.7203424E2,5.1765747E0,5.2188427E1,3.112793E-1,2.1782726E-1,0E0,2.3680435E1,0E0,7.178667E0,0E0,0E0,3.6318398E0,5.778594E1,0E0,0E0,0E0,0E0,0E0,0E0],"parents":[2147483647,0,0,2,2,4,4,5,5,6,6,7,7,8,8,10,10,12,12,15,15,16,16],"right_children":[2,-1,4,-1,6,8,10,12,14,-1,16,-1,18,-1,-1,20,22,-1,-1,-1,-1,-1,-1],"split_conditions":[9.9999994E-1,-3.010714E-1,1.0000032E0,3.008081E-1,1.999866E0,3.2083973E4,2.0002553E0,2.994408E0,5.285998E4,3.262113E-1,3.999983E0,-3.0083787E-1,1.0002953E0,-1.44443335E-2,1.2945066E-1,3.3988102E1,4.000205E0,4.3235958E-2,-3.0557793E-1,-2.4266912E-1,2.076361E-2,3.022285E-1,-1.06414415E-1],"split_indices":[0,0,0,0,2,1,2,0,1,0,0,0,2,0,0,2,0,0,0,0,0,0,0],"split_type":[0,0,0,0,0,0,0,0,0,0,0,0,0,0,0,0,0,0,0,0,0,0,0],"sum_hessian":[2.1505315E3,7.1031586E2,1.4402157E3,4.3701105E2,1.0032046E3,7.389743E2,2.642303E2,7.3611804E2,2.8562694E0,3.407746E1,2.3015283E2,7.0252356E2,3.359445E1,1.183716E0,1.6725534E0,6.287163E1,1.672812E2,6.253013E0,2.734144E1,5.7916164E1,4.9554687E0,4.014511E1,1.2713609E2],"tree_param":{"num_deleted":"0","num_feature":"3","num_nodes":"23","size_leaf_vector":"0"}},{"base_weights":[-4.6114457E-1,-1.0017875E0,-2.0292054E-1,1.000607E0,-7.02724E-1,-1.0018123E0,-6.681478E-2,-6.7203385E-1,3.4290563E-2,2.183832E-1,-9.2454946E-1,1.0463785E0,-1.1003035E-1,-8.7022376E-1,1.1664876E0,-3.6606762E-1,-9.972333E-1,-9.7647446E-1,3.469544E-2],"categories":[],"categories_nodes":[],"categories_segments":[],"categories_sizes":[],"default_left":[1,0,1,0,1,0,1,1,1,1,1,0,1,0,0,0,0,0,0],"id":16,"left_children":[1,-1,3,-1,5,-1,7,9,11,13,15,-1,17,-1,-1,-1,-1,-1,-1],"loss_changes":[2.2795465E2,0E0,6.6676086E2,0E0,1.4884653E2,0E0,1.5414129E1,8.3081455E0,3.1734386E1,1.0071159E1,7.828369E-1,0E0,2.390466E1,0E0,0E0,0E0,0E0,0E0,0E0],"parents":[2147483647,0,0,2,2,4,4,6,6,7,7,8,8,9,9,10,10,12,12],"right_children":[2,-1,4,-1,6,-1,8,10,12,14,16,-1,18,-1,-1,-1,-1,-1,-1],"split_conditions":[9.9999994E-1,-3.0053627E-1,1.0000032E0,3.001821E-1,1.9990461E0,-3.0054373E-1,1.999866E0,3.720499E-3,2.0002553E0,-6.9055776E-4,1.0002953E0,3.1391355E-1,2.9998856E0,-2.6106715E-1,3.499463E-1,-1.0982029E-1,-2.9917E-1,-2.9294235E-1,1.0408632E-2],"split_indices":[0,0,0,0,0,0,2,2,2,2,2,0,2,0,0,0,0,0,0],"split_type":[0,0,0,0,0,0,0,0,0,0,0,0,0,0,0,0,0,0,0],"sum_hessian":[1.6332872E3,5.270094E2,1.1062778E3,3.2431784E2,7.8195996E2,5.3143414E2,2.5052583E2,3.5052692E1,2.1547314E2,7.7742844E0,2.7278406E1,2.61112E1,1.8936194E2,3.657226E0,4.1170583E0,3.836474E0,2.3441933E1,2.6280262E1,1.6308168E2],"tree_param":{"num_deleted":"0","num_feature":"3","num_nodes":"19","size_leaf_vector":"0"}},{"base_weights":[-4.444864E-1,-1.0001727E0,-1.9263051E-1,9.9858564E-1,-6.522912E-1,-1.0002005E0,-5.587819E-2,6.29589E-2,-5.2840495E-1,-2.3022713E-1,1.0594703E0,-1.0023172E0,7.019495E-1,1.1824117E-1,-8.8128847E-1,2.8671527E-1,1.8435746E0],"categories":[],"categories_nodes":[],"categories_segments":[],"categories_sizes":[],"default_left":[1,0,1,0,1,0,1,1,1,1,0,0,1,0,0,0,0],"id":17,"left_children":[1,-1,3,-1,5,-1,7,9,11,13,-1,-1,15,-1,-1,-1,-1],"loss_changes":[1.7580005E2,0E0,4.7514072E2,0E0,1.2981372E2,0E0,1.3041219E1,5.458385E1,2.7908531E1,3.2894753E1,0E0,0E0,5.900522E0,0E0,0E0,0E0,0E0],"parents":[2147483647,0,0,2,2,4,4,6,6,7,7,8,8,9,9,12,12],"right_children":[2,-1,4,-1,6,-1,8,10,12,14,-1,-1,16,-1,-1,-1,-1],"split_conditions":[9.9999994E-1,-3.0005184E-1,1.0000032E0,2.9957572E-1,1.9990461E0,-3.0006015E-1,6.0002E0,5.999877E0,8.494396E0,3.0000014E0,3.178411E-1,-3.0069518E-1,1.0852E4,3.5472352E-2,-2.6438656E-1,8.601458E-2,5.530724E-1],"split_indices":[0,0,0,0,0,0,2,2,2,2,0,0,1,0,0,0,0],"split_type":[0,0,0,0,0,0,0,0,0,0,0,0,0,0,0,0,0],"sum_hessian":[1.2565142E3,3.9095444E2,8.6555975E2,2.4067503E2,6.248847E2,3.942357E2,2.3064903E2,1.849917E2,4.565733E1,1.4353183E2,4.145988E1,3.3095016E1,1.2562312E1,9.402507E1,4.9506756E1,1.0129233E1,2.433079E0],"tree_param":{"num_deleted":"0","num_feature":"3","num_nodes":"17","size_leaf_vector":"0"}},{"base_weights":[-4.291851E-1,-9.9858E-1,-1.8346211E-1,9.964482E-1,-6.091036E-1,-9.690576E-1,5.202039E-3,-9.7834295E-1,1.4547674E-1,1.0089006E0,-1.1796999E-1,-9.9851066E-1,-7.289836E-1,-7.241972E-2,2.6744372E-1,-9.634213E-1,7.7999346E-3,-9.063449E-2,-9.7728807E-1,1.0189487E0,-2.1886814E-1],"categories":[],"categories_nodes":[],"categories_segments":[],"categories_sizes":[],"default_left":[1,0,1,0,1,1,1,1,1,0,1,0,1,0,0,0,1,0,0,0,0],"id":18,"left_children":[1,-1,3,-1,5,7,9,11,13,-1,15,-1,17,-1,-1,-1,19,-1,-1,-1,-1],"loss_changes":[1.3499086E2,0E0,3.401601E2,0E0,1.1001024E2,3.3886414E0,2.2965183E1,8.3724976E-1,1.1138392E-1,0E0,1.7604908E1,0E0,4.1898785E0,0E0,0E0,0E0,3.3468987E1,0E0,0E0,0E0,0E0],"parents":[2147483647,0,0,2,2,4,4,5,5,6,6,7,7,8,8,10,10,12,12,16,16],"right_children":[2,-1,4,-1,6,8,10,12,14,-1,16,-1,18,-1,-1,-1,20,-1,-1,-1,-1],"split_conditions":[9.9999994E-1,-2.9957402E-1,1.0000032E0,2.989345E-1,1.999866E0,3.2083973E4,2.0002553E0,1.9990461E0,5.285998E4,3.026702E-1,2.9998856E0,-2.9955322E-1,1.0002953E0,-2.1725915E-2,8.023312E-2,-2.890264E-1,3.0000014E0,-2.7190348E-2,-2.9318643E-1,3.0568463E-1,-6.566045E-2],"split_indices":[0,0,0,0,2,1,2,0,1,0,2,0,2,0,0,0,2,0,0,0,0],"split_type":[0,0,0,0,0,0,0,0,0,0,0,0,0,0,0,0,0,0,0,0,0],"sum_hessian":[9.6512665E2,2.9002057E2,6.751061E2,1.7861917E2,4.964869E2,3.1268866E2,1.8379825E2,3.1022632E2,2.46234E0,1.9303967E1,1.6449428E2,2.8423373E2,2.5992567E1,1.029447E0,1.432893E0,2.0438992E1,1.4405528E2,7.6614027E0,1.8331163E1,2.5739231E1,1.18316055E2],"tree_param":{"num_deleted":"0","num_feature":"3","num_nodes":"21","size_leaf_vector":"0"}},{"base_weights":[-4.0923592E-1,-9.968664E-1,-1.7038375E-1,9.940072E-1,-5.579786E-1,-9.969578E-1,-2.6323883E-2,-2.1741255E-1,2.7318993E-1,7.969275E-2,-7.819098E-1,1.0355076E0,-4.213538E-1,-2.6378322E-1,1.0108348E0,-3.6165354E-1,-9.770375E-1,-9.8069906E-1,5.3462E-1],"categories":[],"categories_nodes":[],"categories_segments":[],"categories_sizes":[],"default_left":[1,0,1,0,1,0,1,1,1,1,1,0,1,0,0,0,0,0,0],"id":19,"left_children":[1,-1,3,-1,5,-1,7,9,11,13,15,-1,17,-1,-1,-1,-1,-1,-1],"loss_changes":[1.0491625E2,0E0,2.4134663E2,0E0,9.3545395E1,0E0,1.0496116E1,1.882688E1,3.8276592E1,2.4000978E1,2.8179893E0,0E0,2.0901258E1,0E0,0E0,0E0,0E0,0E0,0E0],"parents":[2147483647,0,0,2,2,4,4,6,6,7,7,8,8,9,9,10,10,12,12],"right_children":[2,-1,4,-1,6,-1,8,10,12,14,16,-1,18,-1,-1,-1,-1,-1,-1],"split_conditions":[9.9999994E-1,-2.9905993E-1,1.0000032E0,2.9820216E-1,1.9990461E0,-2.9908735E-1,5.999877E0,3.0000014E0,6.0002E0,2.9998856E0,4.000205E0,3.106523E-1,8.494396E0,-7.913497E-2,3.0325046E-1,-1.0849606E-1,-2.9311126E-1,-2.9420972E-1,1.60386E-1],"split_indices":[0,0,0,0,0,0,2,2,2,2,0,0,2,0,0,0,0,0,0],"split_type":[0,0,0,0,0,0,0,0,0,0,0,0,0,0,0,0,0,0,0],"sum_hessian":[7.4770685E2,2.1516895E2,5.325379E2,1.3260594E2,3.9993198E2,2.1857924E2,1.8135274E2,1.1088356E2,7.046917E1,7.32104E1,3.7673157E1,3.3361416E1,3.7107758E1,5.4005707E1,1.9204699E1,1.2850282E1,2.4822876E1,2.3393963E1,1.3713794E1],"tree_param":{"num_deleted":"0","num_feature":"3","num_nodes":"19","size_leaf_vector":"0"}},{"base_weights":[-3.9341283E-1,-9.948811E-1,-1.6074082E-1,9.910533E-1,-5.1997304E-1,-9.94992E-1,-2.0802587E-2,-5.291023E-1,6.934501E-2,5.7233952E-2,-9.4749385E-1,9.8654747E-1,-6.1949864E-2,-7.9646915E-1,4.5659554E-1,-9.4120336E-1,6.789107E-2],"categories":[],"categories_nodes":[],"categories_segments":[],"categories_sizes":[],"default_left":[1,0,1,0,1,0,1,1,1,1,0,0,1,0,0,0,0],"id":20,"left_children":[1,-1,3,-1,5,-1,7,9,11,13,-1,-1,15,-1,-1,-1,-1],"loss_changes":[8.0548615E1,0E0,1.7307137E2,0E0,7.5512505E1,0E0,7.2008624E0,5.8602867E0,1.6159441E1,4.045334E0,0E0,0E0,1.3521626E1,0E0,0E0,0E0,0E0],"parents":[2147483647,0,0,2,2,4,4,6,6,7,7,8,8,9,9,12,12],"right_children":[2,-1,4,-1,6,-1,8,10,12,14,-1,-1,16,-1,-1,-1,-1],"split_conditions":[9.9999994E-1,-2.9846433E-1,1.0000032E0,2.9731598E-1,1.9990461E0,-2.9849762E-1,1.999866E0,1.0002953E0,2.0002553E0,-6.9055776E-4,-2.8424817E-1,2.9596424E-1,2.9998856E0,-2.3894076E-1,1.3697867E-1,-2.8236103E-1,2.036732E-2],"split_indices":[0,0,0,0,0,0,2,2,2,2,0,0,2,0,0,0,0],"split_type":[0,0,0,0,0,0,0,0,0,0,0,0,0,0,0,0,0],"sum_hessian":[5.7571686E2,1.5967458E2,4.1604227E2,9.8491974E1,3.175503E2,1.6220244E2,1.5534785E2,2.2667461E1,1.3268039E2,9.798705E0,1.2868756E1,1.5798803E1,1.1688159E2,2.8060155E0,6.9926896E0,1.4235191E1,1.026464E2],"tree_param":{"num_deleted":"0","num_feature":"3","num_nodes":"17","size_leaf_vector":"0"}},{"base_weights":[-3.6901855E-1,-9.9245256E-1,-1.4834097E-1,9.873401E-1,-4.643539E-1,-9.9259233E-1,-2.1195734E-2,8.729407E-2,-3.8696745E-1,-1.823976E-1,1.0075641E0,-9.636149E-1,3.417612E-1,1.2371421E-1,-7.1480453E-1,9.507764E-1,4.9628668E-2],"categories":[],"categories_nodes":[],"categories_segments":[],"categories_sizes":[],"default_left":[1,0,1,0,1,0,1,1,1,1,0,0,1,0,0,0,0],"id":21,"left_children":[1,-1,3,-1,5,-1,7,9,11,13,-1,-1,15,-1,-1,-1,-1],"loss_changes":[6.285269E1,0E0,1.222593E2,0E0,6.2290752E1,0E0,5.818321E0,2.8288902E1,1.4419222E1,1.4499214E1,0E0,0E0,2.7193527E0,0E0,0E0,0E0,0E0],"parents":[2147483647,0,0,2,2,4,4,6,6,7,7,8,8,9,9,12,12],"right_children":[2,-1,4,-1,6,-1,8,10,12,14,-1,-1,16,-1,-1,-1,-1],"split_conditions":[9.9999994E-1,-2.9773578E-1,1.0000032E0,2.9620203E-1,1.9990461E0,-2.977777E-1,6.0002E0,5.999877E0,8.494396E0,3.0000014E0,3.0226922E-1,-2.8908446E-1,2.0076957E0,3.7114263E-2,-2.1444137E-1,2.8523293E-1,1.48886E-2],"split_indices":[0,0,0,0,0,0,2,2,2,2,0,0,0,0,0,0,0],"split_type":[0,0,0,0,0,0,0,0,0,0,0,0,0,0,0,0,0],"sum_hessian":[4.5692172E2,1.1853954E2,3.3838217E2,7.319849E1,2.651837E2,1.2041309E2,1.4477058E2,1.1224074E2,3.2529846E1,8.74227E1,2.4818043E1,1.797991E1,1.4549936E1,5.599534E1,3.1427357E1,3.985879E0,1.0564056E1],"tree_param":{"num_deleted":"0","num_feature":"3","num_nodes":"17","size_leaf_vector":"0"}},{"base_weights":[-3.4573948E-1,-9.911193E-1,-1.3443042E-1,9.9927187E-1,-4.319694E-1,-9.707882E-1,3.6452193E-2,9.532054E-1,-7.328661E-2,-9.2312473E-1,3.6794066E-2,1.0011663E0,-1.3674851E-1],"categories":[],"categories_nodes":[],"categories_segments":[],"categories_sizes":[],"default_left":[1,0,1,0,1,0,1,0,1,0,1,0,0],"id":22,"left_children":[1,-1,3,-1,5,-1,7,-1,9,-1,11,-1,-1],"loss_changes":[4.9265244E1,0E0,9.2870094E1,0E0,5.4998356E1,0E0,1.1886419E1,0E0,9.934309E0,0E0,1.5978189E1,0E0,0E0],"parents":[2147483647,0,0,2,2,4,4,6,6,8,8,10,10],"right_children":[2,-1,4,-1,6,-1,8,-1,10,-1,12,-1,-1],"split_conditions":[-1.4407971E-6,-2.973358E-1,8.965848E-7,2.9978156E-1,1.999866E0,-2.9123646E-1,2.0002553E0,2.8596163E-1,2.9998856E0,-2.7693743E-1,3.0000014E0,3.0034992E-1,-4.1024555E-2],"split_indices":[2,0,2,0,2,0,2,0,2,0,2,0,0],"split_type":[0,0,0,0,0,0,0,0,0,0,0,0,0],"sum_hessian":[3.6122638E2,8.818907E1,2.7303732E2,5.627109E1,2.1676622E2,1.0030933E2,1.16456894E2,1.1628315E1,1.04828575E2,1.1174441E1,9.365414E1,1.3555809E1,8.009833E1],"tree_param":{"num_deleted":"0","num_feature":"3","num_nodes":"13","size_leaf_vector":"0"}},{"base_weights":[-3.1730646E-1,-9.855516E-1,-1.16220236E-1,9.7653985E-1,-3.6426893E-1,-9.8583174E-1,3.7076557E-3,-1.6107818E-1,2.4818182E-1,1.053096E-2,-9.327419E-1,9.8671967E-1,-3.068639E-1,-4.8781678E-1,1.8783067E-1,-9.4031274E-1,3.1931263E-1],"categories":[],"categories_nodes":[],"categories_segments":[],"categories_sizes":[],"default_left":[1,0,1,0,1,0,1,1,1,1,0,0,1,0,0,0,0],"id":23,"left_children":[1,-1,3,-1,5,-1,7,9,11,13,-1,-1,15,-1,-1,-1,-1],"loss_changes":[3.8945824E1,0E0,6.1229225E1,0E0,4.2033173E1,0E0,4.7301226E0,9.299619E0,1.96798E1,5.2497096E0,0E0,0E0,1.1307447E1,0E0,0E0,0E0,0E0],"parents":[2147483647,0,0,2,2,4,4,6,6,7,7,8,8,9,9,12,12],"right_children":[2,-1,4,-1,6,-1,8,10,12,14,-1,-1,16,-1,-1,-1,-1],"split_conditions":[9.9999994E-1,-2.956655E-1,1.0000032E0,2.9296196E-1,1.9990461E0,-2.9574955E-1,5.999877E0,5.030487E0,6.0002E0,3.999983E0,-2.798226E-1,2.9601592E-1,8.494396E0,-1.4634503E-1,5.6349203E-2,-2.8209382E-1,9.579379E-2],"split_indices":[0,0,0,0,0,0,2,2,2,0,0,0,2,0,0,0,0],"split_type":[0,0,0,0,0,0,0,0,0,0,0,0,0,0,0,0,0],"sum_hessian":[2.8968198E2,6.6104355E1,2.2357762E2,4.0818382E1,1.8275925E2,6.733766E1,1.15421585E2,6.915162E1,4.6269966E1,5.7377808E1,1.1773812E1,1.951963E1,2.6750336E1,1.4597186E1,4.278062E1,1.3048559E1,1.37017765E1],"tree_param":{"num_deleted":"0","num_feature":"3","num_nodes":"17","size_leaf_vector":"0"}},{"base_weights":[-2.946161E-1,-9.823598E-1,-1.06298625E-1,9.860728E-1,-3.408463E-1,-9.419394E-1,4.5162193E-2,-9.8283225E-1,-6.33821E-1,9.201589E-1,-5.5251714E-2,8.52263E-1,-8.983395E-1,-8.9642864E-1,4.684E-2,9.892699E-1,-1.0161268E-1],"categories":[],"categories_nodes":[],"categories_segments":[],"categories_sizes":[],"default_left":[1,0,1,0,1,1,1,0,1,0,1,0,0,0,1,0,0],"id":24,"left_children":[1,-1,3,-1,5,7,9,-1,11,-1,13,-1,-1,-1,15,-1,-1],"loss_changes":[3.0265905E1,0E0,4.7789066E1,0E0,3.5592407E1,1.3254929E-1,8.332147E0,0E0,4.6342793E0,0E0,7.3839827E0,0E0,0E0,0E0,1.09000635E1,0E0,0E0],"parents":[2147483647,0,0,2,2,4,4,5,5,6,6,8,8,10,10,14,14],"right_children":[2,-1,4,-1,6,8,10,-1,12,-1,14,-1,-1,-1,16,-1,-1],"split_conditions":[-1.4407971E-6,-2.9470795E-1,8.965848E-7,2.9582185E-1,1.999866E0,9.995866E-1,2.0002553E0,-2.948497E-1,1.1699805E0,2.7604768E-1,2.9998856E0,2.556789E-1,-2.6950186E-1,-2.6892862E-1,3.0000014E0,2.9678097E-1,-3.0483805E-2],"split_indices":[2,0,2,0,2,2,2,0,2,0,2,0,0,0,2,0,0],"split_type":[0,0,0,0,0,0,0,0,0,0,0,0,0,0,0,0,0],"sum_hessian":[2.3349432E2,4.928539E1,1.8420892E2,3.1994604E1,1.5221432E2,5.8960587E1,9.325374E1,5.01191E1,8.841491E0,8.759621E0,8.449412E1,1.0002233E0,7.8412676E0,8.302844E0,7.619128E1,9.597716E0,6.659356E1],"tree_param":{"num_deleted":"0","num_feature":"3","num_nodes":"17","size_leaf_vector":"0"}},{"base_weights":[-2.6460692E-1,-9.739489E-1,-8.947752E-2,9.585512E-1,-2.7844858E-1,-9.745209E-1,1.0102487E-2,-1.5762354E-1,2.444366E-1,2.6512468E-1,-4.8566225E-1,9.6527183E-1,-2.3951694E-1,-4.2765832E-1,9.478178E-1,-3.7179394E-3,-8.9091814E-1,-9.139401E-1,2.5160754E-1],"categories":[],"categories_nodes":[],"categories_segments":[],"categories_sizes":[],"default_left":[1,0,1,0,1,0,1,1,1,1,1,0,1,0,0,0,0,0,0],"id":25,"left_children":[1,-1,3,-1,5,-1,7,9,11,13,15,-1,17,-1,-1,-1,-1,-1,-1],"loss_changes":[2.3827518E1,0E0,3.1061646E1,0E0,2.6625408E1,0E0,3.7593873E0,7.8647823E0,1.4145015E1,1.2238964E1,6.20048E0,0E0,8.39949E0,0E0,0E0,0E0,0E0,0E0,0E0],"parents":[2147483647,0,0,2,2,4,4,6,6,7,7,8,8,9,9,10,10,12,12],"right_children":[2,-1,4,-1,6,-1,8,10,12,14,16,-1,18,-1,-1,-1,-1,-1,-1],"split_conditions":[9.9999994E-1,-2.9218468E-1,1.0000032E0,2.8756538E-1,1.9990461E0,-2.9235628E-1,5.999877E0,4.000205E0,6.0002E0,3.999983E0,2.0002553E0,2.8958157E-1,8.494396E0,-1.2829751E-1,2.8434536E-1,-1.1153818E-3,-2.6727545E-1,-2.7418202E-1,7.5482264E-2],"split_indices":[0,0,0,0,0,0,2,0,2,0,2,0,2,0,0,0,0,0,0],"split_type":[0,0,0,0,0,0,0,0,0,0,0,0,0,0,0,0,0,0,0],"sum_hessian":[1.9150835E2,3.7016373E1,1.5449197E2,2.2978931E1,1.3151303E2,3.7844173E1,9.366886E1,5.4784145E1,3.888472E1,2.4020441E1,3.0763702E1,1.5220162E1,2.3664558E1,1.2107535E1,1.1912907E1,1.4513236E1,1.6250467E1,9.6087265E0,1.4055832E1],"tree_param":{"num_deleted":"0","num_feature":"3","num_nodes":"19","size_leaf_vector":"0"}},{"base_weights":[-2.4531388E-1,-9.673033E-1,-7.992416E-2,9.656649E-1,-2.6780513E-1,-9.061109E-1,5.0498296E-2,-9.679756E-1,-5.613238E-1,8.903405E-1,-5.0111506E-2,7.541356E-1,-8.630122E-1,-4.304219E-1,1.2514934E-1,2.0937724E-1,-7.472102E-1,9.197837E-1,-9.515763E-2],"categories":[],"categories_nodes":[],"categories_segments":[],"categories_sizes":[],"default_left":[1,0,1,0,1,1,1,0,1,0,1,0,0,1,1,0,0,0,0],"id":26,"left_children":[1,-1,3,-1,5,7,9,-1,11,-1,13,-1,-1,15,17,-1,-1,-1,-1],"loss_changes":[1.8405182E1,0E0,2.521201E1,0E0,2.208185E1,2.2755623E-1,6.2396564E0,0E0,3.7775328E0,0E0,4.4810247E0,0E0,0E0,4.4488864E0,8.182838E0,0E0,0E0,0E0,0E0],"parents":[2147483647,0,0,2,2,4,4,5,5,6,6,8,8,10,10,13,13,14,14],"right_children":[2,-1,4,-1,6,8,10,-1,12,-1,14,-1,-1,16,18,-1,-1,-1,-1],"split_conditions":[-1.4407971E-6,-2.90191E-1,8.965848E-7,2.896995E-1,1.999866E0,9.995866E-1,2.0002553E0,-2.903927E-1,1.175524E0,2.6710215E-1,3.999983E0,2.262407E-1,-2.5890368E-1,2.0076957E0,4.000205E0,6.281318E-2,-2.2416307E-1,2.759351E-1,-2.854729E-2],"split_indices":[2,0,2,0,2,2,2,0,2,0,0,0,0,0,0,0,0,0,0],"split_type":[0,0,0,0,0,0,0,0,0,0,0,0,0,0,0,0,0,0,0],"sum_hessian":[1.5378229E2,2.7758255E1,1.2602403E2,1.8565292E1,1.0745874E2,3.5141495E1,7.2317245E1,2.8262863E1,6.8786325E0,6.8967824E0,6.542046E1,1.003468E0,5.8751645E0,2.0178303E1,4.524216E1,6.7946343E0,1.3383668E1,9.131253E0,3.611091E1],"tree_param":{"num_deleted":"0","num_feature":"3","num_nodes":"19","size_leaf_vector":"0"}},{"base_weights":[-2.1684575E-1,-9.548114E-1,-6.3592605E-2,9.2902505E-1,-2.105037E-1,-9.5604223E-1,2.4179572E-2,-1.7693824E-1,2.6655784E-1,2.4211928E-1,-4.605632E-1,9.44828E-1,-1.5588114E-1,-2.956506E-1,8.8837343E-1,-5.4907394E-3,-8.527679E-1,-8.8152057E-1,2.5956398E-1],"categories":[],"categories_nodes":[],"categories_segments":[],"categories_sizes":[],"default_left":[1,0,1,0,1,0,1,1,1,1,1,0,1,0,0,0,0,0,0],"id":27,"left_children":[1,-1,3,-1,5,-1,7,9,11,13,15,-1,17,-1,-1,-1,-1,-1,-1],"loss_changes":[1.4493591E1,0E0,1.5891207E1,0E0,1.6569824E1,0E0,3.6010106E0,4.918563E0,9.734468E0,6.163868E0,4.36177E0,0E0,6.703271E0,0E0,0E0,0E0,0E0,0E0,0E0],"parents":[2147483647,0,0,2,2,4,4,6,6,7,7,8,8,9,9,10,10,12,12],"right_children":[2,-1,4,-1,6,-1,8,10,12,14,16,-1,18,-1,-1,-1,-1,-1,-1],"split_conditions":[9.9999994E-1,-2.8644344E-1,1.0000032E0,2.7870753E-1,1.9990461E0,-2.868127E-1,5.999877E0,4.000205E0,6.0002E0,3.999983E0,2.0002553E0,2.834484E-1,8.494396E0,-8.869518E-2,2.6651204E-1,-1.6472219E-3,-2.5583038E-1,-2.6445618E-1,7.78692E-2],"split_indices":[0,0,0,0,0,0,2,0,2,0,2,0,2,0,0,0,0,0,0],"split_type":[0,0,0,0,0,0,0,0,0,0,0,0,0,0,0,0,0,0,0],"sum_hessian":[1.2769039E2,2.1058125E1,1.0663227E2,1.3060967E1,9.35713E1,2.1666788E1,7.190451E1,3.9444614E1,3.2459896E1,1.5980166E1,2.3464447E1,1.1983128E1,2.047677E1,9.018273E0,6.9618926E0,1.1331076E1,1.2133371E1,7.046716E0,1.3430055E1],"tree_param":{"num_deleted":"0","num_feature":"3","num_nodes":"19","size_leaf_vector":"0"}},{"base_weights":[-1.9721094E-1,-9.4259536E-1,-5.5846427E-2,9.3343794E-1,-2.0560107E-1,-8.549964E-1,5.372888E-2,-9.4371456E-1,-4.8885924E-1,8.573232E-1,-4.651631E-2,6.7224795E-1,-8.240973E-1,-3.5106006E-1,1.520064E-1,9.8925635E-2,-8.1186754E-1,9.174473E-1,-1.9020708E-1],"categories":[],"categories_nodes":[],"categories_segments":[],"categories_sizes":[],"default_left":[1,0,1,0,1,1,1,0,1,0,1,0,0,1,1,0,0,0,0],"id":28,"left_children":[1,-1,3,-1,5,7,9,-1,11,-1,13,-1,-1,15,17,-1,-1,-1,-1],"loss_changes":[1.1127449E1,0E0,1.3562523E1,0E0,1.3384561E1,2.7479553E-1,4.6752667E0,0E0,3.0821476E0,0E0,3.2037897E0,0E0,0E0,4.4069233E0,8.620392E0,0E0,0E0,0E0,0E0],"parents":[2147483647,0,0,2,2,4,4,5,5,6,6,8,8,10,10,13,13,14,14],"right_children":[2,-1,4,-1,6,8,10,-1,12,-1,14,-1,-1,16,18,-1,-1,-1,-1],"split_conditions":[-1.4407971E-6,-2.8277862E-1,8.965848E-7,2.8003138E-1,1.999866E0,9.995866E-1,2.0002553E0,-2.8311437E-1,1.175524E0,2.57197E-1,5.999877E0,2.0167439E-1,-2.4722919E-1,4.000205E0,6.0002E0,2.9677691E-2,-2.4356027E-1,2.7523422E-1,-5.7062127E-2],"split_indices":[2,0,2,0,2,2,2,0,2,0,2,0,0,0,2,0,0,0,0],"split_type":[0,0,0,0,0,0,0,0,0,0,0,0,0,0,0,0,0,0,0],"sum_hessian":[1.0510224E2,1.585172E1,8.925052E1,1.1046151E1,7.820437E1,2.1662289E1,5.654208E1,1.6167318E1,5.4949713E0,5.4334793E0,5.11086E1,1.0058597E0,4.4891114E0,1.9865528E1,3.1243074E1,1.0448108E1,9.417419E0,9.133325E0,2.2109749E1],"tree_param":{"num_deleted":"0","num_feature":"3","num_nodes":"19","size_leaf_vector":"0"}},{"base_weights":[-1.741593E-1,-9.2378503E-1,-4.342668E-2,8.845889E-1,-1.5953982E-1,-9.2612255E-1,2.7334914E-2,8.405783E-1,-3.5227716E-2,-9.029048E-1,8.17104E-2,1.0828458E0,-6.6676345E-3],"categories":[],"categories_nodes":[],"categories_segments":[],"categories_sizes":[],"default_left":[1,0,1,0,1,0,1,0,1,0,1,0,0],"id":29,"left_children":[1,-1,3,-1,5,-1,7,-1,9,-1,11,-1,-1],"loss_changes":[8.641701E0,0E0,8.382572E0,0E0,9.884858E0,0E0,2.8944335E0,0E0,5.4762034E0,0E0,4.23984E0,0E0,0E0],"parents":[2147483647,0,0,2,2,4,4,6,6,8,8,10,10],"right_children":[2,-1,4,-1,6,-1,8,-1,10,-1,12,-1,-1],"split_conditions":[9.9999994E-1,-2.7713552E-1,1.0000032E0,2.653767E-1,1.9990461E0,-2.7783677E-1,2.0013566E0,2.521735E-1,2.9979768E0,-2.7087146E-1,3.0014184E0,3.2485375E-1,-2.0002904E-3],"split_indices":[0,0,0,0,0,0,0,0,0,0,0,0,0],"split_type":[0,0,0,0,0,0,0,0,0,0,0,0,0],"sum_hessian":[8.7589485E1,1.2106151E1,7.548333E1,7.6581845E0,6.782515E1,1.2518186E1,5.530696E1,3.0624743E0,5.2244488E1,5.4065843E0,4.6837902E1,2.886586E0,4.3951317E1],"tree_param":{"num_deleted":"0","num_feature":"3","num_nodes":"13","size_leaf_vector":"0"}},{"base_weights":[-1.4527732E-1,-9.0399647E-1,-3.1298272E-2,8.8607955E-1,-1.4425251E-1,-8.072057E-1,5.994398E-2,-9.0557325E-1,-4.6907282E-1,-3.2174212E-1,2.320915E-1,4.4528663E-1,-7.778904E-1,2.7191377E-1,-5.8314824E-1,8.5033596E-1,9.0172E-2,-3.610811E-1,7.696266E-1,2.778661E-1,-6.9548863E-1,-7.673903E-1,2.2915424E-1],"categories":[],"categories_nodes":[],"categories_segments":[],"categories_sizes":[],"default_left":[1,0,1,0,1,1,1,0,1,1,1,0,0,1,1,0,1,0,0,0,0,0,0],"id":30,"left_children":[1,-1,3,-1,5,7,9,-1,11,13,15,-1,-1,17,19,-1,21,-1,-1,-1,-1,-1,-1],"loss_changes":[6.7668366E0,0E0,7.313954E0,0E0,8.523661E0,6.788063E-2,3.280822E0,0E0,1.8747249E0,2.5772846E0,2.9248655E0,0E0,0E0,1.9939375E0,1.2707028E0,0E0,3.625217E0,0E0,0E0,0E0,0E0,0E0,0E0],"parents":[2147483647,0,0,2,2,4,4,5,5,6,6,8,8,9,9,10,10,13,13,14,14,16,16],"right_children":[2,-1,4,-1,6,8,10,-1,12,14,16,-1,-1,18,20,-1,22,-1,-1,-1,-1,-1,-1],"split_conditions":[-1.4407971E-6,-2.7119896E-1,8.965848E-7,2.6582387E-1,1.999866E0,9.995866E-1,3.999983E0,-2.7167198E-1,1.193012E0,2.0076957E0,4.000205E0,1.3358599E-1,-2.3336713E-1,1.9975004E0,2.2574275E0,2.551008E-1,4.9991245E0,-1.08324334E-1,2.30888E-1,8.335983E-2,-2.086466E-1,-2.302171E-1,6.8746276E-2],"split_indices":[2,0,2,0,2,2,0,0,2,0,0,0,0,0,2,0,0,0,0,0,0,0,0],"split_type":[0,0,0,0,0,0,0,0,0,0,0,0,0,0,0,0,0,0,0,0,0,0,0],"sum_hessian":[7.7576324E1,9.2266245E0,6.83497E1,6.7427416E0,6.1606956E1,1.3811821E1,4.7795135E1,9.39928E0,4.412541E0,1.4586005E1,3.3209133E1,1.0024723E0,3.4100685E0,4.446886E0,1.0139119E1,5.268083E0,2.794105E1,2.0782595E0,2.3686264E0,1.0001566E0,9.138963E0,3.266188E0,2.4674862E1],"tree_param":{"num_deleted":"0","num_feature":"3","num_nodes":"23","size_leaf_vector":"0"}},{"base_weights":[-1.2871695E-1,-8.764926E-1,-2.8036771E-2,8.235758E-1,-1.1261251E-1,-8.804758E-1,1.975345E-2,-6.242437E-2,5.576451E-1,7.2031987E-1,-1.1805595E-1,1.10642985E-1,8.228328E-1,4.6951834E-2,-5.2337986E-1,4.1143048E-1,-1.6118118E-1,2.3625977E-1,9.9050355E-1],"categories":[],"categories_nodes":[],"categories_segments":[],"categories_sizes":[],"default_left":[1,0,1,0,1,0,1,1,1,0,1,1,1,0,0,0,0,0,0],"id":31,"left_children":[1,-1,3,-1,5,-1,7,9,11,-1,13,15,17,-1,-1,-1,-1,-1,-1],"loss_changes":[5.1312933E0,0E0,4.514418E0,0E0,5.7827463E0,0E0,2.2167237E0,1.9887916E0,6.963639E-1,0E0,2.8120034E0,3.6300585E-1,1.607461E-1,0E0,0E0,0E0,0E0,0E0,0E0],"parents":[2147483647,0,0,2,2,4,4,6,6,7,7,8,8,10,10,11,11,12,12],"right_children":[2,-1,4,-1,6,-1,8,10,12,-1,14,16,18,-1,-1,-1,-1,-1,-1],"split_conditions":[9.9999994E-1,-2.629478E-1,1.0000032E0,2.4707274E-1,1.9990461E0,-2.6414275E-1,2.0108941E4,2.0013566E0,1.8895452E1,2.1609597E-1,6.0002E0,5.6502485E0,4.6081984E4,1.4085551E-2,-1.5701397E-1,1.2342915E-1,-4.8354357E-2,7.087793E-2,2.971511E-1],"split_indices":[0,0,0,0,0,0,1,0,2,0,2,2,1,0,0,0,0,0,0],"split_type":[0,0,0,0,0,0,0,0,0,0,0,0,0,0,0,0,0,0,0],"sum_hessian":[6.7483574E1,7.0934105E0,6.0390163E1,4.6663074E0,5.5723854E1,7.362382E0,4.8361473E1,4.271892E1,5.6425505E0,2.0418444E0,4.067708E1,2.6287458E0,3.013805E0,2.9536785E1,1.1140293E1,1.0040841E0,1.6246616E0,1.205522E0,1.8082829E0],"tree_param":{"num_deleted":"0","num_feature":"3","num_nodes":"19","size_leaf_vector":"0"}},{"base_weights":[-1.0187331E-1,-8.496881E-1,-1.414056E-2,8.214882E-1,-9.654042E-2,-7.3887086E-1,5.954662E-2,-8.522935E-1,-4.225904E-1,7.918106E-1,-2.6723174E-2,3.708926E-1,-7.3555076E-1,-3.456424E-1,1.914497E-1,5.839337E-2,-7.6078844E-1,8.7584287E-1,-1.0280989E-1],"categories":[],"categories_nodes":[],"categories_segments":[],"categories_sizes":[],"default_left":[1,0,1,0,1,1,1,0,1,0,1,0,0,1,1,0,0,0,0],"id":32,"left_children":[1,-1,3,-1,5,7,9,-1,11,-1,13,-1,-1,15,17,-1,-1,-1,-1],"loss_changes":[4.1062183E0,0E0,4.017607E0,0E0,5.3534856E0,1.3899803E-2,2.7710452E0,0E0,1.448859E0,0E0,2.8430529E0,0E0,0E0,2.8234599E0,4.992126E0,0E0,0E0,0E0,0E0],"parents":[2147483647,0,0,2,2,4,4,5,5,6,6,8,8,10,10,13,13,14,14],"right_children":[2,-1,4,-1,6,8,10,-1,12,-1,14,-1,-1,16,18,-1,-1,-1,-1],"split_conditions":[-1.4407971E-6,-2.5490645E-1,8.965848E-7,2.4644648E-1,1.999866E0,9.995866E-1,2.0002553E0,-2.5568807E-1,1.2169781E0,2.3754318E-1,5.999877E0,1.1126779E-1,-2.2066523E-1,4.000205E0,6.0002E0,1.7518012E-2,-2.2823654E-1,2.6275286E-1,-3.084297E-2],"split_indices":[2,0,2,0,2,2,2,0,2,0,2,0,0,0,2,0,0,0,0],"split_type":[0,0,0,0,0,0,0,0,0,0,0,0,0,0,0,0,0,0,0],"sum_hessian":[6.177044E1,5.5739913E0,5.619645E1,4.238965E0,5.195748E1,9.427531E0,4.2529953E1,5.6916766E0,3.7358544E0,3.6205096E0,3.8909443E1,1.0043371E0,2.7315176E0,1.5568123E1,2.334132E1,8.325133E0,7.2429895E0,6.4239573E0,1.6917362E1],"tree_param":{"num_deleted":"0","num_feature":"3","num_nodes":"19","size_leaf_vector":"0"}},{"base_weights":[-8.6757675E-2,-8.1351584E-1,-8.422423E-3,7.7885836E-1,-8.065832E-2,-6.952615E-1,5.5291757E-2,-8.1650585E-1,-3.7386358E-1,-2.9344144E-1,2.0453191E-1,3.2284534E-1,-6.927413E-1,4.652783E-2,-8.0067664E-1,8.05479E-1,7.3589735E-2,-2.4817E-1,8.578832E-1,-1.4504766E-1,6.0329914E-1],"categories":[],"categories_nodes":[],"categories_segments":[],"categories_sizes":[],"default_left":[1,0,1,0,1,1,1,0,1,1,1,0,0,1,0,0,1,0,0,0,0],"id":33,"left_children":[1,-1,3,-1,5,7,9,-1,11,13,15,-1,-1,17,-1,-1,19,-1,-1,-1,-1],"loss_changes":[3.1143014E0,0E0,2.9347413E0,0E0,3.979065E0,3.049326E-2,2.118168E0,0E0,1.1577842E0,2.1518264E0,2.166314E0,0E0,0E0,2.1943011E0,0E0,0E0,2.9045324E0,0E0,0E0,0E0,0E0],"parents":[2147483647,0,0,2,2,4,4,5,5,6,6,8,8,9,9,10,10,13,13,16,16],"right_children":[2,-1,4,-1,6,8,10,-1,12,14,16,-1,-1,18,-1,-1,20,-1,-1,-1,-1],"split_conditions":[-1.4407971E-6,-2.4405476E-1,8.965848E-7,2.3365752E-1,1.999866E0,9.995866E-1,3.999983E0,-2.4495177E-1,4.0894136E0,3.0014184E0,4.000205E0,9.685361E-2,-2.078224E-1,2.9979768E0,-2.4020301E-1,2.4164371E-1,1.8995749E1,-7.445101E-2,2.57365E-1,-4.35143E-2,1.8098974E-1],"split_indices":[2,0,2,0,2,2,0,0,0,0,0,0,0,0,0,0,2,0,0,0,0],"split_type":[0,0,0,0,0,0,0,0,0,0,0,0,0,0,0,0,0,0,0,0,0],"sum_hessian":[5.3823654E1,4.323857E0,4.9499794E1,3.3379683E0,4.6161827E1,7.6162386E0,3.854559E1,4.4115424E0,3.204696E0,1.1262346E1,2.7283243E1,1.0023158E0,2.2023802E0,7.2867484E0,3.9755979E0,3.9596024E0,2.332364E1,5.8544455E0,1.4323032E0,1.7023409E1,6.300232E0],"tree_param":{"num_deleted":"0","num_feature":"3","num_nodes":"21","size_leaf_vector":"0"}},{"base_weights":[-7.179758E-2,-7.756391E-1,-3.5517854E-3,7.1147585E-1,-5.9093602E-2,-7.841337E-1,2.4424233E-2,6.8632317E-1,-2.3638356E-2,-7.6352984E-1,5.5132832E-2,9.293024E-1,-1.8581849E-2],"categories":[],"categories_nodes":[],"categories_segments":[],"categories_sizes":[],"default_left":[1,0,1,0,1,0,1,0,1,0,1,0,0],"id":34,"left_children":[1,-1,3,-1,5,-1,7,-1,9,-1,11,-1,-1],"loss_changes":[2.4215684E0,0E0,1.9091614E0,0E0,2.7167473E0,0E0,1.3178991E0,0E0,2.3217273E0,0E0,2.3553057E0,0E0,0E0],"parents":[2147483647,0,0,2,2,4,4,6,6,8,8,10,10],"right_children":[2,-1,4,-1,6,-1,8,-1,10,-1,12,-1,-1],"split_conditions":[9.9999994E-1,-2.3269175E-1,1.0000032E0,2.1344276E-1,1.9990461E0,-2.3524012E-1,2.0013566E0,2.0589696E-1,2.9979768E0,-2.2905897E-1,3.0014184E0,2.7879074E-1,-5.5745547E-3],"split_indices":[0,0,0,0,0,0,0,0,0,0,0,0,0],"split_type":[0,0,0,0,0,0,0,0,0,0,0,0,0],"sum_hessian":[4.947075E1,3.4565742E0,4.601417E1,2.465419E0,4.3548756E1,3.631752E0,3.9917004E1,1.8032721E0,3.811373E1,2.8308425E0,3.5282887E1,1.8412365E0,3.344165E1],"tree_param":{"num_deleted":"0","num_feature":"3","num_nodes":"13","size_leaf_vector":"0"}},{"base_weights":[-5.618021E-2,-7.346638E-1,2.1711441E-3,7.020873E-1,-5.1935185E-2,-6.4430267E-1,5.3486403E-2,7.395082E-1,-2.342323E-2,-3.1349915E-1,1.5085389E-1,5.2486822E-2,-6.9477415E-1,8.4018886E-1,-1.0114308E-1],"categories":[],"categories_nodes":[],"categories_segments":[],"categories_sizes":[],"default_left":[1,0,1,0,1,0,1,0,1,1,1,0,0,0,0],"id":35,"left_children":[1,-1,3,-1,5,-1,7,-1,9,11,13,-1,-1,-1,-1],"loss_changes":[1.876066E0,0E0,1.7252386E0,0E0,2.6776073E0,0E0,1.9618108E0,0E0,1.7715893E0,1.8681009E0,3.9035103E0,0E0,0E0,0E0,0E0],"parents":[2147483647,0,0,2,2,4,4,6,6,8,8,9,9,10,10],"right_children":[2,-1,4,-1,6,-1,8,-1,10,12,14,-1,-1,-1,-1],"split_conditions":[-1.4407971E-6,-2.2039914E-1,8.965848E-7,2.106262E-1,1.999866E0,-1.9329081E-1,2.0002553E0,2.2185247E-1,5.999877E0,4.000205E0,6.0002E0,1.5746048E-2,-2.0843226E-1,2.5205666E-1,-3.0342923E-2],"split_indices":[2,0,2,0,2,0,2,0,2,0,2,0,0,0,0],"split_type":[0,0,0,0,0,0,0,0,0,0,0,0,0,0,0],"sum_hessian":[4.6346554E1,2.7524097E0,4.3594143E1,2.268816E0,4.132533E1,5.4711385E0,3.585419E1,2.7459006E0,3.3108288E1,1.2126107E1,2.0982182E1,6.6270957E0,5.499012E0,4.992133E0,1.5990047E1],"tree_param":{"num_deleted":"0","num_feature":"3","num_nodes":"15","size_leaf_vector":"0"}},{"base_weights":[-4.2711794E-2,-1.4985958E-1,3.076794E-1,-2.167444E-2,-5.962454E-1,-1.5661378E-1,4.5236915E-1,-1.9552287E-1,8.009396E-1,1.9091935E-1,-8.420029E-1,3.4151697E-1,-5.5462384E-1,1.1750213E0,1.8576127E-1,-4.17899E-1,5.0894428E-2,-6.3586843E-1,4.822887E-1,-1.7369293E-1,-6.976727E-1,7.5930804E-1,-2.8494006E-1,2.6127817E-2,6.429839E-1,-4.540337E-1,8.054446E-1,-1.863263E-1,-7.721812E-1,-7.599186E-1,1.165626E-1,8.223256E-1,1.2963028E-1],"categories":[],"categories_nodes":[],"categories_segments":[],"categories_sizes":[],"default_left":[1,1,1,1,1,1,1,1,0,0,0,0,0,0,1,1,1,0,1,1,1,0,1,0,1,0,0,0,0,0,0,0,0],"id":36,"left_children":[1,3,5,7,9,11,13,15,-1,-1,-1,-1,-1,-1,17,19,21,-1,23,25,27,-1,29,-1,31,-1,-1,-1,-1,-1,-1,-1,-1],"loss_changes":[1.6469619E0,1.8940346E0,7.636615E-1,4.007776E0,1.5917902E0,8.2248646E-1,1.346148E0,1.2835197E0,0E0,0E0,0E0,0E0,0E0,0E0,2.0412016E0,7.134917E-1,3.028031E0,0E0,4.0835917E-1,2.5216851E0,6.042075E-2,0E0,1.7562139E0,0E0,2.8437936E-1,0E0,0E0,0E0,0E0,0E0,0E0,0E0,0E0],"parents":[2147483647,0,0,1,1,2,2,3,3,4,4,5,5,6,6,7,7,14,14,15,15,16,16,18,18,19,19,20,20,22,22,24,24],"right_children":[2,4,6,8,10,12,14,16,-1,-1,-1,-1,-1,-1,18,20,22,-1,24,26,28,-1,30,-1,32,-1,-1,-1,-1,-1,-1,-1,-1],"split_conditions":[1.8995749E1,6.0002E0,2.9614725E0,5.999877E0,2.035039E0,2.0076957E0,8.014137E0,2.9439998E3,2.402819E-1,5.727581E-2,-2.5260088E-1,1.02455094E-1,-1.6638716E-1,3.525064E-1,1.0852E4,3.0020885E0,2.9440005E3,-1.9076054E-1,3.5861458E1,2.9979768E0,2.4363923E0,2.2779243E-1,1.6998486E1,7.838345E-3,4.1061817E1,-1.3621011E-1,2.4163339E-1,-5.589789E-2,-2.3165438E-1,-2.2797558E-1,3.4968782E-2,2.4669768E-1,3.8889088E-2],"split_indices":[2,2,0,2,0,0,0,1,0,0,0,0,0,0,1,0,1,0,2,0,2,0,0,0,2,0,0,0,0,0,0,0,0],"split_type":[0,0,0,0,0,0,0,0,0,0,0,0,0,0,0,0,0,0,0,0,0,0,0,0,0,0,0,0,0,0,0,0,0],"sum_hessian":[4.1639797E1,3.232675E1,9.313044E0,2.592937E1,6.397381E0,2.1931288E0,7.1199145E0,2.2034904E1,3.8944662E0,1.5751842E0,4.8221965E0,1.0370919E0,1.156037E0,1.000558E0,6.1193566E0,1.1216668E1,1.0818237E1,1.319328E0,4.800029E0,6.854454E0,4.3622136E0,3.0736601E0,7.7445774E0,1.5533035E0,3.246725E0,5.7456784E0,1.1087759E0,1.000003E0,3.3622105E0,3.1387467E0,4.6058307E0,1.9600915E0,1.2866336E0],"tree_param":{"num_deleted":"0","num_feature":"3","num_nodes":"33","size_leaf_vector":"0"}},{"base_weights":[-3.190647E-2,-6.722341E-1,2.2699527E-2,6.502639E-1,-2.9965721E-2,-6.8633723E-1,3.5718817E-2,6.186747E-1,-1.1153394E-2,-6.6248304E-1,5.3046886E-2,7.779433E-1,-9.187526E-3],"categories":[],"categories_nodes":[],"categories_segments":[],"categories_sizes":[],"default_left":[1,0,1,0,1,0,1,0,1,0,1,0,0],"id":37,"left_children":[1,-1,3,-1,5,-1,7,-1,9,-1,11,-1,-1],"loss_changes":[1.3582816E0,0E0,1.2211771E0,0E0,1.5119219E0,0E0,8.8980603E-1,0E0,1.3268067E0,0E0,1.3174189E0,0E0,0E0],"parents":[2147483647,0,0,2,2,4,4,6,6,8,8,10,10],"right_children":[2,-1,4,-1,6,-1,8,-1,10,-1,12,-1,-1],"split_conditions":[9.9999994E-1,-2.0167024E-1,1.0000032E0,1.9507918E-1,1.9990461E0,-2.0590118E-1,2.0013566E0,1.8560241E-1,2.9979768E0,-1.9874492E-1,3.0014184E0,2.33383E-1,-2.756258E-3],"split_indices":[0,0,0,0,0,0,0,0,0,0,0,0,0],"split_type":[0,0,0,0,0,0,0,0,0,0,0,0,0],"sum_hessian":[3.7409676E1,2.0507922E0,3.5358883E1,1.859057E0,3.3499825E1,2.1878743E0,3.131195E1,1.4223846E0,2.9889566E1,1.8456751E0,2.804389E1,1.3080242E0,2.6735867E1],"tree_param":{"num_deleted":"0","num_feature":"3","num_nodes":"13","size_leaf_vector":"0"}},{"base_weights":[-2.4256472E-2,-2.669698E-1,9.751111E-2,-7.158719E-2,-7.25065E-1,7.168867E-1,-2.2170162E-3,-2.541029E-1,7.045136E-1,-1.8539837E-1,3.3811703E-1,-6.263578E-1,-7.659414E-2,3.831146E-2,-7.75119E-1,8.7244254E-1,1.3823757E-1,6.0583675E-1,-3.7705526E-1,-2.6308736E-1,7.4531513E-1,-5.817737E-1,3.6777982E-1,-6.404064E-1,-7.933772E-2,5.9277352E-2,-7.379881E-1,6.527118E-1,1.012807E-1],"categories":[],"categories_nodes":[],"categories_segments":[],"categories_sizes":[],"default_left":[1,1,1,1,0,0,1,1,0,1,1,0,1,1,0,0,1,0,1,1,0,0,1,0,0,0,0,0,0],"id":38,"left_children":[1,3,5,7,-1,-1,9,11,-1,13,15,-1,17,19,-1,-1,21,-1,23,25,-1,-1,27,-1,-1,-1,-1,-1,-1],"loss_changes":[1.107026E0,1.0657351E0,1.5513197E0,1.5761358E0,0E0,0E0,1.4720418E0,5.2823985E-1,0E0,2.053738E0,7.620294E-1,0E0,1.6727431E0,2.7692947E0,0E0,0E0,1.40438E0,0E0,3.8096595E-1,1.453032E0,0E0,0E0,3.9513475E-1,0E0,0E0,0E0,0E0,0E0,0E0],"parents":[2147483647,0,0,1,1,2,2,3,3,6,6,7,7,9,9,10,10,12,12,13,13,16,16,18,18,19,19,22,22],"right_children":[2,4,6,8,-1,-1,10,12,-1,14,16,-1,18,20,-1,-1,22,-1,24,26,-1,-1,28,-1,-1,-1,-1,-1,-1],"split_conditions":[3.999983E0,3.0014184E0,4.000205E0,2.9979768E0,-2.175195E-1,2.1506602E-1,1.8995749E1,9.9999994E-1,2.1135409E-1,6.0002E0,8.014137E0,-1.8790735E-1,1.0000032E0,5.999877E0,-2.325357E-1,2.617328E-1,1.0852E4,1.8175103E-1,1.9990461E0,3.0000014E0,2.2359455E-1,-1.7453212E-1,2.3768129E4,-1.9212194E-1,-2.3801317E-2,1.7783206E-2,-2.2139645E-1,1.9581355E-1,3.038421E-2],"split_indices":[0,0,0,0,0,0,2,0,0,2,0,0,0,2,0,0,1,0,0,2,0,0,1,0,0,0,0,0,0],"split_type":[0,0,0,0,0,0,0,0,0,0,0,0,0,0,0,0,0,0,0,0,0,0,0,0,0,0,0,0,0],"sum_hessian":[3.557613E1,1.1487068E1,2.408906E1,8.863121E0,2.623947E0,2.4825327E0,2.1606527E1,7.7201605E0,1.1429604E0,1.4342219E1,7.2643085E0,1.6762601E0,6.0439005E0,1.10757E1,3.2665195E0,1.0615879E0,6.20272E0,1.536874E0,4.507026E0,8.20553E0,2.8701699E0,1.128483E0,5.0742373E0,1.7807654E0,2.7262607E0,5.409034E0,2.7964962E0,1.7519273E0,3.32231E0],"tree_param":{"num_deleted":"0","num_feature":"3","num_nodes":"29","size_leaf_vector":"0"}},{"base_weights":[-2.113031E-2,-9.801893E-2,3.2079935E-1,-1.681553E-1,2.9774502E-1,6.5661424E-1,-3.9054245E-2,-5.6193605E-2,-4.6145052E-1,5.7556117E-1,-1.07312135E-1,1.0769192E0,6.897457E-3,-4.3509263E-1,3.5911024E-1,-1.9630387E-1,6.8860877E-1,1.8501808E-1,-6.8010634E-1,-1.09252706E-1,-6.1814344E-1,-7.932025E-1,-1.152664E-1,-2.013718E-1,5.1940393E-1],"categories":[],"categories_nodes":[],"categories_segments":[],"categories_sizes":[],"default_left":[1,1,1,1,1,1,1,1,1,0,0,0,0,0,0,1,0,0,1,1,0,0,0,0,0],"id":39,"left_children":[1,3,5,7,9,11,13,15,17,-1,-1,-1,-1,-1,-1,19,-1,-1,21,23,-1,-1,-1,-1,-1],"loss_changes":[9.025504E-1,8.221952E-1,7.8900516E-1,7.7099377E-1,5.7361096E-1,9.002143E-1,7.859236E-1,2.0868566E0,1.0539738E0,0E0,0E0,0E0,0E0,0E0,0E0,5.390848E-1,0E0,0E0,2.3566794E-1,9.679495E-1,0E0,0E0,0E0,0E0,0E0],"parents":[2147483647,0,0,1,1,2,2,3,3,4,4,5,5,6,6,7,7,8,8,15,15,18,18,19,19],"right_children":[2,4,6,8,10,12,14,16,18,-1,-1,-1,-1,-1,-1,20,-1,-1,22,24,-1,-1,-1,-1,-1],"split_conditions":[2.0108941E4,2.999702E1,3.6077293E1,6.0002E0,4.205773E1,3.3630222E2,4.0870106E1,5.999877E0,2.0076957E0,1.7266835E-1,-3.2193642E-2,3.2307577E-1,2.0692372E-3,-1.305278E-1,1.0773308E-1,5.030487E0,2.0658264E-1,5.5505425E-2,2.4926247E1,3.9996552E0,-1.8544304E-1,-2.3796077E-1,-3.457992E-2,-6.0411543E-2,1.5582119E-1],"split_indices":[1,2,2,2,2,0,2,2,0,0,0,0,0,0,0,2,0,0,2,2,0,0,0,0,0],"split_type":[0,0,0,0,0,0,0,0,0,0,0,0,0,0,0,0,0,0,0,0,0,0,0,0,0],"sum_hessian":[3.213387E1,2.681696E1,5.3169074E0,2.3268484E1,3.548475E0,2.3237326E0,2.993175E0,1.770241E1,5.5660753E0,1.8551482E0,1.6933267E0,1.011723E0,1.3120096E0,1.4540968E0,1.5390782E0,1.551938E1,2.1830301E0,1.4456794E0,4.1203957E0,1.3908252E1,1.6111274E0,3.096164E0,1.0242318E0,1.2723514E1,1.1847385E0],"tree_param":{"num_deleted":"0","num_feature":"3","num_nodes":"25","size_leaf_vector":"0"}},{"base_weights":[-7.932629E-3,-5.77108E-1,3.6349647E-2,6.260546E-1,-1.8583298E-2,-5.5282277E-1,7.450654E-2,6.825142E-1,-9.432705E-3,-6.163864E-1,6.364589E-2,9.4260126E-1,-3.7440956E-2],"categories":[],"categories_nodes":[],"categories_segments":[],"categories_sizes":[],"default_left":[1,0,1,0,1,0,1,0,1,0,1,0,0],"id":40,"left_children":[1,-1,3,-1,5,-1,7,-1,9,-1,11,-1,-1],"loss_changes":[8.232939E-1,0E0,9.988594E-1,0E0,1.4759425E0,0E0,1.3052855E0,0E0,1.074877E0,0E0,1.9674532E0,0E0,0E0],"parents":[2147483647,0,0,2,2,4,4,6,6,8,8,10,10],"right_children":[2,-1,4,-1,6,-1,8,-1,10,-1,12,-1,-1],"split_conditions":[-1.4407971E-6,-1.7313242E-1,8.965848E-7,1.8781638E-1,1.999866E0,-1.6584684E-1,2.0002553E0,2.0475426E-1,2.9998856E0,-1.8491593E-1,3.0000014E0,2.8278038E-1,-1.1232287E-2],"split_indices":[2,0,2,0,2,0,2,0,2,0,2,0,0],"split_type":[0,0,0,0,0,0,0,0,0,0,0,0,0],"sum_hessian":[3.0832413E1,1.357068E0,2.9475346E1,1.6257901E0,2.7849556E1,3.399774E0,2.4449781E1,2.1009147E0,2.2348867E1,1.6027416E0,2.0746124E1,1.2812161E0,1.9464909E1],"tree_param":{"num_deleted":"0","num_feature":"3","num_nodes":"13","size_leaf_vector":"0"}},{"base_weights":[-1.7967369E-4,-5.5440683E-2,4.0126544E-1,-5.3750235E-1,-1.3256698E-2,-2.2012004E-1,7.8409815E-1,5.3417015E-1,-5.996395E-2,-5.5479366E-1,-1.03908265E-2,1.8834423E-1,-1.01869926E-1,-5.291433E-2,9.143345E-1,-6.2485623E-1,-3.393785E-3],"categories":[],"categories_nodes":[],"categories_segments":[],"categories_sizes":[],"default_left":[1,1,1,0,1,0,0,0,1,0,1,1,1,0,0,0,0],"id":41,"left_children":[1,3,5,-1,7,-1,-1,-1,9,-1,11,13,15,-1,-1,-1,-1],"loss_changes":[6.8615E-1,5.4567444E-1,1.0628879E0,0E0,6.973862E-1,0E0,0E0,0E0,6.044381E-1,0E0,4.487725E-1,1.4144416E0,8.6465967E-1,0E0,0E0,0E0,0E0],"parents":[2147483647,0,0,1,1,2,2,4,4,8,8,10,10,11,11,12,12],"right_children":[2,4,6,-1,8,-1,-1,-1,10,-1,12,14,16,-1,-1,-1,-1],"split_conditions":[4.1977673E1,9.9999994E-1,4.4799768E2,-1.6125071E-1,1.0000032E0,-6.6036016E-2,2.3522945E-1,1.6025105E-1,1.9990461E0,-1.664381E-1,3.0000014E0,2.9989438E0,3.9996552E0,-1.58743E-2,2.7430037E-1,-1.8745688E-1,-1.0181356E-3],"split_indices":[2,0,1,0,0,0,0,0,0,0,2,2,2,0,0,0,0],"split_type":[0,0,0,0,0,0,0,0,0,0,0,0,0,0,0,0,0],"sum_hessian":[2.892678E1,2.6184277E1,2.7425046E0,1.1621245E0,2.5022152E1,1.2075394E0,1.5349652E0,1.1466318E0,2.387552E1,1.2460692E0,2.2629452E1,6.7993126E0,1.5830138E1,5.7992425E0,1.00007E0,1.6614213E0,1.4168717E1],"tree_param":{"num_deleted":"0","num_feature":"3","num_nodes":"17","size_leaf_vector":"0"}},{"base_weights":[1.0109091E-3,-5.020067E-1,3.689491E-2,5.568469E-1,-7.642052E-3,-4.503268E-1,6.348765E-2,-1.255692E-1,-5.815625E-1,6.3941604E-1,-1.03875855E-2,-5.679277E-1,5.1675156E-2,6.9151634E-1,-1.5108826E-2],"categories":[],"categories_nodes":[],"categories_segments":[],"categories_sizes":[],"default_left":[1,0,1,0,1,1,1,0,0,0,1,0,1,0,0],"id":42,"left_children":[1,-1,3,-1,5,7,9,-1,-1,-1,11,-1,13,-1,-1],"loss_changes":[5.430978E-1,0E0,6.540044E-1,0E0,8.73447E-1,9.05444E-2,1.0274743E0,0E0,0E0,0E0,7.992321E-1,0E0,9.0512645E-1,0E0,0E0],"parents":[2147483647,0,0,2,2,4,4,5,5,6,6,10,10,12,12],"right_children":[2,-1,4,-1,6,8,10,-1,-1,-1,12,-1,14,-1,-1],"split_conditions":[-1.4407971E-6,-1.5060201E-1,8.965848E-7,1.6705409E-1,1.999866E0,3.0037866E0,2.0002553E0,-3.767076E-2,-1.7446876E-1,1.9182482E-1,2.9998856E0,-1.7037833E-1,3.1156845E0,2.074549E-1,-4.532648E-3],"split_indices":[2,0,2,0,2,0,2,0,0,0,2,0,2,0,0],"split_type":[0,0,0,0,0,0,0,0,0,0,0,0,0,0,0],"sum_hessian":[2.8061943E1,1.0036194E0,2.7058323E1,1.2272792E0,2.5831045E1,2.8379064E0,2.2993137E1,1.3799314E0,1.4579749E0,1.7437309E0,2.1249407E1,1.3120202E0,1.9937387E1,1.0001988E0,1.8937187E1],"tree_param":{"num_deleted":"0","num_feature":"3","num_nodes":"15","size_leaf_vector":"0"}},{"base_weights":[1.7353873E-3,-3.772602E-2,4.6188456E-1,1.3021478E-2,-6.340991E-1,-7.531585E-2,2.9938677E-1,-1.3450123E-1,3.8093287E-1,5.8179194E-1,5.7213787E-2,-1.6581299E-2,-3.9676502E-1,-4.100439E-1,4.5668057E-1,-1.6859375E-1,6.4603955E-1,1.9170743E-1,-6.1504143E-1],"categories":[],"categories_nodes":[],"categories_segments":[],"categories_sizes":[],"default_left":[1,1,0,1,0,1,1,1,0,0,1,1,1,0,0,0,0,0,0],"id":43,"left_children":[1,3,-1,5,-1,7,9,11,-1,-1,13,15,17,-1,-1,-1,-1,-1,-1],"loss_changes":[5.2366817E-1,8.133553E-1,0E0,6.675105E-1,0E0,5.989732E-1,3.9153928E-1,5.715549E-1,0E0,0E0,1.0184538E0,1.5129861E0,8.570882E-1,0E0,0E0,0E0,0E0,0E0,0E0],"parents":[2147483647,0,0,1,1,3,3,5,5,6,6,7,7,10,10,11,11,12,12],"right_children":[2,4,-1,6,-1,8,10,12,-1,-1,14,16,18,-1,-1,-1,-1,-1,-1],"split_conditions":[4.2979584E1,4.205773E1,1.3856538E-1,2.999702E1,-1.9022974E-1,2.0108941E4,8.017932E1,6.0002E0,1.14279866E-1,1.7453758E-1,4.6081984E4,5.999877E0,2.0076957E0,-1.23013176E-1,1.3700418E-1,-5.057813E-2,1.9381188E-1,5.751223E-2,-1.8451244E-1],"split_indices":[2,2,0,2,0,1,0,2,0,0,1,2,0,0,0,0,0,0,0],"split_type":[0,0,0,0,0,0,0,0,0,0,0,0,0,0,0,0,0,0,0],"sum_hessian":[2.6879692E1,2.5602121E1,1.2775697E0,2.449585E1,1.106273E0,1.928412E1,5.211729E0,1.7694021E1,1.5900978E0,1.7585957E0,3.4531333E0,1.2939392E1,4.7546296E0,1.5793196E0,1.8738136E0,1.1131313E1,1.8080794E0,1.3193603E0,3.4352696E0],"tree_param":{"num_deleted":"0","num_feature":"3","num_nodes":"19","size_leaf_vector":"0"}},{"base_weights":[8.955335E-3,-3.1084743E-1,5.6249242E-2,2.8154072E-1,-1.8332502E-2,1.9382399E-2,7.611347E-1,2.338089E-1,-1.2946972E-1,2.638261E-1,-2.0567882E-1,-1.5381768E-1,4.4674414E-1,-3.6667946E-1,9.088159E-2,1.6396777E-1,-4.5265722E-1,7.257693E-3,6.552292E-1,-9.858003E-2,-7.0330095E-1,-3.1720814E-1,2.5940585E-1,-3.7636137E-1,5.048233E-1,6.030283E-1,-1.1432579E-2],"categories":[],"categories_nodes":[],"categories_segments":[],"categories_sizes":[],"default_left":[1,0,1,1,1,1,0,1,1,0,1,0,1,1,1,0,0,0,0,1,0,0,1,0,0,0,0],"id":44,"left_children":[1,-1,3,5,7,9,-1,11,13,-1,15,-1,17,19,21,-1,-1,-1,-1,23,-1,-1,25,-1,-1,-1,-1],"loss_changes":[4.2668337E-1,0E0,4.1541708E-1,7.564348E-1,5.7061E-1,3.2889676E-1,0E0,5.8503747E-1,7.665093E-1,0E0,3.6280027E-1,0E0,3.8865477E-1,5.5822843E-1,6.375104E-1,0E0,0E0,0E0,0E0,1.0337406E0,0E0,0E0,5.8984864E-1,0E0,0E0,0E0,0E0],"parents":[2147483647,0,0,2,2,3,3,4,4,5,5,7,7,8,8,10,10,12,12,13,13,14,14,19,19,22,22],"right_children":[2,-1,4,6,8,10,-1,12,14,-1,16,-1,18,20,22,-1,-1,-1,-1,24,-1,-1,26,-1,-1,-1,-1],"split_conditions":[1.5999998E2,-9.325423E-2,4.4800607E2,4.1978558E2,3.0000014E0,2.002522E0,2.2834042E-1,1.999866E0,1.0852E4,7.914783E-2,6.2392893E0,-4.6145305E-2,8.975994E3,6.0011415E0,1.8995749E1,4.9190335E-2,-1.3579717E-1,2.177308E-3,1.9656877E-1,5.999877E0,-2.109903E-1,-9.5162444E-2,2.3768129E4,-1.12908415E-1,1.51447E-1,1.809085E-1,-3.4297737E-3],"split_indices":[1,0,1,1,2,0,0,2,1,0,2,0,1,2,2,0,0,0,0,2,0,0,1,0,0,0,0],"split_type":[0,0,0,0,0,0,0,0,0,0,0,0,0,0,0,0,0,0,0,0,0,0,0,0,0,0,0],"sum_hessian":[2.6054937E1,2.6387773E0,2.341616E1,5.1337E0,1.8282461E1,3.9919903E0,1.1417097E0,5.255443E0,1.3027018E1,1.8310294E0,2.160961E0,1.9618074E0,3.2936358E0,5.9537244E0,7.0732937E0,1.0001562E0,1.1608047E0,1.3926795E0,1.9009563E0,4.0338497E0,1.9198748E0,1.8094215E0,5.263872E0,3.0198894E0,1.0139601E0,1.7795585E0,3.4843135E0],"tree_param":{"num_deleted":"0","num_feature":"3","num_nodes":"27","size_leaf_vector":"0"}},{"base_weights":[1.0972964E-2,-2.3497112E-2,3.7824523E-1,-8.1893444E-2,1.6297594E-1,-1.7679706E-2,-5.410769E-1,4.642077E-1,-1.8923955E-1,-8.840432E-2,3.3859614E-1,7.444455E-1,-1.6521648E-2,-3.925825E-1,1.15001984E-1,7.0337327E-3,-3.9841345E-1,1.00203015E-1,4.2691073E-1,-1.1689044E-1,5.971762E-1,-6.713687E-2,-5.0197697E-1],"categories":[],"categories_nodes":[],"categories_segments":[],"categories_sizes":[],"default_left":[1,1,0,1,1,1,0,1,1,1,1,0,0,0,0,1,1,0,0,0,0,0,0],"id":45,"left_children":[1,3,-1,5,7,9,-1,11,13,15,17,-1,-1,-1,-1,19,21,-1,-1,-1,-1,-1,-1],"loss_changes":[3.4160635E-1,2.8523E-1,0E0,5.706891E-1,7.550739E-1,4.910094E-1,0E0,5.079711E-1,2.6844734E-1,4.7798386E-1,2.5390446E-2,0E0,0E0,0E0,0E0,1.0397516E0,9.659648E-2,0E0,0E0,0E0,0E0,0E0,0E0],"parents":[2147483647,0,0,1,1,3,3,4,4,5,5,7,7,8,8,9,9,10,10,15,15,16,16],"right_children":[2,4,-1,6,8,10,-1,12,14,16,18,-1,-1,-1,-1,20,22,-1,-1,-1,-1,-1,-1],"split_conditions":[4.2979584E1,1.4598123E2,1.1347357E-1,1.5787005E4,3.6077293E1,9.503999E3,-1.6232307E-1,3.3630222E2,4.0870106E1,2.9440005E3,5.9905605E0,2.2333366E-1,-4.9564946E-3,-1.17774755E-1,3.4500595E-2,2.9439998E3,2.0004673E0,3.0060906E-2,1.2807323E-1,-3.5067134E-2,1.7915286E-1,-2.0141061E-2,-1.505931E-1],"split_indices":[2,0,0,1,2,1,0,0,2,1,2,0,0,0,0,1,2,0,0,0,0,0,0],"split_type":[0,0,0,0,0,0,0,0,0,0,0,0,0,0,0,0,0,0,0,0,0,0,0],"sum_hessian":[2.52813E1,2.3967838E1,1.3134617E0,1.8679083E1,5.2887554E0,1.7298504E1,1.380578E0,2.6793125E0,2.609443E0,1.5060665E1,2.2378397E0,1.3460608E0,1.3332517E0,1.3900344E0,1.2194086E0,1.2262803E1,2.7978618E0,1.1819482E0,1.0558916E0,1.0797385E1,1.4654174E0,1.0589107E0,1.7389511E0],"tree_param":{"num_deleted":"0","num_feature":"3","num_nodes":"23","size_leaf_vector":"0"}},{"base_weights":[1.5203838E-2,-2.0875962E-1,6.0771216E-2,3.007786E-2,-3.6684558E-1,3.8954896E-1,1.6714011E-4,1.8526543E-2,6.499854E-1,-5.662321E-1,7.088181E-2,5.5612504E-1,3.6210592E-3,-1.475978E-1,1.6630875E-1,3.570917E-2,-6.312267E-1,5.297633E-1,2.6626177E-2],"categories":[],"categories_nodes":[],"categories_segments":[],"categories_sizes":[],"default_left":[1,1,1,0,0,1,1,0,0,0,1,0,1,1,1,0,0,0,0],"id":46,"left_children":[1,3,5,-1,-1,7,9,-1,-1,-1,11,-1,13,15,17,-1,-1,-1,-1],"loss_changes":[2.7582258E-1,1.8413207E-1,4.422635E-1,0E0,0E0,3.2177997E-1,8.30963E-1,0E0,0E0,0E0,5.998897E-1,0E0,4.4777468E-1,8.5993123E-1,4.305033E-1,0E0,0E0,0E0,0E0],"parents":[2147483647,0,0,1,1,2,2,5,5,6,6,10,10,12,12,13,13,14,14],"right_children":[2,4,6,-1,-1,8,10,-1,-1,-1,12,-1,14,16,18,-1,-1,-1,-1],"split_conditions":[1.6794586E2,1.0000032E0,3.0020885E0,9.023358E-3,-1.1005368E-1,2.9231925E0,3.999983E0,5.557963E-3,1.9499563E-1,-1.6986963E-1,4.000205E0,1.6683751E-1,1.8995749E1,6.0002E0,8.014137E0,1.0712751E-2,-1.8936802E-1,1.5892899E-1,7.987853E-3],"split_indices":[1,0,0,0,0,0,0,0,0,0,0,0,2,2,0,0,0,0,0],"split_type":[0,0,0,0,0,0,0,0,0,0,0,0,0,0,0,0,0,0,0],"sum_hessian":[2.478393E1,3.5845487E0,2.119938E1,1.7501484E0,1.8344004E0,2.4547217E0,1.874466E1,1.4541912E0,1.0005304E0,1.3027576E0,1.7441902E1,1.2385269E0,1.6203375E1,8.44576E0,7.7576146E0,6.796056E0,1.6497042E0,1.3783972E0,6.379217E0],"tree_param":{"num_deleted":"0","num_feature":"3","num_nodes":"19","size_leaf_vector":"0"}},{"base_weights":[1.2731104E-2,-5.7008658E-2,1.5589395E-1,3.9685E-3,-4.86808E-1,2.6280633E-1,-7.0378035E-2,-2.1028437E-1,5.8730796E-2,7.130059E-2,5.187836E-1,-3.1152713E-1,2.5653827E-1,6.6738E-2,-3.8897327E-1,5.434426E-1,-2.5126033E-2,4.4383407E-1,-1.6826233E-1,-5.552106E-1,7.798955E-2,-4.135963E-1,1.0390947E-1,5.9797376E-1,-2.7928121E-2],"categories":[],"categories_nodes":[],"categories_segments":[],"categories_sizes":[],"default_left":[1,1,1,1,0,1,1,1,1,1,0,0,0,0,0,0,1,0,1,0,1,0,0,0,0],"id":47,"left_children":[1,3,5,7,-1,9,11,13,15,17,-1,-1,-1,-1,-1,-1,19,-1,21,-1,23,-1,-1,-1,-1],"loss_changes":[2.5923285E-1,4.6300927E-1,2.2366863E-1,2.0476028E-1,0E0,2.5571686E-1,3.5665098E-1,2.0201448E-1,5.763012E-1,4.8297662E-1,0E0,0E0,0E0,0E0,0E0,0E0,7.405809E-1,0E0,2.7731848E-1,0E0,6.531594E-1,0E0,0E0,0E0,0E0],"parents":[2147483647,0,0,1,1,2,2,3,3,5,5,6,6,7,7,8,8,9,9,16,16,18,18,20,20],"right_children":[2,4,6,8,-1,10,12,14,16,18,-1,-1,-1,-1,-1,-1,20,-1,22,-1,24,-1,-1,-1,-1],"split_conditions":[1.0852E4,1.8002178E1,5.5113105E4,1.9990461E0,-1.460424E-1,3.8427984E4,1.3637075E5,8.965848E-7,2.0013566E0,1.5787044E4,1.5563509E-1,-9.3458146E-2,7.696149E-2,2.0021401E-2,-1.16691984E-1,1.6303279E-1,2.9979768E0,1.3315022E-1,1.4598123E2,-1.6656318E-1,3.1713762E0,-1.2407889E-1,3.1172842E-2,1.7939213E-1,-8.378437E-3],"split_indices":[1,0,1,0,0,1,0,2,0,1,0,0,0,0,0,0,0,0,0,0,0,0,0,0,0],"split_type":[0,0,0,0,0,0,0,0,0,0,0,0,0,0,0,0,0,0,0,0,0,0,0,0,0],"sum_hessian":[2.4074314E1,1.659304E1,7.481274E0,1.5399085E1,1.1939563E0,4.971027E0,2.510247E0,2.5566113E0,1.2842474E1,3.5749912E0,1.3960358E0,1.471714E0,1.038533E0,1.2481345E0,1.3084767E0,1.085785E0,1.1756688E1,1.06546E0,2.5095313E0,1.2005727E0,1.0556116E1,1.0465567E0,1.4629745E0,1.0001937E0,9.5559225E0],"tree_param":{"num_deleted":"0","num_feature":"3","num_nodes":"25","size_leaf_vector":"0"}},{"base_weights":[1.2408504E-2,-1.8284515E-1,5.995491E-2,1.0302426E-1,-3.828854E-1,5.524058E-1,-5.511042E-5,-6.6884644E-2,-5.12003E-1,-2.2238247E-1,8.985196E-2,1.3354201E-2,-5.759628E-1,6.2404644E-1,-2.8000891E-2,-1.9639526E-1,3.7080106E-1,-5.561851E-1,7.7624895E-2,-2.519874E-1,-2.9474556E-2,2.3031534E-1,-5.569394E-2],"categories":[],"categories_nodes":[],"categories_segments":[],"categories_sizes":[],"default_left":[1,1,1,0,1,0,1,0,0,1,1,1,0,0,1,1,0,0,1,0,0,0,0],"id":48,"left_children":[1,3,5,-1,7,-1,9,-1,-1,11,13,15,-1,-1,17,19,-1,-1,21,-1,-1,-1,-1],"loss_changes":[2.3844273E-1,3.2796532E-1,6.04608E-1,0E0,9.551418E-2,0E0,4.044817E-1,0E0,0E0,4.9335456E-1,9.246194E-1,4.0820152E-1,0E0,0E0,7.551548E-1,2.4798349E-2,0E0,0E0,2.4718295E-1,0E0,0E0,0E0,0E0],"parents":[2147483647,0,0,1,1,2,2,4,4,6,6,9,9,10,10,11,11,14,14,15,15,18,18],"right_children":[2,4,6,-1,8,-1,10,-1,-1,12,14,16,-1,-1,18,20,-1,-1,22,-1,-1,-1,-1],"split_conditions":[1.999866E0,8.965848E-7,2.0002553E0,3.0907279E-2,3.0037866E0,1.6572174E-1,5.999877E0,-2.0065393E-2,-1.536009E-1,5.030487E0,6.0002E0,3.701338E0,-1.7278884E-1,1.8721394E-1,9.848367E0,4.1915216E0,1.1124032E-1,-1.6685554E-1,3.604953E1,-7.559622E-2,-8.842368E-3,6.9094606E-2,-1.6708182E-2],"split_indices":[2,2,2,0,0,0,2,0,0,2,2,2,0,0,2,0,0,0,2,0,0,0,0],"split_type":[0,0,0,0,0,0,0,0,0,0,0,0,0,0,0,0,0,0,0,0,0,0,0],"sum_hessian":[2.350343E1,4.045324E0,1.9458105E1,1.8650455E0,2.1802783E0,1.2223228E0,1.8235783E1,1.072781E0,1.1074973E0,4.826663E0,1.3409119E1,3.4732397E0,1.3534232E0,1.6472874E0,1.1761831E1,2.4727774E0,1.0004623E0,1.2492598E0,1.0512571E1,1.4726835E0,1.0000937E0,4.5611362E0,5.9514356E0],"tree_param":{"num_deleted":"0","num_feature":"3","num_nodes":"23","size_leaf_vector":"0"}},{"base_weights":[6.472548E-3,-2.6542801E-2,3.2725617E-1,1.8185545E-2,-2.7931157E-1,-3.3983152E-2,4.010775E-1,-4.360952E-2,-3.630833E-1,1.5015114E-2,-3.074724E-1,-6.5830074E-2,5.303326E-1,-6.8946183E-3,-4.4684285E-1],"categories":[],"categories_nodes":[],"categories_segments":[],"categories_sizes":[],"default_left":[1,1,0,1,1,1,0,0,0,1,0,1,0,0,0],"id":49,"left_children":[1,3,-1,5,7,9,-1,-1,-1,11,-1,13,-1,-1,-1],"loss_changes":[2.5663552E-1,2.5552908E-1,0E0,4.083433E-1,5.1135063E-2,2.5001726E-1,0E0,0E0,0E0,7.216429E-1,0E0,3.3684608E-1,0E0,0E0,0E0],"parents":[2147483647,0,0,1,1,3,3,4,4,5,5,9,9,11,11],"right_children":[2,4,-1,6,8,10,-1,-1,-1,12,-1,14,-1,-1,-1],"split_conditions":[4.2979584E1,4.1061817E1,9.817686E-2,3.721724E1,4.4800607E2,3.362567E2,1.20323256E-1,-1.3082856E-2,-1.0892499E-1,2.0108941E4,-9.224173E-2,1.160687E2,1.5909979E-1,-2.0683855E-3,-1.3405286E-1],"split_indices":[2,2,0,2,1,0,0,0,0,1,0,0,0,0,0],"split_type":[0,0,0,0,0,0,0,0,0,0,0,0,0,0,0],"sum_hessian":[2.2411793E1,2.115206E1,1.2597332E0,1.8760395E1,2.3916647E0,1.7312788E1,1.4476064E0,1.0258591E0,1.3658056E0,1.5483811E1,1.8289778E0,1.413803E1,1.3457804E0,1.3125812E1,1.0122187E0],"tree_param":{"num_deleted":"0","num_feature":"3","num_nodes":"15","size_leaf_vector":"0"}},{"base_weights":[4.593228E-3,-3.4421906E-2,2.1524467E-1,2.9693438E-2,-2.96749E-1,-2.875884E-1,5.157899E-1,-5.2282657E-2,3.838352E-1,3.830667E-2,-4.8797768E-1,5.383245E-2,-2.2131851E-1,5.6828976E-1,1.5568562E-2,-5.365896E-2,5.0658315E-1,1.06201574E-1,-3.7175524E-1,5.3231068E-2,-4.4756716E-1,-5.9536946E-1,-4.9453914E-2],"categories":[],"categories_nodes":[],"categories_segments":[],"categories_sizes":[],"default_left":[1,1,1,1,1,0,0,1,1,0,0,1,1,0,0,1,0,0,1,0,0,0,0],"id":50,"left_children":[1,3,5,7,9,-1,-1,11,13,-1,-1,15,17,-1,-1,19,-1,-1,21,-1,-1,-1,-1],"loss_changes":[1.995676E-1,3.5510778E-1,7.213353E-1,5.2679276E-1,2.836213E-1,0E0,0E0,2.8193706E-1,2.2216141E-1,0E0,0E0,5.1640344E-1,3.351712E-1,0E0,0E0,4.03945E-1,0E0,0E0,2.829556E-1,0E0,0E0,0E0,0E0],"parents":[2147483647,0,0,1,1,2,2,3,3,4,4,7,7,8,8,11,11,12,12,15,15,18,18],"right_children":[2,4,6,8,10,-1,-1,12,14,-1,-1,16,18,-1,-1,20,-1,-1,22,-1,-1,-1,-1],"split_conditions":[4.1977673E1,3.604953E1,4.4799768E2,2.0108941E4,2.3768129E4,-8.627652E-2,1.5473698E-1,2.9440005E3,3.3630222E2,1.1492001E-2,-1.4639331E-1,2.9439998E3,2.0002553E0,1.7048693E-1,4.6705687E-3,2.2080002E3,1.5197495E-1,3.1860474E-2,5.99713E0,1.5969321E-2,-1.3427016E-1,-1.7861085E-1,-1.4836174E-2],"split_indices":[2,2,1,1,1,0,0,1,0,0,0,1,2,0,0,1,0,0,2,0,0,0,0],"split_type":[0,0,0,0,0,0,0,0,0,0,0,0,0,0,0,0,0,0,0,0,0,0,0],"sum_hessian":[2.2380943E1,1.9589355E1,2.7915869E0,1.6454517E1,3.1348393E0,1.0604656E0,1.7311213E0,1.4053748E1,2.4007683E0,1.4296325E0,1.7052069E0,9.052451E0,5.0012965E0,1.2376941E0,1.1630741E0,8.027949E0,1.0245018E0,1.6667067E0,3.3345902E0,6.994738E0,1.0332117E0,1.4684957E0,1.8660944E0],"tree_param":{"num_deleted":"0","num_feature":"3","num_nodes":"23","size_leaf_vector":"0"}},{"base_weights":[5.939402E-4,-1.8358691E-1,4.8343215E-2,8.760686E-3,-4.3438405E-1,5.0360405E-1,-5.194906E-3,-1.7247139E-1,2.5509125E-1,-1.10106565E-1,1.4136188E-1,5.9266042E-2,-4.7651306E-1,-3.735566E-2,2.7386665E-1,-3.149613E-1,1.9376151E-1,-1.190023E-1,-6.1452085E-1,3.611313E-1,-2.7913135E-1,4.553434E-1,-8.091075E-2,-6.2684104E-2,4.6656996E-1,8.0393836E-2,6.217401E-1],"categories":[],"categories_nodes":[],"categories_segments":[],"categories_sizes":[],"default_left":[1,1,1,1,0,0,1,0,0,1,1,1,1,1,1,0,1,0,0,0,0,1,0,0,0,0,0],"id":51,"left_children":[1,3,5,7,-1,-1,9,-1,-1,11,13,15,17,19,21,-1,23,-1,-1,-1,-1,25,-1,-1,-1,-1,-1],"loss_changes":[2.1029383E-1,2.4132183E-1,4.6521088E-1,2.1215467E-1,0E0,0E0,2.9189193E-1,0E0,0E0,7.131411E-1,1.9815417E-1,4.856673E-1,1.04463935E-1,5.110979E-1,3.3796746E-1,0E0,5.067558E-1,0E0,0E0,0E0,0E0,1.5248096E-1,0E0,0E0,0E0,0E0,0E0],"parents":[2147483647,0,0,1,1,2,2,3,3,6,6,9,9,10,10,11,11,12,12,13,13,14,14,16,16,21,21],"right_children":[2,4,6,8,-1,-1,10,-1,-1,12,14,16,18,20,22,-1,24,-1,-1,-1,-1,26,-1,-1,-1,-1,-1],"split_conditions":[1.999866E0,2.2080002E3,2.0002553E0,1.6071149E2,-1.3031521E-1,1.5108122E-1,1.0852E4,-5.1741417E-2,7.652738E-2,8.01174E0,3.5861458E1,3.9996552E0,6.002013E0,6.000846E0,4.1061817E1,-9.44884E-2,4.1978558E2,-3.570069E-2,-1.8435626E-1,1.083394E-1,-8.373941E-2,3.717361E1,-2.4273226E-2,-1.8805232E-2,1.3997099E-1,2.4118152E-2,1.8652204E-1],"split_indices":[2,1,2,1,0,0,1,0,0,0,2,2,2,2,2,0,1,0,0,0,0,2,0,0,0,0,0],"split_type":[0,0,0,0,0,0,0,0,0,0,0,0,0,0,0,0,0,0,0,0,0,0,0,0,0,0,0],"sum_hessian":[2.1902788E1,3.9236157E0,1.7979172E1,2.766744E0,1.1568717E0,1.0072844E0,1.6971888E1,1.7667418E0,1.0000023E0,1.0036232E1,6.935656E0,7.4367986E0,2.5994337E0,3.2586246E0,3.6770318E0,1.6113878E0,5.8254104E0,1.242642E0,1.3567917E0,1.0441036E0,2.214521E0,2.245133E0,1.431899E0,3.3997765E0,2.425634E0,1.1459824E0,1.0991504E0],"tree_param":{"num_deleted":"0","num_feature":"3","num_nodes":"27","size_leaf_vector":"0"}},{"base_weights":[1.7874804E-3,-3.5287544E-2,1.7632912E-1,3.30143E-2,-1.6793777E-1,4.1816634E-1,-7.8727774E-2,-6.26136E-2,4.3070206E-1,1.2529139E-1,-4.313304E-1,8.149984E-2,-2.0409149E-1,-2.172079E-1,4.4769335E-1,-6.123601E-1,-1.3878727E-1,-1.7635752E-1,2.6108393E-1,6.74423E-2,-3.3878458E-1,5.563235E-2,-3.452224E-1,4.23974E-1,1.1015176E-2,-6.050791E-1,2.2184554E-2],"categories":[],"categories_nodes":[],"categories_segments":[],"categories_sizes":[],"default_left":[1,1,1,1,1,0,0,1,0,1,1,1,1,0,0,0,0,1,1,0,1,0,0,0,0,0,0],"id":52,"left_children":[1,3,5,7,9,-1,-1,11,-1,13,15,17,19,-1,-1,-1,-1,21,23,-1,25,-1,-1,-1,-1,-1,-1],"loss_changes":[1.5067838E-1,1.7991266E-1,2.8444582E-1,5.418859E-1,5.7194763E-1,0E0,0E0,2.569814E-1,0E0,5.331907E-1,1.140126E-1,3.4955624E-1,2.5084418E-1,0E0,0E0,0E0,0E0,1.4799759E-1,1.6912925E-1,0E0,4.2992118E-1,0E0,0E0,0E0,0E0,0E0,0E0],"parents":[2147483647,0,0,1,1,2,2,3,3,4,4,7,7,9,9,10,10,11,11,12,12,17,17,18,18,20,20],"right_children":[2,4,6,8,10,-1,-1,12,-1,14,16,18,20,-1,-1,-1,-1,22,24,-1,26,-1,-1,-1,-1,-1,-1],"split_conditions":[4.6081984E4,2.5148476E1,5.351664E2,1.1583655E2,8.014137E0,1.2544991E-1,-2.3618333E-2,4.000205E0,1.2921062E-1,4.1978558E2,3.8976242E1,1.9990461E0,2.0002553E0,-6.516237E-2,1.3430801E-1,-1.8370804E-1,-4.1636184E-2,8.965848E-7,3.0014184E0,2.023269E-2,5.999877E0,1.6689705E-2,-1.0356673E-1,1.2719221E-1,3.304553E-3,-1.8152374E-1,6.6553666E-3],"split_indices":[1,2,0,0,0,0,0,0,0,1,2,0,2,0,0,0,0,2,0,0,2,0,0,0,0,0,0],"split_type":[0,0,0,0,0,0,0,0,0,0,0,0,0,0,0,0,0,0,0,0,0,0,0,0,0,0,0],"sum_hessian":[2.1323153E1,1.8245407E1,3.077746E0,1.2539772E1,5.7056346E0,1.2515562E0,1.8261899E0,1.07882E1,1.751572E0,2.9480042E0,2.7576303E0,5.5543346E0,5.2338653E0,1.5876589E0,1.3603454E0,1.0281603E0,1.72947E0,2.287613E0,3.2667217E0,1.9009484E0,3.332917E0,1.2461622E0,1.0414507E0,1.5570555E0,1.7096663E0,1.528815E0,1.804102E0],"tree_param":{"num_deleted":"0","num_feature":"3","num_nodes":"27","size_leaf_vector":"0"}},{"base_weights":[-2.6194996E-3,3.359646E-2,-2.1664724E-1,-3.6678653E-2,2.4712256E-1,-6.1232924E-1,2.2466525E-1,5.119143E-2,-1.8646185E-1,1.8415542E-2,4.3443647E-1,-8.010252E-2,5.648106E-1,1.8208954E-1,-4.2057225E-1,3.2883313E-1,-2.8037125E-1,3.5462648E-2,-5.1111656E-1,-9.132417E-2,3.6486274E-1,-6.123595E-1,-1.0465421E-1,-1.7435367E-1,2.4409507E-1],"categories":[],"categories_nodes":[],"categories_segments":[],"categories_sizes":[],"default_left":[1,1,1,1,1,0,0,1,1,1,0,1,0,1,1,0,0,1,0,0,0,0,0,0,0],"id":53,"left_children":[1,3,5,7,9,-1,-1,11,13,15,-1,17,-1,19,21,-1,-1,23,-1,-1,-1,-1,-1,-1,-1],"loss_changes":[1.7738166E-1,3.0369982E-1,7.15602E-1,2.1544036E-1,2.0582688E-1,0E0,0E0,7.630379E-1,5.942332E-1,3.974873E-1,0E0,4.840023E-1,0E0,1.8466046E-1,1.7651933E-1,0E0,0E0,4.0635157E-1,0E0,0E0,0E0,0E0,0E0,0E0,0E0],"parents":[2147483647,0,0,1,1,2,2,3,3,4,4,7,7,8,8,9,9,11,11,13,13,14,14,17,17],"right_children":[2,4,6,8,10,-1,-1,12,14,16,-1,18,-1,20,22,-1,-1,24,-1,-1,-1,-1,-1,-1,-1],"split_conditions":[4.205773E1,3.5981216E1,4.2979584E1,6.0002E0,4.6081984E4,-1.8369877E-1,6.739958E-2,5.999877E0,5.006217E0,8.017932E1,1.3033095E-1,5.030487E0,1.6944318E-1,1.6099916E2,1.1591798E2,9.864994E-2,-8.411138E-2,1.999866E0,-1.5333498E-1,-2.7397253E-2,1.0945883E-1,-1.8370786E-1,-3.1396262E-2,-5.2306104E-2,7.322852E-2],"split_indices":[2,2,2,2,1,0,0,2,0,0,0,2,0,1,0,0,0,2,0,0,0,0,0,0,0],"split_type":[0,0,0,0,0,0,0,0,0,0,0,0,0,0,0,0,0,0,0,0,0,0,0,0,0],"sum_hessian":[2.0945332E1,1.8635086E1,2.310244E0,1.4643788E1,3.9912987E0,1.0137734E0,1.2964706E0,9.644239E0,4.999549E0,2.291604E0,1.6996946E0,8.353036E0,1.2912029E0,2.0284467E0,2.9711022E0,1.074606E0,1.2169981E0,7.3106103E0,1.0424263E0,1.0131696E0,1.015277E0,1.2648741E0,1.706228E0,3.726882E0,3.583728E0],"tree_param":{"num_deleted":"0","num_feature":"3","num_nodes":"25","size_leaf_vector":"0"}},{"base_weights":[-6.3912612E-3,2.5913289E-2,-1.9674091E-1,-1.7415788E-2,3.1166247E-1,-1.6446535E-2,-2.9029256E-1,3.1015208E-2,-2.6539248E-1,-4.0424637E-2,4.1719818E-1,-1.0334742E-1,1.819661E-1,1.3187132E-3,-3.5071138E-1,1.0481597E-2,2.5380254E-1],"categories":[],"categories_nodes":[],"categories_segments":[],"categories_sizes":[],"default_left":[1,1,1,1,0,0,0,1,0,1,0,1,1,0,0,0,0],"id":54,"left_children":[1,3,5,7,-1,-1,-1,9,-1,11,-1,13,15,-1,-1,-1,-1],"loss_changes":[1.3585852E-1,2.4145275E-1,4.922743E-2,2.1840402E-1,0E0,0E0,0E0,4.4548893E-1,0E0,2.1502785E-1,0E0,2.999579E-1,3.989785E-2,0E0,0E0,0E0,0E0],"parents":[2147483647,0,0,1,1,2,2,3,3,7,7,9,9,11,11,12,12],"right_children":[2,4,6,8,-1,-1,-1,10,-1,12,-1,14,16,-1,-1,-1,-1],"split_conditions":[4.205773E1,4.0870106E1,4.480689E2,3.604953E1,9.3498744E-2,-4.9339607E-3,-8.708777E-2,2.999702E1,-7.9617746E-2,1.1591798E2,1.2515946E-1,6.0002E0,2.0108941E4,3.9561398E-4,-1.0521342E-1,3.1444791E-3,7.614076E-2],"split_indices":[2,2,1,2,0,0,0,2,0,0,0,2,1,0,0,0,0],"split_type":[0,0,0,0,0,0,0,0,0,0,0,0,0,0,0,0,0],"sum_hessian":[2.0264748E1,1.8063095E1,2.2016525E0,1.6500172E1,1.5629225E0,1.1538106E0,1.047842E0,1.4536126E1,1.9640459E0,1.3022433E1,1.5136926E0,1.0567715E1,2.4547186E0,8.124638E0,2.4430768E0,1.0630251E0,1.3916936E0],"tree_param":{"num_deleted":"0","num_feature":"3","num_nodes":"17","size_leaf_vector":"0"}},{"base_weights":[-4.230645E-3,-2.8789252E-2,2.1033996E-1,2.1808436E-2,-2.9599732E-1,-2.645777E-2,3.3293104E-1,1.7844971E-2,-2.5872478E-1,-3.6293466E-2,2.927104E-1,5.7660535E-2,-2.0543614E-1],"categories":[],"categories_nodes":[],"categories_segments":[],"categories_sizes":[],"default_left":[1,1,0,1,0,1,0,1,0,1,0,0,0],"id":55,"left_children":[1,3,-1,5,-1,7,-1,9,-1,11,-1,-1,-1],"loss_changes":[1.1771461E-1,2.7540967E-1,0E0,2.7396095E-1,0E0,1.7144118E-1,0E0,2.271489E-1,0E0,2.1916793E-1,0E0,0E0,0E0],"parents":[2147483647,0,0,1,1,3,3,5,5,7,7,9,9],"right_children":[2,4,-1,6,-1,8,-1,10,-1,12,-1,-1,-1],"split_conditions":[4.2979584E1,4.1061817E1,6.310199E-2,3.721724E1,-8.87992E-2,3.362567E2,9.987932E-2,1.4598123E2,-7.761744E-2,2.9440005E3,8.7813124E-2,1.7298162E-2,-6.1630845E-2],"split_indices":[2,2,0,2,0,0,0,0,0,1,0,0,0],"split_type":[0,0,0,0,0,0,0,0,0,0,0,0,0],"sum_hessian":[2.0189472E1,1.8892918E1,1.2965541E0,1.6657156E1,2.235763E0,1.5212166E1,1.4449888E0,1.35506735E1,1.6614927E0,1.2046009E1,1.5046642E0,8.168011E0,3.8779988E0],"tree_param":{"num_deleted":"0","num_feature":"3","num_nodes":"13","size_leaf_vector":"0"}},{"base_weights":[-2.09609E-3,-1.456019E-1,3.6523014E-2,8.178185E-2,-3.2956168E-1,3.5020354E-1,-3.1217754E-2,-3.4325582E-1,5.131644E-2,-1.4523527E-2,-5.2548844E-1,5.230431E-1,-3.652767E-2,3.0202886E-1,-1.1137119E-1,-5.593111E-1,8.427104E-3],"categories":[],"categories_nodes":[],"categories_segments":[],"categories_sizes":[],"default_left":[1,1,1,0,0,0,1,1,1,0,0,0,1,0,1,0,0],"id":56,"left_children":[1,3,5,-1,-1,-1,7,9,11,-1,-1,-1,13,-1,15,-1,-1],"loss_changes":[1.2207083E-1,2.2219849E-1,3.8064355E-1,0E0,0E0,0E0,4.0977025E-1,1.909655E-1,5.541552E-1,0E0,0E0,0E0,3.331332E-1,0E0,5.633603E-1,0E0,0E0],"parents":[2147483647,0,0,1,1,2,2,6,6,7,7,8,8,12,12,14,14],"right_children":[2,4,6,-1,-1,-1,8,10,12,-1,-1,-1,14,-1,16,-1,-1],"split_conditions":[1.999866E0,8.965848E-7,3.0000014E0,2.4534555E-2,-9.886851E-2,1.0506107E-1,5.999877E0,4.000205E0,6.0002E0,-4.357058E-3,-1.5764654E-1,1.5691294E-1,2.0076957E0,9.0608664E-2,1.8995749E1,-1.6779333E-1,2.5281312E-3],"split_indices":[2,2,2,0,0,0,2,0,2,0,0,0,0,0,2,0,0],"split_type":[0,0,0,0,0,0,0,0,0,0,0,0,0,0,0,0,0],"sum_hessian":[2.0066692E1,3.6676745E0,1.6399017E1,1.8886465E0,1.779028E0,2.1719275E0,1.4227091E1,2.3151648E0,1.1911925E1,1.2107576E0,1.1044072E0,1.0922544E0,1.0819672E1,1.4092813E0,9.41039E0,1.211537E0,8.1988535E0],"tree_param":{"num_deleted":"0","num_feature":"3","num_nodes":"17","size_leaf_vector":"0"}},{"base_weights":[-4.4159596E-3,-1.4244564E-1,3.9155576E-2,7.873666E-2,-5.158686E-1,2.5364706E-1,-1.9435192E-2,-1.0577626E-1,2.57455E-1,-6.261653E-2,4.263645E-1,1.650474E-1,-9.9021986E-2,-8.744324E-2,3.133144E-1,-3.2890877E-1,4.633431E-2,-7.353898E-2,-5.4838467E-1,3.788841E-1,-7.571946E-2,-1.5523817E-1,4.6511028E-2,-3.2661438E-1,9.344451E-2],"categories":[],"categories_nodes":[],"categories_segments":[],"categories_sizes":[],"default_left":[1,1,1,1,0,1,1,0,0,0,0,1,1,0,0,1,1,1,0,0,1,0,0,0,0],"id":57,"left_children":[1,3,5,7,-1,9,11,-1,-1,-1,-1,13,15,-1,-1,17,19,21,-1,-1,23,-1,-1,-1,-1],"loss_changes":[1.2816335E-1,4.6235085E-1,2.0948356E-1,1.6158552E-1,0E0,2.2134607E-1,2.176882E-1,0E0,0E0,0E0,0E0,1.961589E-1,3.5625714E-1,0E0,0E0,1.8816054E-1,3.1803465E-1,3.7028074E-2,0E0,0E0,2.872196E-1,0E0,0E0,0E0,0E0],"parents":[2147483647,0,0,1,1,2,2,3,3,5,5,6,6,11,11,12,12,15,15,16,16,17,17,20,20],"right_children":[2,4,6,8,-1,10,12,-1,-1,-1,-1,14,16,-1,-1,18,20,22,-1,-1,24,-1,-1,-1,-1],"split_conditions":[2.9979768E0,2.0013566E0,4.4800607E2,5.9929643E0,-1.5476058E-1,2.9823704E1,3.0000014E0,-3.173288E-2,7.72365E-2,-1.8784959E-2,1.2790936E-1,1.999866E0,1.0852E4,-2.6232973E-2,9.399433E-2,6.0011415E0,1.1631529E2,2.9439897E3,-1.645154E-1,1.1366524E-1,3.5861458E1,-4.6571452E-2,1.3953309E-2,-9.798432E-2,2.8033355E-2],"split_indices":[0,0,1,2,0,2,2,0,0,0,0,2,1,0,0,2,0,1,0,0,2,0,0,0,0],"split_type":[0,0,0,0,0,0,0,0,0,0,0,0,0,0,0,0,0,0,0,0,0,0,0,0,0],"sum_hessian":[1.9382845E1,4.106064E0,1.527678E1,3.074283E0,1.0317811E0,2.563411E0,1.2713369E1,1.7134339E0,1.360849E0,1.1306098E0,1.4328011E0,3.5080009E0,9.205368E0,1.4496156E0,2.0583854E0,3.0766878E0,6.1286807E0,2.0391335E0,1.0375543E0,1.080498E0,5.0481825E0,1.0389625E0,1.0001711E0,1.6581491E0,3.3900335E0],"tree_param":{"num_deleted":"0","num_feature":"3","num_nodes":"25","size_leaf_vector":"0"}},{"base_weights":[-9.080364E-3,2.345112E-2,-1.9594678E-1,-1.6474077E-2,2.7149567E-1,3.247427E-2,-2.5680232E-1,-5.487097E-2,2.7049315E-1,5.4242384E-2,-2.854722E-1,-1.9274049E-2,4.3643236E-1,-1.2633446E-1,1.64804E-1,6.547671E-2,-4.5977762E-1],"categories":[],"categories_nodes":[],"categories_segments":[],"categories_sizes":[],"default_left":[1,1,0,1,0,1,0,1,1,1,1,0,0,0,0,0,0],"id":58,"left_children":[1,3,-1,5,-1,7,-1,9,11,13,15,-1,-1,-1,-1,-1,-1],"loss_changes":[1.2655726E-1,1.825426E-1,0E0,2.0162646E-1,0E0,3.1709138E-1,0E0,3.0400893E-1,2.0418552E-1,1.929995E-1,2.6517212E-1,0E0,0E0,0E0,0E0,0E0,0E0],"parents":[2147483647,0,0,1,1,3,3,5,5,7,7,8,8,9,9,10,10],"right_children":[2,4,-1,6,-1,8,-1,10,12,14,16,-1,-1,-1,-1,-1,-1],"split_conditions":[4.205773E1,4.0870106E1,-5.8784038E-2,3.604953E1,8.1448704E-2,1.1591798E2,-7.70407E-2,2.9440005E3,1.8995749E1,1.6794586E2,2.0002553E0,-5.782215E-3,1.3092971E-1,-3.790034E-2,4.94412E-2,1.9643012E-2,-1.379333E-1],"split_indices":[2,2,0,2,0,0,0,1,2,1,2,0,0,0,0,0,0],"split_type":[0,0,0,0,0,0,0,0,0,0,0,0,0,0,0,0,0],"sum_hessian":[1.9062716E1,1.6981005E1,2.0817115E0,1.5430843E1,1.5501612E0,1.3538328E1,1.8925151E0,1.0466813E1,3.0715146E0,7.624103E0,2.8427105E0,1.4402913E0,1.6312233E0,2.8411233E0,4.7829795E0,1.1505444E0,1.692166E0],"tree_param":{"num_deleted":"0","num_feature":"3","num_nodes":"17","size_leaf_vector":"0"}},{"base_weights":[-9.345782E-3,-3.3108026E-2,1.9244199E-1,1.6401567E-2,-2.8374317E-1,-3.0544918E-2,3.0139354E-1,1.8012788E-2,-2.3883659E-1,-3.26821E-2,2.7992368E-1,1.24926716E-1,-1.12382405E-1],"categories":[],"categories_nodes":[],"categories_segments":[],"categories_sizes":[],"default_left":[1,1,0,1,0,1,0,1,0,1,0,0,0],"id":59,"left_children":[1,3,-1,5,-1,7,-1,9,-1,11,-1,-1,-1],"loss_changes":[1.0176324E-1,2.3609877E-1,0E0,2.302378E-1,0E0,1.5694335E-1,0E0,1.8399473E-1,0E0,1.6387895E-1,0E0,0E0,0E0],"parents":[2147483647,0,0,1,1,3,3,5,5,7,7,9,9],"right_children":[2,4,-1,6,-1,8,-1,10,-1,12,-1,-1,-1],"split_conditions":[4.2979584E1,4.1061817E1,5.7732597E-2,3.721724E1,-8.512296E-2,3.0000086E1,9.041806E-2,2.4926247E1,-7.165098E-2,3.0014184E0,8.39771E-2,3.7478015E-2,-3.3714723E-2],"split_indices":[2,2,0,2,0,2,0,2,0,0,0,0,0],"split_type":[0,0,0,0,0,0,0,0,0,0,0,0,0],"sum_hessian":[1.8894318E1,1.7651615E1,1.2427028E0,1.552034E1,2.1312742E0,1.4091827E1,1.4285129E0,1.2168568E1,1.9232593E0,1.0928491E1,1.2400776E0,3.479755E0,7.448735E0],"tree_param":{"num_deleted":"0","num_feature":"3","num_nodes":"13","size_leaf_vector":"0"}},{"base_weights":[-3.0153873E-3,-1.0713171E-1,4.883409E-2,4.083819E-2,-4.3175268E-1,-2.62699E-2,3.7402433E-1,-1.0818812E-1,3.109196E-1,3.3674624E-2,-3.15714E-1,8.532139E-2,-2.537438E-1,-3.9966635E-2,2.6065543E-1,6.4636044E-2,-2.6081952E-1,-5.0523896E-2,3.804685E-1],"categories":[],"categories_nodes":[],"categories_segments":[],"categories_sizes":[],"default_left":[1,1,1,1,0,1,0,1,0,1,0,0,0,1,0,1,0,0,0],"id":60,"left_children":[1,3,5,7,-1,9,-1,11,-1,13,-1,-1,-1,15,-1,17,-1,-1,-1],"loss_changes":[1.1217709E-1,3.4901896E-1,3.4959143E-1,2.611457E-1,0E0,2.2293176E-1,0E0,1.4514345E-1,0E0,1.949564E-1,0E0,0E0,0E0,2.2946021E-1,0E0,2.755091E-1,0E0,0E0,0E0],"parents":[2147483647,0,0,1,1,2,2,3,3,5,5,7,7,9,9,13,13,15,15],"right_children":[2,4,6,8,-1,10,-1,12,-1,14,-1,-1,-1,16,-1,18,-1,-1,-1],"split_conditions":[4.4799768E2,5.0029416E0,4.1977673E1,2.5196289E2,-1.2952581E-1,3.9107056E1,1.122073E-1,1.0000032E0,9.327589E-2,3.5861458E1,-9.47142E-2,2.5596417E-2,-7.612314E-2,6.000846E0,7.819663E-2,5.8654375E0,-7.824586E-2,-1.515717E-2,1.1414055E-1],"split_indices":[1,0,2,1,0,2,0,0,0,2,0,0,0,2,0,2,0,0,0],"split_type":[0,0,0,0,0,0,0,0,0,0,0,0,0,0,0,0,0,0,0],"sum_hessian":[1.881066E1,5.8989897E0,1.291167E1,4.6524777E0,1.2465118E0,1.12359085E1,1.6757613E0,3.384431E0,1.268047E0,1.00402155E1,1.1956935E0,1.6305343E0,1.7538966E0,8.202826E0,1.8373896E0,6.0464E0,2.1564252E0,5.0463953E0,1.000005E0],"tree_param":{"num_deleted":"0","num_feature":"3","num_nodes":"19","size_leaf_vector":"0"}},{"base_weights":[-1.4347881E-3,3.1145766E-2,-1.927081E-1,-8.092041E-3,2.6804298E-1,4.2758536E-2,-2.5726402E-1,-1.9258656E-2,3.4163466E-1,-1.14100955E-1,1.150715E-1,6.50874E-2,-3.0632415E-1,2.3243363E-1,-1.2778825E-1],"categories":[],"categories_nodes":[],"categories_segments":[],"categories_sizes":[],"default_left":[1,1,0,1,0,1,0,1,0,1,1,0,0,0,0],"id":61,"left_children":[1,3,-1,5,-1,7,-1,9,-1,11,13,-1,-1,-1,-1],"loss_changes":[1.2750798E-1,1.65031E-1,0E0,2.1375279E-1,0E0,2.6880473E-1,0E0,1.7445551E-1,0E0,2.9288816E-1,1.9325906E-1,0E0,0E0,0E0,0E0],"parents":[2147483647,0,0,1,1,3,3,5,5,7,7,9,9,10,10],"right_children":[2,4,-1,6,-1,8,-1,10,-1,12,14,-1,-1,-1,-1],"split_conditions":[4.205773E1,4.0870106E1,-5.7812434E-2,3.604953E1,8.0412894E-2,3.8427984E4,-7.717921E-2,5.999877E0,1.024904E-1,2.0002553E0,2.5148476E1,1.952622E-2,-9.189725E-2,6.9730096E-2,-3.8336474E-2],"split_indices":[2,2,0,2,0,1,0,2,0,2,2,0,0,0,0],"split_type":[0,0,0,0,0,0,0,0,0,0,0,0,0,0,0],"sum_hessian":[1.8497759E1,1.6520845E1,1.9769133E0,1.500189E1,1.5189548E0,1.3147225E1,1.8546652E0,1.1662752E1,1.4844733E0,6.9244294E0,4.7383227E0,3.9260268E0,2.9984024E0,3.2234967E0,1.5148263E0],"tree_param":{"num_deleted":"0","num_feature":"3","num_nodes":"15","size_leaf_vector":"0"}},{"base_weights":[-1.1407764E-3,-1.396434E-1,4.214634E-2,5.4117665E-2,-2.543675E-1,2.2599E-1,-2.4757998E-2,-3.0173284E-1,-7.501212E-2,5.0873196E-1,-9.112908E-2,-3.7477487E-1,4.7606062E-2,-2.8925332E-1,1.1025275E-1,3.00398E-1,-4.1147318E-2,3.46678E-2,4.8457152E-1,2.455056E-1,-1.579226E-1],"categories":[],"categories_nodes":[],"categories_segments":[],"categories_sizes":[],"default_left":[1,1,1,0,1,1,1,0,0,0,0,0,1,0,1,1,1,0,0,0,0],"id":62,"left_children":[1,3,5,-1,7,9,11,-1,-1,-1,-1,-1,13,-1,15,17,19,-1,-1,-1,-1],"loss_changes":[1.21764675E-1,1.21224985E-1,1.9616921E-1,0E0,4.651338E-3,4.2588592E-1,3.2839864E-1,0E0,0E0,0E0,0E0,0E0,2.6503348E-1,0E0,3.0137464E-1,2.0689484E-1,2.5530267E-1,0E0,0E0,0E0,0E0],"parents":[2147483647,0,0,1,1,2,2,4,4,5,5,6,6,12,12,14,14,15,15,16,16],"right_children":[2,4,6,-1,8,10,12,-1,-1,-1,-1,-1,14,-1,16,18,20,-1,-1,-1,-1],"split_conditions":[2.9979768E0,1.0000032E0,5.0029416E0,1.62353E-2,1.6794586E2,2.2080002E3,7.9997153E0,-9.051985E-2,-2.2503637E-2,1.526196E-1,-2.7338725E-2,-1.12432465E-1,1.999866E0,-8.6776E-2,1.5787005E4,2.4926247E1,1.9513992E1,1.0400341E-2,1.4537147E-1,7.365169E-2,-4.737678E-2],"split_indices":[0,0,0,0,1,1,0,0,0,0,0,0,2,0,1,2,2,0,0,0,0],"split_type":[0,0,0,0,0,0,0,0,0,0,0,0,0,0,0,0,0,0,0,0,0],"sum_hessian":[1.8328087E1,3.8341753E0,1.4493912E1,1.6223755E0,2.2117999E0,3.2328072E0,1.1261105E1,1.2099503E0,1.0018495E0,1.3896084E0,1.8431989E0,1.2133323E0,1.0047772E1,1.0083777E0,9.039394E0,3.5707328E0,5.468662E0,1.9481409E0,1.622592E0,1.2638534E0,4.204808E0],"tree_param":{"num_deleted":"0","num_feature":"3","num_nodes":"21","size_leaf_vector":"0"}},{"base_weights":[-1.1778568E-3,-1.0271251E-1,4.40051E-2,6.63019E-2,-2.7568567E-1,3.1032646E-1,-2.0018097E-2,-9.517438E-2,2.2118407E-1,-3.4181324E-1,4.335654E-2,-3.4500882E-2,3.0026305E-1,4.801001E-2,-2.498361E-1,-6.1343055E-2,3.427318E-1],"categories":[],"categories_nodes":[],"categories_segments":[],"categories_sizes":[],"default_left":[1,1,1,1,0,0,1,0,0,0,1,1,0,1,0,0,0],"id":63,"left_children":[1,3,5,7,-1,-1,9,-1,-1,-1,11,13,-1,15,-1,-1,-1],"loss_changes":[9.237926E-2,1.9946949E-1,2.4413125E-1,1.1961154E-1,0E0,0E0,2.633916E-1,0E0,0E0,0E0,2.3179498E-1,1.7888172E-1,0E0,2.6691616E-1,0E0,0E0,0E0],"parents":[2147483647,0,0,1,1,2,2,3,3,6,6,10,10,11,11,13,13],"right_children":[2,4,6,8,-1,-1,10,-1,-1,-1,12,14,-1,16,-1,-1,-1],"split_conditions":[3.999983E0,2.0013566E0,5.0029416E0,5.9929643E0,-8.270571E-2,9.309794E-2,4.4799768E2,-2.8552314E-2,6.635523E-2,-1.0254397E-1,4.1977673E1,3.8142387E1,9.007892E-2,3.5861458E1,-7.495084E-2,-1.8402917E-2,1.0281955E-1],"split_indices":[0,0,0,2,0,0,1,0,0,0,2,2,0,2,0,0,0],"split_type":[0,0,0,0,0,0,0,0,0,0,0,0,0,0,0,0,0],"sum_hessian":[1.8151342E1,5.197752E0,1.295359E1,2.9408753E0,2.2568765E0,1.7649056E0,1.1188684E1,1.6285228E0,1.3123525E0,1.118053E0,1.0070631E1,8.392829E0,1.6778026E0,6.6295877E0,1.7632414E0,5.4130135E0,1.216574E0],"tree_param":{"num_deleted":"0","num_feature":"3","num_nodes":"17","size_leaf_vector":"0"}},{"base_weights":[1.3304253E-3,3.2534767E-2,-1.8212874E-1,-1.2065934E-2,1.980724E-1,7.569386E-2,-1.349244E-1,-1.0546587E-2,3.2068095E-1,6.2426564E-4,3.387553E-1,1.2498185E-1,-2.1441129E-1,8.956512E-2,-2.0635879E-1,-3.7357E-1,-4.879492E-2,-6.83487E-2,2.9355463E-1,2.6802918E-1,-2.7965787E-1],"categories":[],"categories_nodes":[],"categories_segments":[],"categories_sizes":[],"default_left":[1,1,0,1,1,1,1,0,0,1,0,0,1,1,0,0,1,0,0,0,0],"id":64,"left_children":[1,3,-1,5,7,9,11,-1,-1,13,-1,-1,15,17,-1,-1,19,-1,-1,-1,-1],"loss_changes":[1.1433737E-1,1.2814689E-1,0E0,1.650483E-1,9.732157E-2,1.7786376E-1,1.578401E-1,0E0,0E0,1.660746E-1,0E0,0E0,1.19518995E-1,2.2316545E-1,0E0,0E0,3.4640235E-1,0E0,0E0,0E0,0E0],"parents":[2147483647,0,0,1,1,3,3,4,4,5,5,6,6,9,9,12,12,13,13,16,16],"right_children":[2,4,-1,6,8,10,12,-1,-1,14,-1,-1,16,18,-1,-1,20,-1,-1,-1,-1],"split_conditions":[4.205773E1,3.721724E1,-5.4638624E-2,6.0002E0,1.7284962E2,5.8504596E0,2.0076957E0,